digraph Tree {
node [shape=box] ;
0 [label="remot <= 0.5\ngini = 0.5\nsamples = 44182\nvalue = [34622.919, 35049.812]"] ;
1 [label="first <= 0.5\ngini = 0.5\nsamples = 44121\nvalue = [34477.228, 35011.887]"] ;
0 -> 1 [labeldistance=2.5, labelangle=45, headlabel="True"] ;
2 [label="good <= 0.5\ngini = 0.5\nsamples = 40623\nvalue = [30787.831, 32332.773]"] ;
1 -> 2 ;
3 [label="extract <= 0.5\ngini = 0.5\nsamples = 30062\nvalue = [24407.444, 23666.548]"] ;
2 -> 3 ;
4 [label="cereal <= 0.5\ngini = 0.5\nsamples = 29906\nvalue = [24158.913, 23553.338]"] ;
3 -> 4 ;
5 [label="excel <= 0.5\ngini = 0.5\nsamples = 29052\nvalue = [23713.271, 22857.663]"] ;
4 -> 5 ;
6 [label="ined <= 0.5\ngini = 0.499\nsamples = 27654\nvalue = [23331.905, 21624.24]"] ;
5 -> 6 ;
7 [label="expir <= 0.5\ngini = 0.499\nsamples = 27626\nvalue = [23211.925, 21615.749]"] ;
6 -> 7 ;
8 [label="easili <= 0.5\ngini = 0.5\nsamples = 27497\nvalue = [22787.708, 21555.748]"] ;
7 -> 8 ;
9 [label="add <= 0.5\ngini = 0.499\nsamples = 27095\nvalue = [22620.593, 21226.307]"] ;
8 -> 9 ;
10 [label="perhap <= 0.5\ngini = 0.499\nsamples = 25507\nvalue = [21982.125, 19905.712]"] ;
9 -> 10 ;
11 [label="smell <= 0.5\ngini = 0.499\nsamples = 25349\nvalue = [21600.759, 19821.371]"] ;
10 -> 11 ;
12 [label="gini = 0.499\nsamples = 24725\nvalue = [20713.761, 19391.173]"] ;
11 -> 12 ;
13 [label="gini = 0.44\nsamples = 624\nvalue = [886.998, 430.198]"] ;
11 -> 13 ;
14 [label="sinc <= 1.5\ngini = 0.297\nsamples = 158\nvalue = [381.366, 84.341]"] ;
10 -> 14 ;
15 [label="gini = 0.293\nsamples = 156\nvalue = [381.366, 82.643]"] ;
14 -> 15 ;
16 [label="gini = 0.0\nsamples = 2\nvalue = [0.0, 1.698]"] ;
14 -> 16 ;
17 [label="gave <= 0.5\ngini = 0.439\nsamples = 1588\nvalue = [638.467, 1320.595]"] ;
9 -> 17 ;
18 [label="vagu <= 0.5\ngini = 0.434\nsamples = 1565\nvalue = [608.472, 1306.443]"] ;
17 -> 18 ;
19 [label="gini = 0.43\nsamples = 1564\nvalue = [595.617, 1306.443]"] ;
18 -> 19 ;
20 [label="gini = 0.0\nsamples = 1\nvalue = [12.855, 0.0]"] ;
18 -> 20 ;
21 [label="certain <= 0.5\ngini = 0.436\nsamples = 23\nvalue = [29.995, 14.151]"] ;
17 -> 21 ;
22 [label="gini = 0.415\nsamples = 21\nvalue = [29.995, 12.453]"] ;
21 -> 22 ;
23 [label="gini = 0.0\nsamples = 2\nvalue = [0.0, 1.698]"] ;
21 -> 23 ;
24 [label="giant <= 1.5\ngini = 0.447\nsamples = 402\nvalue = [167.116, 329.441]"] ;
8 -> 24 ;
25 [label="most <= 1.5\ngini = 0.443\nsamples = 401\nvalue = [162.831, 329.441]"] ;
24 -> 25 ;
26 [label="contact <= 0.5\ngini = 0.421\nsamples = 398\nvalue = [141.405, 328.875]"] ;
25 -> 26 ;
27 [label="gini = 0.398\nsamples = 394\nvalue = [124.265, 328.309]"] ;
26 -> 27 ;
28 [label="gini = 0.062\nsamples = 4\nvalue = [17.14, 0.566]"] ;
26 -> 28 ;
29 [label="doesnt <= 0.5\ngini = 0.05\nsamples = 3\nvalue = [21.425, 0.566]"] ;
25 -> 29 ;
30 [label="gini = 0.0\nsamples = 1\nvalue = [17.14, 0.0]"] ;
29 -> 30 ;
31 [label="gini = 0.206\nsamples = 2\nvalue = [4.285, 0.566]"] ;
29 -> 31 ;
32 [label="gini = -0.0\nsamples = 1\nvalue = [4.285, 0.0]"] ;
24 -> 32 ;
33 [label="smore <= 0.5\ngini = 0.217\nsamples = 129\nvalue = [424.216, 60.001]"] ;
7 -> 33 ;
34 [label="fremont <= 0.5\ngini = 0.214\nsamples = 128\nvalue = [424.216, 58.869]"] ;
33 -> 34 ;
35 [label="tray <= 0.5\ngini = 0.211\nsamples = 127\nvalue = [424.216, 57.737]"] ;
34 -> 35 ;
36 [label="avail <= 0.5\ngini = 0.209\nsamples = 126\nvalue = [424.216, 57.171]"] ;
35 -> 36 ;
37 [label="gini = 0.198\nsamples = 122\nvalue = [424.216, 53.209]"] ;
36 -> 37 ;
38 [label="gini = -0.0\nsamples = 4\nvalue = [0.0, 3.962]"] ;
36 -> 38 ;
39 [label="gini = -0.0\nsamples = 1\nvalue = [0.0, 0.566]"] ;
35 -> 39 ;
40 [label="gini = 0.0\nsamples = 1\nvalue = [0.0, 1.132]"] ;
34 -> 40 ;
41 [label="gini = 0.0\nsamples = 1\nvalue = [0.0, 1.132]"] ;
33 -> 41 ;
42 [label="textur <= 0.5\ngini = 0.123\nsamples = 28\nvalue = [119.98, 8.491]"] ;
6 -> 42 ;
43 [label="time <= 0.5\ngini = 0.101\nsamples = 26\nvalue = [119.98, 6.793]"] ;
42 -> 43 ;
44 [label="moon <= 1.0\ngini = 0.07\nsamples = 23\nvalue = [119.98, 4.528]"] ;
43 -> 44 ;
45 [label="straight <= 0.5\ngini = 0.075\nsamples = 22\nvalue = [111.41, 4.528]"] ;
44 -> 45 ;
46 [label="jerki <= 1.0\ngini = 0.084\nsamples = 21\nvalue = [98.555, 4.528]"] ;
45 -> 46 ;
47 [label="gini = 0.077\nsamples = 19\nvalue = [94.27, 3.962]"] ;
46 -> 47 ;
48 [label="gini = 0.206\nsamples = 2\nvalue = [4.285, 0.566]"] ;
46 -> 48 ;
49 [label="gini = 0.0\nsamples = 1\nvalue = [12.855, 0.0]"] ;
45 -> 49 ;
50 [label="gini = 0.0\nsamples = 1\nvalue = [8.57, 0.0]"] ;
44 -> 50 ;
51 [label="gini = 0.0\nsamples = 3\nvalue = [0.0, 2.264]"] ;
43 -> 51 ;
52 [label="gini = 0.0\nsamples = 2\nvalue = [0.0, 1.698]"] ;
42 -> 52 ;
53 [label="helen <= 1.0\ngini = 0.361\nsamples = 1398\nvalue = [381.366, 1233.423]"] ;
5 -> 53 ;
54 [label="institut <= 0.5\ngini = 0.354\nsamples = 1397\nvalue = [368.511, 1233.423]"] ;
53 -> 54 ;
55 [label="allergi <= 0.5\ngini = 0.345\nsamples = 1395\nvalue = [351.371, 1232.291]"] ;
54 -> 55 ;
56 [label="sandwich <= 1.5\ngini = 0.334\nsamples = 1388\nvalue = [329.946, 1226.064]"] ;
55 -> 56 ;
57 [label="compel <= 0.5\ngini = 0.329\nsamples = 1387\nvalue = [321.376, 1226.064]"] ;
56 -> 57 ;
58 [label="rank <= 0.5\ngini = 0.321\nsamples = 1386\nvalue = [308.521, 1226.064]"] ;
57 -> 58 ;
59 [label="gini = 0.316\nsamples = 1384\nvalue = [299.951, 1225.498]"] ;
58 -> 59 ;
60 [label="gini = 0.116\nsamples = 2\nvalue = [8.57, 0.566]"] ;
58 -> 60 ;
61 [label="gini = 0.0\nsamples = 1\nvalue = [12.855, 0.0]"] ;
57 -> 61 ;
62 [label="gini = 0.0\nsamples = 1\nvalue = [8.57, 0.0]"] ;
56 -> 62 ;
63 [label="noth <= 0.5\ngini = 0.349\nsamples = 7\nvalue = [21.425, 6.227]"] ;
55 -> 63 ;
64 [label="question <= 0.5\ngini = 0.331\nsamples = 6\nvalue = [21.425, 5.66]"] ;
63 -> 64 ;
65 [label="free <= 0.5\ngini = 0.31\nsamples = 5\nvalue = [21.425, 5.094]"] ;
64 -> 65 ;
66 [label="gini = 0.095\nsamples = 2\nvalue = [21.425, 1.132]"] ;
65 -> 66 ;
67 [label="gini = 0.0\nsamples = 3\nvalue = [0.0, 3.962]"] ;
65 -> 67 ;
68 [label="gini = 0.0\nsamples = 1\nvalue = [0.0, 0.566]"] ;
64 -> 68 ;
69 [label="gini = 0.0\nsamples = 1\nvalue = [0.0, 0.566]"] ;
63 -> 69 ;
70 [label="frozen <= 0.5\ngini = 0.116\nsamples = 2\nvalue = [17.14, 1.132]"] ;
54 -> 70 ;
71 [label="gini = 0.0\nsamples = 1\nvalue = [0.0, 1.132]"] ;
70 -> 71 ;
72 [label="gini = 0.0\nsamples = 1\nvalue = [17.14, 0.0]"] ;
70 -> 72 ;
73 [label="gini = 0.0\nsamples = 1\nvalue = [12.855, 0.0]"] ;
53 -> 73 ;
74 [label="tasti <= 0.5\ngini = 0.476\nsamples = 854\nvalue = [445.642, 695.675]"] ;
4 -> 74 ;
75 [label="higher <= 0.5\ngini = 0.484\nsamples = 782\nvalue = [441.357, 631.712]"] ;
74 -> 75 ;
76 [label="abl <= 0.5\ngini = 0.479\nsamples = 773\nvalue = [415.646, 627.183]"] ;
75 -> 76 ;
77 [label="beyond <= 1.5\ngini = 0.471\nsamples = 757\nvalue = [377.081, 615.862]"] ;
76 -> 77 ;
78 [label="shelf <= 1.5\ngini = 0.468\nsamples = 756\nvalue = [368.511, 615.862]"] ;
77 -> 78 ;
79 [label="past <= 0.5\ngini = 0.466\nsamples = 755\nvalue = [359.941, 615.862]"] ;
78 -> 79 ;
80 [label="nut <= 3.0\ngini = 0.463\nsamples = 751\nvalue = [351.371, 614.73]"] ;
79 -> 80 ;
81 [label="gini = 0.46\nsamples = 750\nvalue = [342.801, 614.73]"] ;
80 -> 81 ;
82 [label="gini = -0.0\nsamples = 1\nvalue = [8.57, 0.0]"] ;
80 -> 82 ;
83 [label="ridicul <= 0.5\ngini = 0.206\nsamples = 4\nvalue = [8.57, 1.132]"] ;
79 -> 83 ;
84 [label="gini = 0.116\nsamples = 3\nvalue = [8.57, 0.566]"] ;
83 -> 84 ;
85 [label="gini = 0.0\nsamples = 1\nvalue = [0.0, 0.566]"] ;
83 -> 85 ;
86 [label="gini = -0.0\nsamples = 1\nvalue = [8.57, 0.0]"] ;
78 -> 86 ;
87 [label="gini = -0.0\nsamples = 1\nvalue = [8.57, 0.0]"] ;
77 -> 87 ;
88 [label="meant <= 0.5\ngini = 0.351\nsamples = 16\nvalue = [38.565, 11.321]"] ;
76 -> 88 ;
89 [label="control <= 0.5\ngini = 0.32\nsamples = 15\nvalue = [38.565, 9.623]"] ;
88 -> 89 ;
90 [label="return <= 0.5\ngini = 0.296\nsamples = 13\nvalue = [38.565, 8.491]"] ;
89 -> 90 ;
91 [label="size <= 0.5\ngini = 0.407\nsamples = 12\nvalue = [21.425, 8.491]"] ;
90 -> 91 ;
92 [label="gini = 0.446\nsamples = 11\nvalue = [4.285, 8.491]"] ;
91 -> 92 ;
93 [label="gini = 0.0\nsamples = 1\nvalue = [17.14, 0.0]"] ;
91 -> 93 ;
94 [label="gini = 0.0\nsamples = 1\nvalue = [17.14, 0.0]"] ;
90 -> 94 ;
95 [label="gini = 0.0\nsamples = 2\nvalue = [0.0, 1.132]"] ;
89 -> 95 ;
96 [label="gini = 0.0\nsamples = 1\nvalue = [0.0, 1.698]"] ;
88 -> 96 ;
97 [label="natur <= 0.5\ngini = 0.255\nsamples = 9\nvalue = [25.71, 4.528]"] ;
75 -> 97 ;
98 [label="like <= 1.0\ngini = 0.231\nsamples = 8\nvalue = [25.71, 3.962]"] ;
97 -> 98 ;
99 [label="cheerio <= 0.5\ngini = 0.179\nsamples = 6\nvalue = [25.71, 2.83]"] ;
98 -> 99 ;
100 [label="lower <= 0.5\ngini = 0.243\nsamples = 5\nvalue = [17.14, 2.83]"] ;
99 -> 100 ;
101 [label="reason <= 0.5\ngini = 0.164\nsamples = 4\nvalue = [17.14, 1.698]"] ;
100 -> 101 ;
102 [label="gini = 0.116\nsamples = 3\nvalue = [17.14, 1.132]"] ;
101 -> 102 ;
103 [label="gini = 0.0\nsamples = 1\nvalue = [0.0, 0.566]"] ;
101 -> 103 ;
104 [label="gini = 0.0\nsamples = 1\nvalue = [0.0, 1.132]"] ;
100 -> 104 ;
105 [label="gini = 0.0\nsamples = 1\nvalue = [8.57, 0.0]"] ;
99 -> 105 ;
106 [label="gini = 0.0\nsamples = 2\nvalue = [0.0, 1.132]"] ;
98 -> 106 ;
107 [label="gini = 0.0\nsamples = 1\nvalue = [0.0, 0.566]"] ;
97 -> 107 ;
108 [label="perfect <= 0.5\ngini = 0.118\nsamples = 72\nvalue = [4.285, 63.964]"] ;
74 -> 108 ;
109 [label="differ <= 0.5\ngini = 0.121\nsamples = 70\nvalue = [4.285, 61.699]"] ;
108 -> 109 ;
110 [label="alway <= 0.5\ngini = 0.125\nsamples = 68\nvalue = [4.285, 59.435]"] ;
109 -> 110 ;
111 [label="fresh <= 0.5\ngini = 0.13\nsamples = 65\nvalue = [4.285, 57.171]"] ;
110 -> 111 ;
112 [label="make <= 0.5\ngini = 0.135\nsamples = 61\nvalue = [4.285, 54.341]"] ;
111 -> 112 ;
113 [label="breakfast <= 0.5\ngini = 0.158\nsamples = 49\nvalue = [4.285, 45.284]"] ;
112 -> 113 ;
114 [label="gini = 0.182\nsamples = 40\nvalue = [4.285, 37.925]"] ;
113 -> 114 ;
115 [label="gini = 0.0\nsamples = 9\nvalue = [0.0, 7.359]"] ;
113 -> 115 ;
116 [label="gini = 0.0\nsamples = 12\nvalue = [0.0, 9.057]"] ;
112 -> 116 ;
117 [label="gini = 0.0\nsamples = 4\nvalue = [0.0, 2.83]"] ;
111 -> 117 ;
118 [label="gini = 0.0\nsamples = 3\nvalue = [0.0, 2.264]"] ;
110 -> 118 ;
119 [label="gini = 0.0\nsamples = 2\nvalue = [0.0, 2.264]"] ;
109 -> 119 ;
120 [label="gini = 0.0\nsamples = 2\nvalue = [0.0, 2.264]"] ;
108 -> 120 ;
121 [label="stori <= 0.5\ngini = 0.43\nsamples = 156\nvalue = [248.531, 113.21]"] ;
3 -> 121 ;
122 [label="faint <= 0.5\ngini = 0.441\nsamples = 153\nvalue = [231.391, 113.21]"] ;
121 -> 122 ;
123 [label="spread <= 0.5\ngini = 0.455\nsamples = 152\nvalue = [209.966, 113.21]"] ;
122 -> 123 ;
124 [label="start <= 0.5\ngini = 0.451\nsamples = 148\nvalue = [209.966, 109.814]"] ;
123 -> 124 ;
125 [label="powder <= 0.5\ngini = 0.429\nsamples = 133\nvalue = [209.966, 95.096]"] ;
124 -> 125 ;
126 [label="chip <= 0.5\ngini = 0.418\nsamples = 125\nvalue = [209.966, 88.87]"] ;
125 -> 126 ;
127 [label="hottest <= 0.5\ngini = 0.412\nsamples = 122\nvalue = [209.966, 86.04]"] ;
126 -> 127 ;
128 [label="one <= 1.5\ngini = 0.409\nsamples = 120\nvalue = [209.966, 84.341]"] ;
127 -> 128 ;
129 [label="gini = 0.397\nsamples = 115\nvalue = [209.966, 78.681]"] ;
128 -> 129 ;
130 [label="gini = 0.0\nsamples = 5\nvalue = [0.0, 5.66]"] ;
128 -> 130 ;
131 [label="gini = -0.0\nsamples = 2\nvalue = [0.0, 1.698]"] ;
127 -> 131 ;
132 [label="gini = 0.0\nsamples = 3\nvalue = [0.0, 2.83]"] ;
126 -> 132 ;
133 [label="gini = -0.0\nsamples = 8\nvalue = [0.0, 6.227]"] ;
125 -> 133 ;
134 [label="gini = -0.0\nsamples = 15\nvalue = [0.0, 14.717]"] ;
124 -> 134 ;
135 [label="gini = 0.0\nsamples = 4\nvalue = [0.0, 3.396]"] ;
123 -> 135 ;
136 [label="gini = 0.0\nsamples = 1\nvalue = [21.425, 0.0]"] ;
122 -> 136 ;
137 [label="gini = -0.0\nsamples = 3\nvalue = [17.14, 0.0]"] ;
121 -> 137 ;
138 [label="winc <= 0.5\ngini = 0.488\nsamples = 10561\nvalue = [6380.387, 8666.225]"] ;
2 -> 138 ;
139 [label="thirsti <= 0.5\ngini = 0.488\nsamples = 10559\nvalue = [6363.247, 8666.225]"] ;
138 -> 139 ;
140 [label="overpr <= 0.5\ngini = 0.488\nsamples = 10546\nvalue = [6320.397, 8658.866]"] ;
139 -> 140 ;
141 [label="contact <= 0.5\ngini = 0.487\nsamples = 10524\nvalue = [6230.411, 8648.677]"] ;
140 -> 141 ;
142 [label="dissip <= 0.5\ngini = 0.485\nsamples = 10485\nvalue = [6114.716, 8630.563]"] ;
141 -> 142 ;
143 [label="anyth <= 0.5\ngini = 0.485\nsamples = 10481\nvalue = [6093.291, 8629.997]"] ;
142 -> 143 ;
144 [label="sorri <= 0.5\ngini = 0.483\nsamples = 10094\nvalue = [5720.495, 8326.029]"] ;
143 -> 144 ;
145 [label="descript <= 0.5\ngini = 0.482\nsamples = 10035\nvalue = [5617.654, 8289.801]"] ;
144 -> 145 ;
146 [label="yearn <= 0.5\ngini = 0.48\nsamples = 9972\nvalue = [5510.529, 8255.272]"] ;
145 -> 146 ;
147 [label="gini = 0.48\nsamples = 9967\nvalue = [5476.249, 8253.574]"] ;
146 -> 147 ;
148 [label="gini = 0.09\nsamples = 5\nvalue = [34.28, 1.698]"] ;
146 -> 148 ;
149 [label="ever <= 0.5\ngini = 0.369\nsamples = 63\nvalue = [107.125, 34.529]"] ;
145 -> 149 ;
150 [label="gini = 0.352\nsamples = 60\nvalue = [107.125, 31.699]"] ;
149 -> 150 ;
151 [label="gini = 0.0\nsamples = 3\nvalue = [0.0, 2.83]"] ;
149 -> 151 ;
152 [label="other <= 0.5\ngini = 0.385\nsamples = 59\nvalue = [102.84, 36.227]"] ;
144 -> 152 ;
153 [label="problem <= 0.5\ngini = 0.432\nsamples = 55\nvalue = [77.13, 35.661]"] ;
152 -> 153 ;
154 [label="gini = 0.45\nsamples = 54\nvalue = [68.56, 35.661]"] ;
153 -> 154 ;
155 [label="gini = 0.0\nsamples = 1\nvalue = [8.57, 0.0]"] ;
153 -> 155 ;
156 [label="recent <= 0.5\ngini = 0.042\nsamples = 4\nvalue = [25.71, 0.566]"] ;
152 -> 156 ;
157 [label="gini = 0.081\nsamples = 3\nvalue = [12.855, 0.566]"] ;
156 -> 157 ;
158 [label="gini = 0.0\nsamples = 1\nvalue = [12.855, 0.0]"] ;
156 -> 158 ;
159 [label="whenev <= 0.5\ngini = 0.495\nsamples = 387\nvalue = [372.796, 303.969]"] ;
143 -> 159 ;
160 [label="kiwi <= 0.5\ngini = 0.494\nsamples = 380\nvalue = [372.796, 296.61]"] ;
159 -> 160 ;
161 [label="chemic <= 0.5\ngini = 0.495\nsamples = 378\nvalue = [359.941, 295.478]"] ;
160 -> 161 ;
162 [label="gini = 0.498\nsamples = 367\nvalue = [325.661, 290.384]"] ;
161 -> 162 ;
163 [label="gini = 0.225\nsamples = 11\nvalue = [34.28, 5.094]"] ;
161 -> 163 ;
164 [label="occas <= 0.5\ngini = 0.149\nsamples = 2\nvalue = [12.855, 1.132]"] ;
160 -> 164 ;
165 [label="gini = 0.0\nsamples = 1\nvalue = [12.855, 0.0]"] ;
164 -> 165 ;
166 [label="gini = 0.0\nsamples = 1\nvalue = [0.0, 1.132]"] ;
164 -> 166 ;
167 [label="gini = 0.0\nsamples = 7\nvalue = [0.0, 7.359]"] ;
159 -> 167 ;
168 [label="visual <= 0.5\ngini = 0.05\nsamples = 4\nvalue = [21.425, 0.566]"] ;
142 -> 168 ;
169 [label="decid <= 0.5\ngini = 0.062\nsamples = 3\nvalue = [17.14, 0.566]"] ;
168 -> 169 ;
170 [label="kid <= 0.5\ngini = 0.081\nsamples = 2\nvalue = [12.855, 0.566]"] ;
169 -> 170 ;
171 [label="gini = 0.0\nsamples = 1\nvalue = [12.855, 0.0]"] ;
170 -> 171 ;
172 [label="gini = 0.0\nsamples = 1\nvalue = [0.0, 0.566]"] ;
170 -> 172 ;
173 [label="gini = 0.0\nsamples = 1\nvalue = [4.285, 0.0]"] ;
169 -> 173 ;
174 [label="gini = 0.0\nsamples = 1\nvalue = [4.285, 0.0]"] ;
168 -> 174 ;
175 [label="free <= 1.5\ngini = 0.234\nsamples = 39\nvalue = [115.695, 18.114]"] ;
141 -> 175 ;
176 [label="smash <= 0.5\ngini = 0.212\nsamples = 37\nvalue = [115.695, 15.849]"] ;
175 -> 176 ;
177 [label="fat <= 0.5\ngini = 0.194\nsamples = 35\nvalue = [115.695, 14.151]"] ;
176 -> 177 ;
178 [label="process <= 0.5\ngini = 0.182\nsamples = 33\nvalue = [115.695, 13.019]"] ;
177 -> 178 ;
179 [label="wishbon <= 0.5\ngini = 0.175\nsamples = 32\nvalue = [115.695, 12.453]"] ;
178 -> 179 ;
180 [label="gini = 0.169\nsamples = 31\nvalue = [115.695, 11.887]"] ;
179 -> 180 ;
181 [label="gini = 0.0\nsamples = 1\nvalue = [0.0, 0.566]"] ;
179 -> 181 ;
182 [label="gini = 0.0\nsamples = 1\nvalue = [0.0, 0.566]"] ;
178 -> 182 ;
183 [label="gini = 0.0\nsamples = 2\nvalue = [0.0, 1.132]"] ;
177 -> 183 ;
184 [label="gini = 0.0\nsamples = 2\nvalue = [0.0, 1.698]"] ;
176 -> 184 ;
185 [label="gini = 0.0\nsamples = 2\nvalue = [0.0, 2.264]"] ;
175 -> 185 ;
186 [label="veget <= 0.5\ngini = 0.183\nsamples = 22\nvalue = [89.985, 10.189]"] ;
140 -> 186 ;
187 [label="candi <= 0.5\ngini = 0.166\nsamples = 21\nvalue = [89.985, 9.057]"] ;
186 -> 187 ;
188 [label="christma <= 0.5\ngini = 0.158\nsamples = 20\nvalue = [89.985, 8.491]"] ;
187 -> 188 ;
189 [label="name <= 0.5\ngini = 0.14\nsamples = 19\nvalue = [89.985, 7.359]"] ;
188 -> 189 ;
190 [label="figur <= 0.5\ngini = 0.167\nsamples = 18\nvalue = [72.845, 7.359]"] ;
189 -> 190 ;
191 [label="receiv <= 0.5\ngini = 0.184\nsamples = 17\nvalue = [64.275, 7.359]"] ;
190 -> 191 ;
192 [label="gini = 0.161\nsamples = 16\nvalue = [64.275, 6.227]"] ;
191 -> 192 ;
193 [label="gini = 0.0\nsamples = 1\nvalue = [0.0, 1.132]"] ;
191 -> 193 ;
194 [label="gini = 0.0\nsamples = 1\nvalue = [8.57, 0.0]"] ;
190 -> 194 ;
195 [label="gini = 0.0\nsamples = 1\nvalue = [17.14, 0.0]"] ;
189 -> 195 ;
196 [label="gini = 0.0\nsamples = 1\nvalue = [0.0, 1.132]"] ;
188 -> 196 ;
197 [label="gini = 0.0\nsamples = 1\nvalue = [0.0, 0.566]"] ;
187 -> 197 ;
198 [label="gini = 0.0\nsamples = 1\nvalue = [0.0, 1.132]"] ;
186 -> 198 ;
199 [label="coconut <= 0.5\ngini = 0.25\nsamples = 13\nvalue = [42.85, 7.359]"] ;
139 -> 199 ;
200 [label="fruit <= 0.5\ngini = 0.206\nsamples = 11\nvalue = [42.85, 5.66]"] ;
199 -> 200 ;
201 [label="peanut <= 1.0\ngini = 0.136\nsamples = 8\nvalue = [42.85, 3.396]"] ;
200 -> 201 ;
202 [label="least <= 0.5\ngini = 0.116\nsamples = 7\nvalue = [42.85, 2.83]"] ;
201 -> 202 ;
203 [label="littl <= 0.5\ngini = 0.158\nsamples = 6\nvalue = [29.995, 2.83]"] ;
202 -> 203 ;
204 [label="everi <= 0.5\ngini = 0.331\nsamples = 3\nvalue = [8.57, 2.264]"] ;
203 -> 204 ;
205 [label="level <= 0.5\ngini = 0.116\nsamples = 2\nvalue = [8.57, 0.566]"] ;
204 -> 205 ;
206 [label="gini = 0.0\nsamples = 1\nvalue = [8.57, 0.0]"] ;
205 -> 206 ;
207 [label="gini = 0.0\nsamples = 1\nvalue = [0.0, 0.566]"] ;
205 -> 207 ;
208 [label="gini = 0.0\nsamples = 1\nvalue = [0.0, 1.698]"] ;
204 -> 208 ;
209 [label="open <= 0.5\ngini = 0.05\nsamples = 3\nvalue = [21.425, 0.566]"] ;
203 -> 209 ;
210 [label="dump <= 0.5\ngini = 0.116\nsamples = 2\nvalue = [8.57, 0.566]"] ;
209 -> 210 ;
211 [label="gini = 0.0\nsamples = 1\nvalue = [8.57, 0.0]"] ;
210 -> 211 ;
212 [label="gini = 0.0\nsamples = 1\nvalue = [0.0, 0.566]"] ;
210 -> 212 ;
213 [label="gini = 0.0\nsamples = 1\nvalue = [12.855, 0.0]"] ;
209 -> 213 ;
214 [label="gini = 0.0\nsamples = 1\nvalue = [12.855, 0.0]"] ;
202 -> 214 ;
215 [label="gini = 0.0\nsamples = 1\nvalue = [0.0, 0.566]"] ;
201 -> 215 ;
216 [label="gini = 0.0\nsamples = 3\nvalue = [0.0, 2.264]"] ;
200 -> 216 ;
217 [label="gini = 0.0\nsamples = 2\nvalue = [0.0, 1.698]"] ;
199 -> 217 ;
218 [label="gini = 0.0\nsamples = 2\nvalue = [17.14, 0.0]"] ;
138 -> 218 ;
219 [label="refund <= 0.5\ngini = 0.487\nsamples = 3498\nvalue = [3689.398, 2679.114]"] ;
1 -> 219 ;
220 [label="email <= 0.5\ngini = 0.49\nsamples = 3468\nvalue = [3569.417, 2672.888]"] ;
219 -> 220 ;
221 [label="stale <= 0.5\ngini = 0.491\nsamples = 3447\nvalue = [3500.857, 2664.397]"] ;
220 -> 221 ;
222 [label="huge <= 0.5\ngini = 0.493\nsamples = 3411\nvalue = [3380.877, 2645.717]"] ;
221 -> 222 ;
223 [label="yummi <= 0.5\ngini = 0.494\nsamples = 3315\nvalue = [3196.621, 2584.018]"] ;
222 -> 223 ;
224 [label="almost <= 1.5\ngini = 0.493\nsamples = 3245\nvalue = [3192.336, 2523.451]"] ;
223 -> 224 ;
225 [label="trip <= 0.5\ngini = 0.494\nsamples = 3220\nvalue = [3102.351, 2511.564]"] ;
224 -> 225 ;
226 [label="pound <= 0.5\ngini = 0.493\nsamples = 3161\nvalue = [3089.496, 2454.393]"] ;
225 -> 226 ;
227 [label="excel <= 0.5\ngini = 0.492\nsamples = 3086\nvalue = [3080.926, 2385.901]"] ;
226 -> 227 ;
228 [label="perfect <= 0.5\ngini = 0.489\nsamples = 2936\nvalue = [3046.645, 2257.407]"] ;
227 -> 228 ;
229 [label="gini = 0.484\nsamples = 2725\nvalue = [2990.94, 2080.8]"] ;
228 -> 229 ;
230 [label="gini = 0.365\nsamples = 211\nvalue = [55.705, 176.608]"] ;
228 -> 230 ;
231 [label="eaten <= 0.5\ngini = 0.332\nsamples = 150\nvalue = [34.28, 128.493]"] ;
227 -> 231 ;
232 [label="gini = 0.248\nsamples = 145\nvalue = [21.425, 126.229]"] ;
231 -> 232 ;
233 [label="gini = 0.255\nsamples = 5\nvalue = [12.855, 2.264]"] ;
231 -> 233 ;
234 [label="tast <= 5.0\ngini = 0.198\nsamples = 75\nvalue = [8.57, 68.492]"] ;
226 -> 234 ;
235 [label="gini = 0.0\nsamples = 71\nvalue = [0.0, 63.964]"] ;
234 -> 235 ;
236 [label="fortum <= 0.5\ngini = 0.452\nsamples = 4\nvalue = [8.57, 4.528]"] ;
234 -> 236 ;
237 [label="gini = 0.0\nsamples = 3\nvalue = [0.0, 4.528]"] ;
236 -> 237 ;
238 [label="gini = 0.0\nsamples = 1\nvalue = [8.57, 0.0]"] ;
236 -> 238 ;
239 [label="delici <= 0.5\ngini = 0.3\nsamples = 59\nvalue = [12.855, 57.171]"] ;
225 -> 239 ;
240 [label="cup <= 1.0\ngini = 0.32\nsamples = 52\nvalue = [12.855, 51.511]"] ;
239 -> 240 ;
241 [label="eager <= 0.5\ngini = 0.328\nsamples = 50\nvalue = [12.855, 49.246]"] ;
240 -> 241 ;
242 [label="gini = 0.147\nsamples = 49\nvalue = [4.285, 49.246]"] ;
241 -> 242 ;
243 [label="gini = 0.0\nsamples = 1\nvalue = [8.57, 0.0]"] ;
241 -> 243 ;
244 [label="gini = 0.0\nsamples = 2\nvalue = [0.0, 2.264]"] ;
240 -> 244 ;
245 [label="gini = 0.0\nsamples = 7\nvalue = [0.0, 5.66]"] ;
239 -> 245 ;
246 [label="cleaner <= 0.5\ngini = 0.206\nsamples = 25\nvalue = [89.985, 11.887]"] ;
224 -> 246 ;
247 [label="grain <= 0.5\ngini = 0.191\nsamples = 24\nvalue = [89.985, 10.755]"] ;
246 -> 247 ;
248 [label="lean <= 0.5\ngini = 0.183\nsamples = 23\nvalue = [89.985, 10.189]"] ;
247 -> 248 ;
249 [label="teriyaki <= 0.5\ngini = 0.175\nsamples = 22\nvalue = [89.985, 9.623]"] ;
248 -> 249 ;
250 [label="gini = 0.182\nsamples = 21\nvalue = [85.7, 9.623]"] ;
249 -> 250 ;
251 [label="gini = 0.0\nsamples = 1\nvalue = [4.285, 0.0]"] ;
249 -> 251 ;
252 [label="gini = 0.0\nsamples = 1\nvalue = [0.0, 0.566]"] ;
248 -> 252 ;
253 [label="gini = 0.0\nsamples = 1\nvalue = [0.0, 0.566]"] ;
247 -> 253 ;
254 [label="gini = 0.0\nsamples = 1\nvalue = [0.0, 1.132]"] ;
246 -> 254 ;
255 [label="test <= 0.5\ngini = 0.123\nsamples = 70\nvalue = [4.285, 60.567]"] ;
223 -> 255 ;
256 [label="packag <= 0.5\ngini = 0.135\nsamples = 63\nvalue = [4.285, 54.341]"] ;
255 -> 256 ;
257 [label="kiss <= 0.5\ngini = 0.167\nsamples = 49\nvalue = [4.285, 42.454]"] ;
256 -> 257 ;
258 [label="ill <= 0.5\ngini = 0.168\nsamples = 48\nvalue = [4.285, 41.888]"] ;
257 -> 258 ;
259 [label="teeth <= 0.5\ngini = 0.18\nsamples = 43\nvalue = [4.285, 38.491]"] ;
258 -> 259 ;
260 [label="gini = 0.185\nsamples = 42\nvalue = [4.285, 37.359]"] ;
259 -> 260 ;
261 [label="gini = 0.0\nsamples = 1\nvalue = [0.0, 1.132]"] ;
259 -> 261 ;
262 [label="gini = 0.0\nsamples = 5\nvalue = [0.0, 3.396]"] ;
258 -> 262 ;
263 [label="gini = 0.0\nsamples = 1\nvalue = [0.0, 0.566]"] ;
257 -> 263 ;
264 [label="gini = 0.0\nsamples = 14\nvalue = [0.0, 11.887]"] ;
256 -> 264 ;
265 [label="gini = 0.0\nsamples = 7\nvalue = [0.0, 6.227]"] ;
255 -> 265 ;
266 [label="husband <= 0.5\ngini = 0.376\nsamples = 96\nvalue = [184.256, 61.699]"] ;
222 -> 266 ;
267 [label="shake <= 0.5\ngini = 0.363\nsamples = 92\nvalue = [184.256, 57.737]"] ;
266 -> 267 ;
268 [label="ship <= 0.5\ngini = 0.35\nsamples = 88\nvalue = [184.256, 53.775]"] ;
267 -> 268 ;
269 [label="alot <= 0.5\ngini = 0.333\nsamples = 83\nvalue = [184.256, 49.246]"] ;
268 -> 269 ;
270 [label="dri <= 0.5\ngini = 0.328\nsamples = 82\nvalue = [184.256, 48.114]"] ;
269 -> 270 ;
271 [label="product <= 2.5\ngini = 0.369\nsamples = 76\nvalue = [145.69, 46.982]"] ;
270 -> 271 ;
272 [label="gini = 0.413\nsamples = 70\nvalue = [111.41, 45.85]"] ;
271 -> 272 ;
273 [label="gini = 0.062\nsamples = 6\nvalue = [34.28, 1.132]"] ;
271 -> 273 ;
274 [label="experiment <= 0.5\ngini = 0.055\nsamples = 6\nvalue = [38.565, 1.132]"] ;
270 -> 274 ;
275 [label="gini = 0.081\nsamples = 5\nvalue = [25.71, 1.132]"] ;
274 -> 275 ;
276 [label="gini = 0.0\nsamples = 1\nvalue = [12.855, 0.0]"] ;
274 -> 276 ;
277 [label="gini = 0.0\nsamples = 1\nvalue = [0.0, 1.132]"] ;
269 -> 277 ;
278 [label="gini = 0.0\nsamples = 5\nvalue = [0.0, 4.528]"] ;
268 -> 278 ;
279 [label="gini = 0.0\nsamples = 4\nvalue = [0.0, 3.962]"] ;
267 -> 279 ;
280 [label="gini = 0.0\nsamples = 4\nvalue = [0.0, 3.962]"] ;
266 -> 280 ;
281 [label="entir <= 0.5\ngini = 0.233\nsamples = 36\nvalue = [119.98, 18.68]"] ;
221 -> 281 ;
282 [label="request <= 0.5\ngini = 0.212\nsamples = 34\nvalue = [119.98, 16.415]"] ;
281 -> 282 ;
283 [label="crema <= 0.5\ngini = 0.2\nsamples = 33\nvalue = [119.98, 15.283]"] ;
282 -> 283 ;
284 [label="vanilla <= 0.5\ngini = 0.195\nsamples = 32\nvalue = [119.98, 14.717]"] ;
283 -> 284 ;
285 [label="overal <= 0.5\ngini = 0.177\nsamples = 30\nvalue = [119.98, 13.019]"] ;
284 -> 285 ;
286 [label="high <= 0.5\ngini = 0.158\nsamples = 29\nvalue = [119.98, 11.321]"] ;
285 -> 286 ;
287 [label="ride <= 0.5\ngini = 0.109\nsamples = 24\nvalue = [119.98, 7.359]"] ;
286 -> 287 ;
288 [label="gini = 0.101\nsamples = 23\nvalue = [119.98, 6.793]"] ;
287 -> 288 ;
289 [label="gini = 0.0\nsamples = 1\nvalue = [0.0, 0.566]"] ;
287 -> 289 ;
290 [label="gini = 0.0\nsamples = 5\nvalue = [0.0, 3.962]"] ;
286 -> 290 ;
291 [label="gini = 0.0\nsamples = 1\nvalue = [0.0, 1.698]"] ;
285 -> 291 ;
292 [label="gini = 0.0\nsamples = 2\nvalue = [0.0, 1.698]"] ;
284 -> 292 ;
293 [label="gini = 0.0\nsamples = 1\nvalue = [0.0, 0.566]"] ;
283 -> 293 ;
294 [label="gini = 0.0\nsamples = 1\nvalue = [0.0, 1.132]"] ;
282 -> 294 ;
295 [label="gini = 0.0\nsamples = 2\nvalue = [0.0, 2.264]"] ;
281 -> 295 ;
296 [label="manag <= 1.5\ngini = 0.196\nsamples = 21\nvalue = [68.56, 8.491]"] ;
220 -> 296 ;
297 [label="immedi <= 0.5\ngini = 0.23\nsamples = 20\nvalue = [55.705, 8.491]"] ;
296 -> 297 ;
298 [label="seen <= 0.5\ngini = 0.206\nsamples = 19\nvalue = [55.705, 7.359]"] ;
297 -> 298 ;
299 [label="didnt <= 0.5\ngini = 0.194\nsamples = 18\nvalue = [55.705, 6.793]"] ;
298 -> 299 ;
300 [label="fantast <= 0.5\ngini = 0.206\nsamples = 17\nvalue = [51.42, 6.793]"] ;
299 -> 300 ;
301 [label="high <= 0.5\ngini = 0.193\nsamples = 16\nvalue = [51.42, 6.227]"] ;
300 -> 301 ;
302 [label="origin <= 0.5\ngini = 0.099\nsamples = 12\nvalue = [51.42, 2.83]"] ;
301 -> 302 ;
303 [label="sweet <= 0.5\ngini = 0.127\nsamples = 11\nvalue = [38.565, 2.83]"] ;
302 -> 303 ;
304 [label="gini = 0.081\nsamples = 10\nvalue = [38.565, 1.698]"] ;
303 -> 304 ;
305 [label="gini = 0.0\nsamples = 1\nvalue = [0.0, 1.132]"] ;
303 -> 305 ;
306 [label="gini = 0.0\nsamples = 1\nvalue = [12.855, 0.0]"] ;
302 -> 306 ;
307 [label="gini = 0.0\nsamples = 4\nvalue = [0.0, 3.396]"] ;
301 -> 307 ;
308 [label="gini = 0.0\nsamples = 1\nvalue = [0.0, 0.566]"] ;
300 -> 308 ;
309 [label="gini = 0.0\nsamples = 1\nvalue = [4.285, 0.0]"] ;
299 -> 309 ;
310 [label="gini = 0.0\nsamples = 1\nvalue = [0.0, 0.566]"] ;
298 -> 310 ;
311 [label="gini = 0.0\nsamples = 1\nvalue = [0.0, 1.132]"] ;
297 -> 311 ;
312 [label="gini = -0.0\nsamples = 1\nvalue = [12.855, 0.0]"] ;
296 -> 312 ;
313 [label="enjoy <= 0.5\ngini = 0.094\nsamples = 30\nvalue = [119.98, 6.227]"] ;
219 -> 313 ;
314 [label="littl <= 0.5\ngini = 0.104\nsamples = 29\nvalue = [107.125, 6.227]"] ;
313 -> 314 ;
315 [label="good <= 0.5\ngini = 0.078\nsamples = 27\nvalue = [107.125, 4.528]"] ;
314 -> 315 ;
316 [label="water <= 0.5\ngini = 0.09\nsamples = 18\nvalue = [68.56, 3.396]"] ;
315 -> 316 ;
317 [label="recent <= 0.5\ngini = 0.125\nsamples = 15\nvalue = [47.135, 3.396]"] ;
316 -> 317 ;
318 [label="definit <= 0.5\ngini = 0.127\nsamples = 12\nvalue = [38.565, 2.83]"] ;
317 -> 318 ;
319 [label="inform <= 1.0\ngini = 0.141\nsamples = 11\nvalue = [34.28, 2.83]"] ;
318 -> 319 ;
320 [label="realli <= 0.5\ngini = 0.158\nsamples = 10\nvalue = [29.995, 2.83]"] ;
319 -> 320 ;
321 [label="gift <= 1.0\ngini = 0.131\nsamples = 9\nvalue = [29.995, 2.264]"] ;
320 -> 321 ;
322 [label="gini = 0.173\nsamples = 8\nvalue = [21.425, 2.264]"] ;
321 -> 322 ;
323 [label="gini = 0.0\nsamples = 1\nvalue = [8.57, 0.0]"] ;
321 -> 323 ;
324 [label="gini = 0.0\nsamples = 1\nvalue = [0.0, 0.566]"] ;
320 -> 324 ;
325 [label="gini = 0.0\nsamples = 1\nvalue = [4.285, 0.0]"] ;
319 -> 325 ;
326 [label="gini = 0.0\nsamples = 1\nvalue = [4.285, 0.0]"] ;
318 -> 326 ;
327 [label="usual <= 0.5\ngini = 0.116\nsamples = 3\nvalue = [8.57, 0.566]"] ;
317 -> 327 ;
328 [label="gini = 0.0\nsamples = 1\nvalue = [4.285, 0.0]"] ;
327 -> 328 ;
329 [label="say <= 0.5\ngini = 0.206\nsamples = 2\nvalue = [4.285, 0.566]"] ;
327 -> 329 ;
330 [label="gini = 0.0\nsamples = 1\nvalue = [4.285, 0.0]"] ;
329 -> 330 ;
331 [label="gini = 0.0\nsamples = 1\nvalue = [0.0, 0.566]"] ;
329 -> 331 ;
332 [label="gini = 0.0\nsamples = 3\nvalue = [21.425, 0.0]"] ;
316 -> 332 ;
333 [label="forgot <= 0.5\ngini = 0.055\nsamples = 9\nvalue = [38.565, 1.132]"] ;
315 -> 333 ;
334 [label="low <= 0.5\ngini = 0.07\nsamples = 8\nvalue = [29.995, 1.132]"] ;
333 -> 334 ;
335 [label="cheaper <= 0.5\ngini = 0.081\nsamples = 7\nvalue = [25.71, 1.132]"] ;
334 -> 335 ;
336 [label="tomato <= 0.5\ngini = 0.042\nsamples = 6\nvalue = [25.71, 0.566]"] ;
335 -> 336 ;
337 [label="gini = 0.0\nsamples = 5\nvalue = [25.71, 0.0]"] ;
336 -> 337 ;
338 [label="gini = 0.0\nsamples = 1\nvalue = [0.0, 0.566]"] ;
336 -> 338 ;
339 [label="gini = 0.0\nsamples = 1\nvalue = [0.0, 0.566]"] ;
335 -> 339 ;
340 [label="gini = 0.0\nsamples = 1\nvalue = [4.285, 0.0]"] ;
334 -> 340 ;
341 [label="gini = 0.0\nsamples = 1\nvalue = [8.57, 0.0]"] ;
333 -> 341 ;
342 [label="gini = 0.0\nsamples = 2\nvalue = [0.0, 1.698]"] ;
314 -> 342 ;
343 [label="gini = 0.0\nsamples = 1\nvalue = [12.855, 0.0]"] ;
313 -> 343 ;
344 [label="also <= 1.5\ngini = 0.328\nsamples = 61\nvalue = [145.69, 37.925]"] ;
0 -> 344 [labeldistance=2.5, labelangle=-45, headlabel="False"] ;
345 [label="electr <= 0.5\ngini = 0.313\nsamples = 58\nvalue = [145.69, 35.095]"] ;
344 -> 345 ;
346 [label="tzaneen <= 0.5\ngini = 0.307\nsamples = 57\nvalue = [145.69, 33.963]"] ;
345 -> 346 ;
347 [label="noonday <= 0.5\ngini = 0.297\nsamples = 56\nvalue = [145.69, 32.265]"] ;
346 -> 347 ;
348 [label="bologna <= 0.5\ngini = 0.29\nsamples = 55\nvalue = [145.69, 31.133]"] ;
347 -> 348 ;
349 [label="richest <= 0.5\ngini = 0.283\nsamples = 54\nvalue = [145.69, 30.001]"] ;
348 -> 349 ;
350 [label="environ <= 0.5\ngini = 0.276\nsamples = 53\nvalue = [145.69, 28.869]"] ;
349 -> 350 ;
351 [label="hard <= 0.5\ngini = 0.261\nsamples = 52\nvalue = [145.69, 26.604]"] ;
350 -> 351 ;
352 [label="imagin <= 0.5\ngini = 0.224\nsamples = 47\nvalue = [145.69, 21.51]"] ;
351 -> 352 ;
353 [label="bean <= 0.5\ngini = 0.22\nsamples = 46\nvalue = [145.69, 20.944]"] ;
352 -> 353 ;
354 [label="ateri <= 0.5\ngini = 0.253\nsamples = 44\nvalue = [119.98, 20.944]"] ;
353 -> 354 ;
355 [label="gini = 0.248\nsamples = 43\nvalue = [119.98, 20.378]"] ;
354 -> 355 ;
356 [label="gini = 0.0\nsamples = 1\nvalue = [0.0, 0.566]"] ;
354 -> 356 ;
357 [label="gini = 0.0\nsamples = 2\nvalue = [25.71, 0.0]"] ;
353 -> 357 ;
358 [label="gini = 0.0\nsamples = 1\nvalue = [0.0, 0.566]"] ;
352 -> 358 ;
359 [label="gini = 0.0\nsamples = 5\nvalue = [0.0, 5.094]"] ;
351 -> 359 ;
360 [label="gini = 0.0\nsamples = 1\nvalue = [0.0, 2.264]"] ;
350 -> 360 ;
361 [label="gini = 0.0\nsamples = 1\nvalue = [0.0, 1.132]"] ;
349 -> 361 ;
362 [label="gini = 0.0\nsamples = 1\nvalue = [0.0, 1.132]"] ;
348 -> 362 ;
363 [label="gini = 0.0\nsamples = 1\nvalue = [0.0, 1.132]"] ;
347 -> 363 ;
364 [label="gini = 0.0\nsamples = 1\nvalue = [0.0, 1.698]"] ;
346 -> 364 ;
365 [label="gini = 0.0\nsamples = 1\nvalue = [0.0, 1.132]"] ;
345 -> 365 ;
366 [label="gini = 0.0\nsamples = 3\nvalue = [0.0, 2.83]"] ;
344 -> 366 ;
}