digraph Tree {
node [shape=box] ;
0 [label="horribl tast <= 0.5\ngini = 0.5\nsamples = 44319\nvalue = [34987.145, 35001.698]"] ;
1 [label="whole famili <= 0.5\ngini = 0.5\nsamples = 44291\nvalue = [34850.024, 34995.472]"] ;
0 -> 1 [labeldistance=2.5, labelangle=45, headlabel="True"] ;
2 [label="appreci benefit <= 0.5\ngini = 0.5\nsamples = 44087\nvalue = [34820.029, 34815.468]"] ;
1 -> 2 ;
3 [label="bay <= 0.5\ngini = 0.5\nsamples = 44033\nvalue = [34820.029, 34766.787]"] ;
2 -> 3 ;
4 [label="check ingredi <= 0.5\ngini = 0.5\nsamples = 43970\nvalue = [34807.174, 34708.484]"] ;
3 -> 4 ;
5 [label="use tea <= 0.5\ngini = 0.5\nsamples = 43952\nvalue = [34742.899, 34701.126]"] ;
4 -> 5 ;
6 [label="hope <= 0.5\ngini = 0.5\nsamples = 43849\nvalue = [34721.474, 34613.388]"] ;
5 -> 6 ;
7 [label="use spare <= 0.5\ngini = 0.5\nsamples = 42817\nvalue = [33016.038, 33910.354]"] ;
6 -> 7 ;
8 [label="see <= 0.5\ngini = 0.5\nsamples = 42790\nvalue = [33016.038, 33882.051]"] ;
7 -> 8 ;
9 [label="tast bad <= 0.5\ngini = 0.5\nsamples = 41139\nvalue = [31289.177, 32676.931]"] ;
8 -> 9 ;
10 [label="still great <= 0.5\ngini = 0.5\nsamples = 41063\nvalue = [31019.221, 32648.062]"] ;
9 -> 10 ;
11 [label="read label <= 0.5\ngini = 0.5\nsamples = 40994\nvalue = [31019.221, 32593.156]"] ;
10 -> 11 ;
12 [label="gini = 0.5\nsamples = 40950\nvalue = [30912.096, 32569.382]"] ;
11 -> 12 ;
13 [label="gini = 0.297\nsamples = 44\nvalue = [107.125, 23.774]"] ;
11 -> 13 ;
14 [label="gini = 0.0\nsamples = 69\nvalue = [0.0, 54.907]"] ;
10 -> 14 ;
15 [label="path <= 1.0\ngini = 0.175\nsamples = 76\nvalue = [269.956, 28.869]"] ;
9 -> 15 ;
16 [label="there not <= 0.5\ngini = 0.163\nsamples = 75\nvalue = [269.956, 26.604]"] ;
15 -> 16 ;
17 [label="gini = 0.158\nsamples = 74\nvalue = [269.956, 25.472]"] ;
16 -> 17 ;
18 [label="gini = 0.0\nsamples = 1\nvalue = [0.0, 1.132]"] ;
16 -> 18 ;
19 [label="gini = 0.0\nsamples = 1\nvalue = [0.0, 2.264]"] ;
15 -> 19 ;
20 [label="cant see <= 0.5\ngini = 0.484\nsamples = 1651\nvalue = [1726.861, 1205.12]"] ;
8 -> 20 ;
21 [label="blame <= 0.5\ngini = 0.486\nsamples = 1634\nvalue = [1666.871, 1196.064]"] ;
20 -> 21 ;
22 [label="though <= 0.5\ngini = 0.487\nsamples = 1631\nvalue = [1649.731, 1194.931]"] ;
21 -> 22 ;
23 [label="gini = 0.483\nsamples = 1504\nvalue = [1572.6, 1089.08]"] ;
22 -> 23 ;
24 [label="gini = 0.488\nsamples = 127\nvalue = [77.13, 105.851]"] ;
22 -> 24 ;
25 [label="that <= 0.5\ngini = 0.116\nsamples = 3\nvalue = [17.14, 1.132]"] ;
21 -> 25 ;
26 [label="gini = 0.0\nsamples = 2\nvalue = [17.14, 0.0]"] ;
25 -> 26 ;
27 [label="gini = 0.0\nsamples = 1\nvalue = [0.0, 1.132]"] ;
25 -> 27 ;
28 [label="banana <= 0.5\ngini = 0.228\nsamples = 17\nvalue = [59.99, 9.057]"] ;
20 -> 28 ;
29 [label="pleasur <= 0.5\ngini = 0.217\nsamples = 16\nvalue = [59.99, 8.491]"] ;
28 -> 29 ;
30 [label="gini = 0.206\nsamples = 15\nvalue = [59.99, 7.925]"] ;
29 -> 30 ;
31 [label="gini = 0.0\nsamples = 1\nvalue = [0.0, 0.566]"] ;
29 -> 31 ;
32 [label="gini = 0.0\nsamples = 1\nvalue = [0.0, 0.566]"] ;
28 -> 32 ;
33 [label="gini = -0.0\nsamples = 27\nvalue = [0.0, 28.302]"] ;
7 -> 33 ;
34 [label="best hope <= 0.5\ngini = 0.413\nsamples = 1032\nvalue = [1705.436, 703.034]"] ;
6 -> 34 ;
35 [label="top <= 0.5\ngini = 0.412\nsamples = 1028\nvalue = [1705.436, 698.506]"] ;
34 -> 35 ;
36 [label="made journey <= 0.5\ngini = 0.406\nsamples = 979\nvalue = [1679.726, 662.278]"] ;
35 -> 36 ;
37 [label="reunion island <= 2.5\ngini = 0.405\nsamples = 978\nvalue = [1679.726, 658.882]"] ;
36 -> 37 ;
38 [label="lid keep <= 0.5\ngini = 0.407\nsamples = 977\nvalue = [1662.586, 658.882]"] ;
37 -> 38 ;
39 [label="gini = 0.405\nsamples = 976\nvalue = [1662.586, 654.92]"] ;
38 -> 39 ;
40 [label="gini = -0.0\nsamples = 1\nvalue = [0.0, 3.962]"] ;
38 -> 40 ;
41 [label="gini = 0.0\nsamples = 1\nvalue = [17.14, 0.0]"] ;
37 -> 41 ;
42 [label="gini = -0.0\nsamples = 1\nvalue = [0.0, 3.396]"] ;
36 -> 42 ;
43 [label="turmer garllic <= 0.5\ngini = 0.486\nsamples = 49\nvalue = [25.71, 36.227]"] ;
35 -> 43 ;
44 [label="stem <= 0.5\ngini = 0.489\nsamples = 47\nvalue = [25.71, 34.529]"] ;
43 -> 44 ;
45 [label="modifi <= 0.5\ngini = 0.473\nsamples = 46\nvalue = [21.425, 34.529]"] ;
44 -> 45 ;
46 [label="gini = 0.443\nsamples = 45\nvalue = [17.14, 34.529]"] ;
45 -> 46 ;
47 [label="gini = 0.0\nsamples = 1\nvalue = [4.285, 0.0]"] ;
45 -> 47 ;
48 [label="gini = 0.0\nsamples = 1\nvalue = [4.285, 0.0]"] ;
44 -> 48 ;
49 [label="gini = 0.0\nsamples = 2\nvalue = [0.0, 1.698]"] ;
43 -> 49 ;
50 [label="gini = -0.0\nsamples = 4\nvalue = [0.0, 4.528]"] ;
34 -> 50 ;
51 [label="ridicul <= 0.5\ngini = 0.315\nsamples = 103\nvalue = [21.425, 87.738]"] ;
5 -> 51 ;
52 [label="herbal <= 0.5\ngini = 0.318\nsamples = 102\nvalue = [21.425, 86.606]"] ;
51 -> 52 ;
53 [label="amaz <= 0.5\ngini = 0.334\nsamples = 92\nvalue = [21.425, 79.813]"] ;
52 -> 53 ;
54 [label="tea mean <= 0.5\ngini = 0.342\nsamples = 89\nvalue = [21.425, 76.417]"] ;
53 -> 54 ;
55 [label="spot favorit <= 0.5\ngini = 0.349\nsamples = 87\nvalue = [21.425, 73.586]"] ;
54 -> 55 ;
56 [label="output day <= 0.5\ngini = 0.354\nsamples = 86\nvalue = [21.425, 71.888]"] ;
55 -> 56 ;
57 [label="gini = 0.357\nsamples = 85\nvalue = [21.425, 70.756]"] ;
56 -> 57 ;
58 [label="gini = 0.0\nsamples = 1\nvalue = [0.0, 1.132]"] ;
56 -> 58 ;
59 [label="gini = 0.0\nsamples = 1\nvalue = [0.0, 1.698]"] ;
55 -> 59 ;
60 [label="gini = 0.0\nsamples = 2\nvalue = [0.0, 2.83]"] ;
54 -> 60 ;
61 [label="gini = 0.0\nsamples = 3\nvalue = [0.0, 3.396]"] ;
53 -> 61 ;
62 [label="gini = 0.0\nsamples = 10\nvalue = [0.0, 6.793]"] ;
52 -> 62 ;
63 [label="gini = 0.0\nsamples = 1\nvalue = [0.0, 1.132]"] ;
51 -> 63 ;
64 [label="diseas <= 0.5\ngini = 0.184\nsamples = 18\nvalue = [64.275, 7.359]"] ;
4 -> 64 ;
65 [label="potassium sorbat <= 0.5\ngini = 0.195\nsamples = 17\nvalue = [59.99, 7.359]"] ;
64 -> 65 ;
66 [label="past <= 1.0\ngini = 0.269\nsamples = 15\nvalue = [38.565, 7.359]"] ;
65 -> 66 ;
67 [label="littl see <= 0.5\ngini = 0.255\nsamples = 14\nvalue = [38.565, 6.793]"] ;
66 -> 67 ;
68 [label="reason <= 0.5\ngini = 0.239\nsamples = 13\nvalue = [38.565, 6.227]"] ;
67 -> 68 ;
69 [label="suppos add <= 0.5\ngini = 0.188\nsamples = 11\nvalue = [38.565, 4.528]"] ;
68 -> 69 ;
70 [label="contain schedul <= 0.5\ngini = 0.169\nsamples = 10\nvalue = [38.565, 3.962]"] ;
69 -> 70 ;
71 [label="gini = 0.127\nsamples = 9\nvalue = [38.565, 2.83]"] ;
70 -> 71 ;
72 [label="gini = 0.0\nsamples = 1\nvalue = [0.0, 1.132]"] ;
70 -> 72 ;
73 [label="gini = 0.0\nsamples = 1\nvalue = [0.0, 0.566]"] ;
69 -> 73 ;
74 [label="gini = 0.0\nsamples = 2\nvalue = [0.0, 1.698]"] ;
68 -> 74 ;
75 [label="gini = 0.0\nsamples = 1\nvalue = [0.0, 0.566]"] ;
67 -> 75 ;
76 [label="gini = 0.0\nsamples = 1\nvalue = [0.0, 0.566]"] ;
66 -> 76 ;
77 [label="gini = 0.0\nsamples = 2\nvalue = [21.425, 0.0]"] ;
65 -> 77 ;
78 [label="gini = 0.0\nsamples = 1\nvalue = [4.285, 0.0]"] ;
64 -> 78 ;
79 [label="make delici <= 0.5\ngini = 0.296\nsamples = 63\nvalue = [12.855, 58.303]"] ;
3 -> 79 ;
80 [label="along alway <= 0.5\ngini = 0.304\nsamples = 62\nvalue = [12.855, 56.039]"] ;
79 -> 80 ;
81 [label="lynn hancock <= 0.5\ngini = 0.307\nsamples = 61\nvalue = [12.855, 54.907]"] ;
80 -> 81 ;
82 [label="much inch <= 0.5\ngini = 0.311\nsamples = 60\nvalue = [12.855, 53.775]"] ;
81 -> 82 ;
83 [label="order came <= 0.5\ngini = 0.315\nsamples = 59\nvalue = [12.855, 52.643]"] ;
82 -> 83 ;
84 [label="food <= 0.5\ngini = 0.324\nsamples = 58\nvalue = [12.855, 50.378]"] ;
83 -> 84 ;
85 [label="bar <= 0.5\ngini = 0.37\nsamples = 45\nvalue = [12.855, 39.623]"] ;
84 -> 85 ;
86 [label="part snack <= 0.5\ngini = 0.375\nsamples = 44\nvalue = [12.855, 38.491]"] ;
85 -> 86 ;
87 [label="gini = 0.381\nsamples = 43\nvalue = [12.855, 37.359]"] ;
86 -> 87 ;
88 [label="gini = 0.0\nsamples = 1\nvalue = [0.0, 1.132]"] ;
86 -> 88 ;
89 [label="gini = 0.0\nsamples = 1\nvalue = [0.0, 1.132]"] ;
85 -> 89 ;
90 [label="gini = 0.0\nsamples = 13\nvalue = [0.0, 10.755]"] ;
84 -> 90 ;
91 [label="gini = 0.0\nsamples = 1\nvalue = [0.0, 2.264]"] ;
83 -> 91 ;
92 [label="gini = 0.0\nsamples = 1\nvalue = [0.0, 1.132]"] ;
82 -> 92 ;
93 [label="gini = 0.0\nsamples = 1\nvalue = [0.0, 1.132]"] ;
81 -> 93 ;
94 [label="gini = 0.0\nsamples = 1\nvalue = [0.0, 1.132]"] ;
80 -> 94 ;
95 [label="gini = 0.0\nsamples = 1\nvalue = [0.0, 2.264]"] ;
79 -> 95 ;
96 [label="gini = -0.0\nsamples = 54\nvalue = [0.0, 48.68]"] ;
2 -> 96 ;
97 [label="healti <= 0.5\ngini = 0.245\nsamples = 204\nvalue = [29.995, 180.004]"] ;
1 -> 97 ;
98 [label="whip <= 0.5\ngini = 0.247\nsamples = 202\nvalue = [29.995, 177.74]"] ;
97 -> 98 ;
99 [label="soup great <= 0.5\ngini = 0.25\nsamples = 200\nvalue = [29.995, 174.909]"] ;
98 -> 99 ;
100 [label="one <= 1.5\ngini = 0.254\nsamples = 198\nvalue = [29.995, 170.947]"] ;
99 -> 100 ;
101 [label="that <= 1.5\ngini = 0.261\nsamples = 190\nvalue = [29.995, 164.721]"] ;
100 -> 101 ;
102 [label="love littl <= 0.5\ngini = 0.234\nsamples = 189\nvalue = [25.71, 164.721]"] ;
101 -> 102 ;
103 [label="love stuff <= 0.5\ngini = 0.235\nsamples = 187\nvalue = [25.71, 163.022]"] ;
102 -> 103 ;
104 [label="version silver <= 0.5\ngini = 0.237\nsamples = 186\nvalue = [25.71, 161.324]"] ;
103 -> 104 ;
105 [label="high recommend <= 0.5\ngini = 0.207\nsamples = 185\nvalue = [21.425, 161.324]"] ;
104 -> 105 ;
106 [label="oil <= 0.5\ngini = 0.213\nsamples = 177\nvalue = [21.425, 155.664]"] ;
105 -> 106 ;
107 [label="gini = 0.219\nsamples = 168\nvalue = [21.425, 150.003]"] ;
106 -> 107 ;
108 [label="gini = 0.0\nsamples = 9\nvalue = [0.0, 5.66]"] ;
106 -> 108 ;
109 [label="gini = 0.0\nsamples = 8\nvalue = [0.0, 5.66]"] ;
105 -> 109 ;
110 [label="gini = 0.0\nsamples = 1\nvalue = [4.285, 0.0]"] ;
104 -> 110 ;
111 [label="gini = 0.0\nsamples = 1\nvalue = [0.0, 1.698]"] ;
103 -> 111 ;
112 [label="gini = 0.0\nsamples = 2\nvalue = [0.0, 1.698]"] ;
102 -> 112 ;
113 [label="gini = 0.0\nsamples = 1\nvalue = [4.285, 0.0]"] ;
101 -> 113 ;
114 [label="gini = 0.0\nsamples = 8\nvalue = [0.0, 6.227]"] ;
100 -> 114 ;
115 [label="gini = 0.0\nsamples = 2\nvalue = [0.0, 3.962]"] ;
99 -> 115 ;
116 [label="gini = 0.0\nsamples = 2\nvalue = [0.0, 2.83]"] ;
98 -> 116 ;
117 [label="gini = 0.0\nsamples = 2\nvalue = [0.0, 2.264]"] ;
97 -> 117 ;
118 [label="not equat <= 0.5\ngini = 0.083\nsamples = 28\nvalue = [137.12, 6.227]"] ;
0 -> 118 [labeldistance=2.5, labelangle=-45, headlabel="False"] ;
119 [label="cant beverag <= 0.5\ngini = 0.069\nsamples = 27\nvalue = [137.12, 5.094]"] ;
118 -> 119 ;
120 [label="case tri <= 0.5\ngini = 0.073\nsamples = 26\nvalue = [128.55, 5.094]"] ;
119 -> 120 ;
121 [label="great soft <= 0.5\ngini = 0.076\nsamples = 25\nvalue = [124.265, 5.094]"] ;
120 -> 121 ;
122 [label="purchas gift <= 0.5\ngini = 0.068\nsamples = 24\nvalue = [124.265, 4.528]"] ;
121 -> 122 ;
123 [label="mmmmmmm nice <= 0.5\ngini = 0.07\nsamples = 23\nvalue = [119.98, 4.528]"] ;
122 -> 123 ;
124 [label="crunch <= 0.5\ngini = 0.054\nsamples = 22\nvalue = [119.98, 3.396]"] ;
123 -> 124 ;
125 [label="sometim <= 0.5\ngini = 0.036\nsamples = 21\nvalue = [119.98, 2.264]"] ;
124 -> 125 ;
126 [label="say return <= 0.5\ngini = 0.019\nsamples = 20\nvalue = [119.98, 1.132]"] ;
125 -> 126 ;
127 [label="figur <= 0.5\ngini = 0.021\nsamples = 19\nvalue = [107.125, 1.132]"] ;
126 -> 127 ;
128 [label="splenda <= 0.5\ngini = 0.022\nsamples = 18\nvalue = [102.84, 1.132]"] ;
127 -> 128 ;
129 [label="gini = 0.023\nsamples = 17\nvalue = [94.27, 1.132]"] ;
128 -> 129 ;
130 [label="gini = 0.0\nsamples = 1\nvalue = [8.57, 0.0]"] ;
128 -> 130 ;
131 [label="gini = 0.0\nsamples = 1\nvalue = [4.285, 0.0]"] ;
127 -> 131 ;
132 [label="gini = 0.0\nsamples = 1\nvalue = [12.855, 0.0]"] ;
126 -> 132 ;
133 [label="gini = 0.0\nsamples = 1\nvalue = [0.0, 1.132]"] ;
125 -> 133 ;
134 [label="gini = 0.0\nsamples = 1\nvalue = [0.0, 1.132]"] ;
124 -> 134 ;
135 [label="gini = 0.0\nsamples = 1\nvalue = [0.0, 1.132]"] ;
123 -> 135 ;
136 [label="gini = 0.0\nsamples = 1\nvalue = [4.285, 0.0]"] ;
122 -> 136 ;
137 [label="gini = 0.0\nsamples = 1\nvalue = [0.0, 0.566]"] ;
121 -> 137 ;
138 [label="gini = 0.0\nsamples = 1\nvalue = [4.285, 0.0]"] ;
120 -> 138 ;
139 [label="gini = 0.0\nsamples = 1\nvalue = [8.57, 0.0]"] ;
119 -> 139 ;
140 [label="gini = 0.0\nsamples = 1\nvalue = [0.0, 1.132]"] ;
118 -> 140 ;
}