digraph Tree {
node [shape=box] ;
0 [label="list <= 0.056\ngini = 0.5\nsamples = 44196\nvalue = [35424.216, 34943.961]"] ;
1 [label="snack <= 0.068\ngini = 0.5\nsamples = 43479\nvalue = [34057.297, 34472.441]"] ;
0 -> 1 [labeldistance=2.5, labelangle=45, headlabel="True"] ;
2 [label="decemb <= 0.119\ngini = 0.5\nsamples = 40972\nvalue = [33401.69, 32319.187]"] ;
1 -> 2 ;
3 [label="smell <= 0.063\ngini = 0.5\nsamples = 40937\nvalue = [33290.279, 32299.376]"] ;
2 -> 3 ;
4 [label="dri <= 0.072\ngini = 0.5\nsamples = 39849\nvalue = [31683.399, 31536.906]"] ;
3 -> 4 ;
5 [label="often <= 0.098\ngini = 0.5\nsamples = 38713\nvalue = [30243.634, 30681.605]"] ;
4 -> 5 ;
6 [label="end <= 0.085\ngini = 0.5\nsamples = 38287\nvalue = [30183.643, 30296.125]"] ;
5 -> 6 ;
7 [label="chicken <= 0.106\ngini = 0.5\nsamples = 37767\nvalue = [29365.206, 29949.702]"] ;
6 -> 7 ;
8 [label="never <= 0.052\ngini = 0.5\nsamples = 36980\nvalue = [29048.115, 29292.518]"] ;
7 -> 8 ;
9 [label="elsewher <= 0.08\ngini = 0.5\nsamples = 35050\nvalue = [26841.332, 27851.355]"] ;
8 -> 9 ;
10 [label="town <= 0.075\ngini = 0.5\nsamples = 34966\nvalue = [26635.651, 27797.581]"] ;
9 -> 10 ;
11 [label="excel <= 0.064\ngini = 0.5\nsamples = 34845\nvalue = [26631.366, 27696.258]"] ;
10 -> 11 ;
12 [label="gini = 0.5\nsamples = 33309\nvalue = [26318.56, 26380.191]"] ;
11 -> 12 ;
13 [label="gini = 0.31\nsamples = 1536\nvalue = [312.806, 1316.066]"] ;
11 -> 13 ;
14 [label="mix <= 0.024\ngini = 0.078\nsamples = 121\nvalue = [4.285, 101.323]"] ;
10 -> 14 ;
15 [label="gini = 0.086\nsamples = 110\nvalue = [4.285, 91.134]"] ;
14 -> 15 ;
16 [label="gini = 0.0\nsamples = 11\nvalue = [0.0, 10.189]"] ;
14 -> 16 ;
17 [label="free <= 0.037\ngini = 0.329\nsamples = 84\nvalue = [205.681, 53.775]"] ;
9 -> 17 ;
18 [label="keep <= 0.026\ngini = 0.298\nsamples = 76\nvalue = [205.681, 45.85]"] ;
17 -> 18 ;
19 [label="gini = 0.263\nsamples = 69\nvalue = [205.681, 37.925]"] ;
18 -> 19 ;
20 [label="gini = 0.0\nsamples = 7\nvalue = [0.0, 7.925]"] ;
18 -> 20 ;
21 [label="gini = 0.0\nsamples = 8\nvalue = [0.0, 7.925]"] ;
17 -> 21 ;
22 [label="provid <= 0.091\ngini = 0.478\nsamples = 1930\nvalue = [2206.783, 1441.163]"] ;
8 -> 22 ;
23 [label="hous <= 0.083\ngini = 0.477\nsamples = 1914\nvalue = [2206.783, 1427.012]"] ;
22 -> 23 ;
24 [label="make <= 0.04\ngini = 0.474\nsamples = 1862\nvalue = [2202.498, 1380.596]"] ;
23 -> 24 ;
25 [label="gini = 0.463\nsamples = 1529\nvalue = [1949.682, 1116.25]"] ;
24 -> 25 ;
26 [label="gini = 0.5\nsamples = 333\nvalue = [252.816, 264.345]"] ;
24 -> 26 ;
27 [label="children <= 0.049\ngini = 0.155\nsamples = 52\nvalue = [4.285, 46.416]"] ;
23 -> 27 ;
28 [label="gini = 0.17\nsamples = 47\nvalue = [4.285, 41.322]"] ;
27 -> 28 ;
29 [label="gini = 0.0\nsamples = 5\nvalue = [0.0, 5.094]"] ;
27 -> 29 ;
30 [label="gini = -0.0\nsamples = 16\nvalue = [0.0, 14.151]"] ;
22 -> 30 ;
31 [label="though <= 0.012\ngini = 0.439\nsamples = 787\nvalue = [317.091, 657.184]"] ;
7 -> 31 ;
32 [label="guess <= 0.095\ngini = 0.423\nsamples = 754\nvalue = [278.526, 639.07]"] ;
31 -> 32 ;
33 [label="recip <= 0.445\ngini = 0.413\nsamples = 748\nvalue = [261.386, 636.806]"] ;
32 -> 33 ;
34 [label="nasti <= 0.107\ngini = 0.404\nsamples = 747\nvalue = [248.531, 636.806]"] ;
33 -> 34 ;
35 [label="gini = 0.398\nsamples = 746\nvalue = [239.961, 636.806]"] ;
34 -> 35 ;
36 [label="gini = -0.0\nsamples = 1\nvalue = [8.57, 0.0]"] ;
34 -> 36 ;
37 [label="gini = 0.0\nsamples = 1\nvalue = [12.855, 0.0]"] ;
33 -> 37 ;
38 [label="fill <= 0.066\ngini = 0.206\nsamples = 6\nvalue = [17.14, 2.264]"] ;
32 -> 38 ;
39 [label="differ <= 0.059\ngini = 0.255\nsamples = 5\nvalue = [12.855, 2.264]"] ;
38 -> 39 ;
40 [label="gini = 0.206\nsamples = 4\nvalue = [12.855, 1.698]"] ;
39 -> 40 ;
41 [label="gini = 0.0\nsamples = 1\nvalue = [0.0, 0.566]"] ;
39 -> 41 ;
42 [label="gini = 0.0\nsamples = 1\nvalue = [4.285, 0.0]"] ;
38 -> 42 ;
43 [label="magnifi <= 0.04\ngini = 0.435\nsamples = 33\nvalue = [38.565, 18.114]"] ;
31 -> 43 ;
44 [label="organ <= 0.033\ngini = 0.452\nsamples = 32\nvalue = [34.28, 18.114]"] ;
43 -> 44 ;
45 [label="boston <= 0.033\ngini = 0.443\nsamples = 30\nvalue = [34.28, 16.981]"] ;
44 -> 45 ;
46 [label="gini = 0.432\nsamples = 29\nvalue = [34.28, 15.849]"] ;
45 -> 46 ;
47 [label="gini = 0.0\nsamples = 1\nvalue = [0.0, 1.132]"] ;
45 -> 47 ;
48 [label="gini = 0.0\nsamples = 2\nvalue = [0.0, 1.132]"] ;
44 -> 48 ;
49 [label="gini = 0.0\nsamples = 1\nvalue = [4.285, 0.0]"] ;
43 -> 49 ;
50 [label="delici <= 0.102\ngini = 0.418\nsamples = 520\nvalue = [818.438, 346.423]"] ;
6 -> 50 ;
51 [label="content <= 0.1\ngini = 0.41\nsamples = 503\nvalue = [818.438, 331.705]"] ;
50 -> 51 ;
52 [label="bake <= 0.043\ngini = 0.407\nsamples = 496\nvalue = [818.438, 326.045]"] ;
51 -> 52 ;
53 [label="actual <= 0.116\ngini = 0.402\nsamples = 479\nvalue = [809.868, 313.026]"] ;
52 -> 53 ;
54 [label="food <= 0.125\ngini = 0.395\nsamples = 469\nvalue = [809.868, 300.573]"] ;
53 -> 54 ;
55 [label="gini = 0.386\nsamples = 452\nvalue = [805.583, 285.289]"] ;
54 -> 55 ;
56 [label="gini = 0.342\nsamples = 17\nvalue = [4.285, 15.283]"] ;
54 -> 56 ;
57 [label="gini = -0.0\nsamples = 10\nvalue = [0.0, 12.453]"] ;
53 -> 57 ;
58 [label="bit <= 0.044\ngini = 0.479\nsamples = 17\nvalue = [8.57, 13.019]"] ;
52 -> 58 ;
59 [label="amaretto <= 0.125\ngini = 0.483\nsamples = 16\nvalue = [8.57, 12.453]"] ;
58 -> 59 ;
60 [label="gini = 0.487\nsamples = 15\nvalue = [8.57, 11.887]"] ;
59 -> 60 ;
61 [label="gini = 0.0\nsamples = 1\nvalue = [0.0, 0.566]"] ;
59 -> 61 ;
62 [label="gini = 0.0\nsamples = 1\nvalue = [0.0, 0.566]"] ;
58 -> 62 ;
63 [label="gini = -0.0\nsamples = 7\nvalue = [0.0, 5.66]"] ;
51 -> 63 ;
64 [label="gini = -0.0\nsamples = 17\nvalue = [0.0, 14.717]"] ;
50 -> 64 ;
65 [label="right <= 0.022\ngini = 0.233\nsamples = 426\nvalue = [59.99, 385.48]"] ;
5 -> 65 ;
66 [label="market <= 0.051\ngini = 0.242\nsamples = 403\nvalue = [59.99, 365.102]"] ;
65 -> 66 ;
67 [label="hope <= 0.206\ngini = 0.244\nsamples = 397\nvalue = [59.99, 361.14]"] ;
66 -> 67 ;
68 [label="repeat <= 0.086\ngini = 0.204\nsamples = 396\nvalue = [47.135, 361.14]"] ;
67 -> 68 ;
69 [label="hair <= 0.079\ngini = 0.191\nsamples = 392\nvalue = [42.85, 358.31]"] ;
68 -> 69 ;
70 [label="almost <= 0.139\ngini = 0.159\nsamples = 391\nvalue = [34.28, 358.31]"] ;
69 -> 70 ;
71 [label="gini = 0.144\nsamples = 387\nvalue = [29.995, 354.913]"] ;
70 -> 71 ;
72 [label="gini = 0.493\nsamples = 4\nvalue = [4.285, 3.396]"] ;
70 -> 72 ;
73 [label="gini = 0.0\nsamples = 1\nvalue = [8.57, 0.0]"] ;
69 -> 73 ;
74 [label="flour <= 0.064\ngini = 0.479\nsamples = 4\nvalue = [4.285, 2.83]"] ;
68 -> 74 ;
75 [label="renal <= 0.122\ngini = 0.407\nsamples = 3\nvalue = [4.285, 1.698]"] ;
74 -> 75 ;
76 [label="gini = 0.0\nsamples = 2\nvalue = [0.0, 1.698]"] ;
75 -> 76 ;
77 [label="gini = 0.0\nsamples = 1\nvalue = [4.285, 0.0]"] ;
75 -> 77 ;
78 [label="gini = 0.0\nsamples = 1\nvalue = [0.0, 1.132]"] ;
74 -> 78 ;
79 [label="gini = -0.0\nsamples = 1\nvalue = [12.855, 0.0]"] ;
67 -> 79 ;
80 [label="gini = 0.0\nsamples = 6\nvalue = [0.0, 3.962]"] ;
66 -> 80 ;
81 [label="gini = 0.0\nsamples = 23\nvalue = [0.0, 20.378]"] ;
65 -> 81 ;
82 [label="fair <= 0.016\ngini = 0.468\nsamples = 1136\nvalue = [1439.765, 855.301]"] ;
4 -> 82 ;
83 [label="prefer <= 0.097\ngini = 0.465\nsamples = 1121\nvalue = [1439.765, 838.886]"] ;
82 -> 83 ;
84 [label="weight <= 0.021\ngini = 0.462\nsamples = 1093\nvalue = [1431.195, 812.848]"] ;
83 -> 84 ;
85 [label="vanilla <= 0.028\ngini = 0.459\nsamples = 1072\nvalue = [1431.195, 794.168]"] ;
84 -> 85 ;
86 [label="find <= 0.097\ngini = 0.457\nsamples = 1059\nvalue = [1431.195, 782.847]"] ;
85 -> 86 ;
87 [label="like <= 0.068\ngini = 0.452\nsamples = 1017\nvalue = [1418.34, 745.488]"] ;
86 -> 87 ;
88 [label="daili <= 0.018\ngini = 0.47\nsamples = 827\nvalue = [1019.833, 619.259]"] ;
87 -> 88 ;
89 [label="gini = 0.468\nsamples = 810\nvalue = [1019.833, 606.806]"] ;
88 -> 89 ;
90 [label="gini = -0.0\nsamples = 17\nvalue = [0.0, 12.453]"] ;
88 -> 90 ;
91 [label="steak <= 0.034\ngini = 0.365\nsamples = 190\nvalue = [398.506, 126.229]"] ;
87 -> 91 ;
92 [label="gini = 0.36\nsamples = 188\nvalue = [398.506, 122.833]"] ;
91 -> 92 ;
93 [label="gini = -0.0\nsamples = 2\nvalue = [0.0, 3.396]"] ;
91 -> 93 ;
94 [label="name <= 0.055\ngini = 0.381\nsamples = 42\nvalue = [12.855, 37.359]"] ;
86 -> 94 ;
95 [label="local <= 0.208\ngini = 0.304\nsamples = 41\nvalue = [8.57, 37.359]"] ;
94 -> 95 ;
96 [label="gini = 0.187\nsamples = 39\nvalue = [4.285, 36.793]"] ;
95 -> 96 ;
97 [label="gini = 0.206\nsamples = 2\nvalue = [4.285, 0.566]"] ;
95 -> 97 ;
98 [label="gini = 0.0\nsamples = 1\nvalue = [4.285, 0.0]"] ;
94 -> 98 ;
99 [label="gini = -0.0\nsamples = 13\nvalue = [0.0, 11.321]"] ;
85 -> 99 ;
100 [label="gini = -0.0\nsamples = 21\nvalue = [0.0, 18.68]"] ;
84 -> 100 ;
101 [label="stock <= 0.132\ngini = 0.373\nsamples = 28\nvalue = [8.57, 26.038]"] ;
83 -> 101 ;
102 [label="adjust <= 0.082\ngini = 0.377\nsamples = 27\nvalue = [8.57, 25.472]"] ;
101 -> 102 ;
103 [label="learn <= 0.064\ngini = 0.39\nsamples = 26\nvalue = [8.57, 23.774]"] ;
102 -> 103 ;
104 [label="inde <= 0.09\ngini = 0.403\nsamples = 25\nvalue = [8.57, 22.076]"] ;
103 -> 104 ;
105 [label="trail <= 0.115\ngini = 0.412\nsamples = 24\nvalue = [8.57, 20.944]"] ;
104 -> 105 ;
106 [label="gini = 0.436\nsamples = 23\nvalue = [8.57, 18.114]"] ;
105 -> 106 ;
107 [label="gini = 0.0\nsamples = 1\nvalue = [0.0, 2.83]"] ;
105 -> 107 ;
108 [label="gini = 0.0\nsamples = 1\nvalue = [0.0, 1.132]"] ;
104 -> 108 ;
109 [label="gini = 0.0\nsamples = 1\nvalue = [0.0, 1.698]"] ;
103 -> 109 ;
110 [label="gini = 0.0\nsamples = 1\nvalue = [0.0, 1.698]"] ;
102 -> 110 ;
111 [label="gini = 0.0\nsamples = 1\nvalue = [0.0, 0.566]"] ;
101 -> 111 ;
112 [label="gini = -0.0\nsamples = 15\nvalue = [0.0, 16.415]"] ;
82 -> 112 ;
113 [label="run <= 0.079\ngini = 0.436\nsamples = 1088\nvalue = [1606.881, 762.469]"] ;
3 -> 113 ;
114 [label="cool <= 0.029\ngini = 0.431\nsamples = 1065\nvalue = [1606.881, 738.695]"] ;
113 -> 114 ;
115 [label="curri <= 0.155\ngini = 0.429\nsamples = 1052\nvalue = [1606.881, 726.242]"] ;
114 -> 115 ;
116 [label="fast <= 0.027\ngini = 0.427\nsamples = 1046\nvalue = [1606.881, 718.883]"] ;
115 -> 116 ;
117 [label="boil <= 0.03\ngini = 0.422\nsamples = 1027\nvalue = [1606.881, 698.506]"] ;
116 -> 117 ;
118 [label="wait <= 0.075\ngini = 0.418\nsamples = 1012\nvalue = [1606.881, 681.524]"] ;
117 -> 118 ;
119 [label="vanilla <= 0.094\ngini = 0.414\nsamples = 992\nvalue = [1606.881, 663.411]"] ;
118 -> 119 ;
120 [label="suppli <= 0.013\ngini = 0.409\nsamples = 966\nvalue = [1598.31, 644.165]"] ;
119 -> 120 ;
121 [label="gini = 0.407\nsamples = 957\nvalue = [1598.31, 634.542]"] ;
120 -> 121 ;
122 [label="gini = -0.0\nsamples = 9\nvalue = [0.0, 9.623]"] ;
120 -> 122 ;
123 [label="unlik <= 0.145\ngini = 0.426\nsamples = 26\nvalue = [8.57, 19.246]"] ;
119 -> 123 ;
124 [label="gini = 0.431\nsamples = 25\nvalue = [8.57, 18.68]"] ;
123 -> 124 ;
125 [label="gini = 0.0\nsamples = 1\nvalue = [0.0, 0.566]"] ;
123 -> 125 ;
126 [label="gini = -0.0\nsamples = 20\nvalue = [0.0, 18.114]"] ;
118 -> 126 ;
127 [label="gini = -0.0\nsamples = 15\nvalue = [0.0, 16.981]"] ;
117 -> 127 ;
128 [label="gini = -0.0\nsamples = 19\nvalue = [0.0, 20.378]"] ;
116 -> 128 ;
129 [label="gini = -0.0\nsamples = 6\nvalue = [0.0, 7.359]"] ;
115 -> 129 ;
130 [label="gini = -0.0\nsamples = 13\nvalue = [0.0, 12.453]"] ;
114 -> 130 ;
131 [label="gini = -0.0\nsamples = 23\nvalue = [0.0, 23.774]"] ;
113 -> 131 ;
132 [label="up <= 0.094\ngini = 0.256\nsamples = 35\nvalue = [111.41, 19.812]"] ;
2 -> 132 ;
133 [label="mani <= 0.029\ngini = 0.271\nsamples = 34\nvalue = [102.84, 19.812]"] ;
132 -> 133 ;
134 [label="look <= 0.058\ngini = 0.249\nsamples = 32\nvalue = [102.84, 17.548]"] ;
133 -> 134 ;
135 [label="someth <= 0.065\ngini = 0.186\nsamples = 27\nvalue = [102.84, 11.887]"] ;
134 -> 135 ;
136 [label="decemb <= 0.344\ngini = 0.171\nsamples = 25\nvalue = [102.84, 10.755]"] ;
135 -> 136 ;
137 [label="dollar <= 0.074\ngini = 0.149\nsamples = 23\nvalue = [102.84, 9.057]"] ;
136 -> 137 ;
138 [label="poster <= 0.063\ngini = 0.16\nsamples = 22\nvalue = [94.27, 9.057]"] ;
137 -> 138 ;
139 [label="great <= 0.059\ngini = 0.143\nsamples = 21\nvalue = [94.27, 7.925]"] ;
138 -> 139 ;
140 [label="one <= 0.019\ngini = 0.097\nsamples = 18\nvalue = [94.27, 5.094]"] ;
139 -> 140 ;
141 [label="gini = 0.173\nsamples = 10\nvalue = [42.85, 4.528]"] ;
140 -> 141 ;
142 [label="gini = 0.022\nsamples = 8\nvalue = [51.42, 0.566]"] ;
140 -> 142 ;
143 [label="gini = 0.0\nsamples = 3\nvalue = [0.0, 2.83]"] ;
139 -> 143 ;
144 [label="gini = 0.0\nsamples = 1\nvalue = [0.0, 1.132]"] ;
138 -> 144 ;
145 [label="gini = 0.0\nsamples = 1\nvalue = [8.57, 0.0]"] ;
137 -> 145 ;
146 [label="gini = 0.0\nsamples = 2\nvalue = [0.0, 1.698]"] ;
136 -> 146 ;
147 [label="gini = 0.0\nsamples = 2\nvalue = [0.0, 1.132]"] ;
135 -> 147 ;
148 [label="gini = 0.0\nsamples = 5\nvalue = [0.0, 5.66]"] ;
134 -> 148 ;
149 [label="gini = 0.0\nsamples = 2\nvalue = [0.0, 2.264]"] ;
133 -> 149 ;
150 [label="gini = 0.0\nsamples = 1\nvalue = [8.57, 0.0]"] ;
132 -> 150 ;
151 [label="china <= 0.155\ngini = 0.358\nsamples = 2507\nvalue = [655.607, 2153.254]"] ;
1 -> 151 ;
152 [label="realiti <= 0.066\ngini = 0.346\nsamples = 2501\nvalue = [617.042, 2150.99]"] ;
151 -> 152 ;
153 [label="wrong <= 0.045\ngini = 0.344\nsamples = 2500\nvalue = [608.472, 2150.99]"] ;
152 -> 153 ;
154 [label="bastion <= 0.122\ngini = 0.339\nsamples = 2471\nvalue = [587.047, 2127.216]"] ;
153 -> 154 ;
155 [label="sweet <= 0.069\ngini = 0.338\nsamples = 2470\nvalue = [582.762, 2127.216]"] ;
154 -> 155 ;
156 [label="sure <= 0.222\ngini = 0.358\nsamples = 2107\nvalue = [552.767, 1813.624]"] ;
155 -> 156 ;
157 [label="walnut <= 0.336\ngini = 0.357\nsamples = 2104\nvalue = [548.482, 1811.926]"] ;
156 -> 157 ;
158 [label="stuck <= 0.052\ngini = 0.351\nsamples = 2099\nvalue = [531.342, 1810.794]"] ;
157 -> 158 ;
159 [label="ined <= 0.337\ngini = 0.341\nsamples = 2085\nvalue = [501.347, 1802.303]"] ;
158 -> 159 ;
160 [label="acai <= 0.034\ngini = 0.336\nsamples = 2083\nvalue = [488.492, 1802.303]"] ;
159 -> 160 ;
161 [label="gini = 0.334\nsamples = 2082\nvalue = [484.207, 1802.303]"] ;
160 -> 161 ;
162 [label="gini = -0.0\nsamples = 1\nvalue = [4.285, 0.0]"] ;
160 -> 162 ;
163 [label="gini = -0.0\nsamples = 2\nvalue = [12.855, 0.0]"] ;
159 -> 163 ;
164 [label="easi <= 0.051\ngini = 0.344\nsamples = 14\nvalue = [29.995, 8.491]"] ;
158 -> 164 ;
165 [label="flight <= 0.074\ngini = 0.316\nsamples = 13\nvalue = [29.995, 7.359]"] ;
164 -> 165 ;
166 [label="gini = 0.285\nsamples = 12\nvalue = [29.995, 6.227]"] ;
165 -> 166 ;
167 [label="gini = 0.0\nsamples = 1\nvalue = [0.0, 1.132]"] ;
165 -> 167 ;
168 [label="gini = 0.0\nsamples = 1\nvalue = [0.0, 1.132]"] ;
164 -> 168 ;
169 [label="plain <= 0.088\ngini = 0.116\nsamples = 5\nvalue = [17.14, 1.132]"] ;
157 -> 169 ;
170 [label="next <= 0.056\ngini = 0.062\nsamples = 4\nvalue = [17.14, 0.566]"] ;
169 -> 170 ;
171 [label="wast <= 0.157\ngini = 0.081\nsamples = 3\nvalue = [12.855, 0.566]"] ;
170 -> 171 ;
172 [label="gini = 0.116\nsamples = 2\nvalue = [8.57, 0.566]"] ;
171 -> 172 ;
173 [label="gini = 0.0\nsamples = 1\nvalue = [4.285, 0.0]"] ;
171 -> 173 ;
174 [label="gini = 0.0\nsamples = 1\nvalue = [4.285, 0.0]"] ;
170 -> 174 ;
175 [label="gini = 0.0\nsamples = 1\nvalue = [0.0, 0.566]"] ;
169 -> 175 ;
176 [label="oven <= 0.168\ngini = 0.407\nsamples = 3\nvalue = [4.285, 1.698]"] ;
156 -> 176 ;
177 [label="gini = 0.0\nsamples = 2\nvalue = [0.0, 1.698]"] ;
176 -> 177 ;
178 [label="gini = 0.0\nsamples = 1\nvalue = [4.285, 0.0]"] ;
176 -> 178 ;
179 [label="take <= 0.019\ngini = 0.159\nsamples = 363\nvalue = [29.995, 313.592]"] ;
155 -> 179 ;
180 [label="contain <= 0.025\ngini = 0.17\nsamples = 335\nvalue = [29.995, 289.252]"] ;
179 -> 180 ;
181 [label="pack <= 0.148\ngini = 0.176\nsamples = 323\nvalue = [29.995, 277.931]"] ;
180 -> 181 ;
182 [label="fruiti <= 0.024\ngini = 0.134\nsamples = 319\nvalue = [21.425, 275.666]"] ;
181 -> 182 ;
183 [label="especi <= 0.046\ngini = 0.111\nsamples = 315\nvalue = [17.14, 272.836]"] ;
182 -> 183 ;
184 [label="gini = 0.114\nsamples = 307\nvalue = [17.14, 265.477]"] ;
183 -> 184 ;
185 [label="gini = 0.0\nsamples = 8\nvalue = [0.0, 7.359]"] ;
183 -> 185 ;
186 [label="worth <= 0.016\ngini = 0.479\nsamples = 4\nvalue = [4.285, 2.83]"] ;
182 -> 186 ;
187 [label="gini = 0.0\nsamples = 3\nvalue = [0.0, 2.83]"] ;
186 -> 187 ;
188 [label="gini = 0.0\nsamples = 1\nvalue = [4.285, 0.0]"] ;
186 -> 188 ;
189 [label="pita <= 0.153\ngini = 0.331\nsamples = 4\nvalue = [8.57, 2.264]"] ;
181 -> 189 ;
190 [label="tri <= 0.052\ngini = 0.276\nsamples = 3\nvalue = [8.57, 1.698]"] ;
189 -> 190 ;
191 [label="gini = 0.0\nsamples = 1\nvalue = [0.0, 1.132]"] ;
190 -> 191 ;
192 [label="gini = 0.116\nsamples = 2\nvalue = [8.57, 0.566]"] ;
190 -> 192 ;
193 [label="gini = 0.0\nsamples = 1\nvalue = [0.0, 0.566]"] ;
189 -> 193 ;
194 [label="gini = 0.0\nsamples = 12\nvalue = [0.0, 11.321]"] ;
180 -> 194 ;
195 [label="gini = 0.0\nsamples = 28\nvalue = [0.0, 24.34]"] ;
179 -> 195 ;
196 [label="gini = -0.0\nsamples = 1\nvalue = [4.285, 0.0]"] ;
154 -> 196 ;
197 [label="trip <= 0.097\ngini = 0.499\nsamples = 29\nvalue = [21.425, 23.774]"] ;
153 -> 197 ;
198 [label="cours <= 0.054\ngini = 0.487\nsamples = 28\nvalue = [17.14, 23.774]"] ;
197 -> 198 ;
199 [label="take <= 0.046\ngini = 0.456\nsamples = 27\nvalue = [12.855, 23.774]"] ;
198 -> 199 ;
200 [label="experi <= 0.027\ngini = 0.468\nsamples = 25\nvalue = [12.855, 21.51]"] ;
199 -> 200 ;
201 [label="gini = 0.0\nsamples = 24\nvalue = [0.0, 21.51]"] ;
200 -> 201 ;
202 [label="gini = 0.0\nsamples = 1\nvalue = [12.855, 0.0]"] ;
200 -> 202 ;
203 [label="gini = 0.0\nsamples = 2\nvalue = [0.0, 2.264]"] ;
199 -> 203 ;
204 [label="gini = 0.0\nsamples = 1\nvalue = [4.285, 0.0]"] ;
198 -> 204 ;
205 [label="gini = 0.0\nsamples = 1\nvalue = [4.285, 0.0]"] ;
197 -> 205 ;
206 [label="gini = -0.0\nsamples = 1\nvalue = [8.57, 0.0]"] ;
152 -> 206 ;
207 [label="crumb <= 0.024\ngini = 0.105\nsamples = 6\nvalue = [38.565, 2.264]"] ;
151 -> 207 ;
208 [label="assur <= 0.051\ngini = 0.081\nsamples = 5\nvalue = [38.565, 1.698]"] ;
207 -> 208 ;
209 [label="gini = 0.0\nsamples = 4\nvalue = [38.565, 0.0]"] ;
208 -> 209 ;
210 [label="gini = 0.0\nsamples = 1\nvalue = [0.0, 1.698]"] ;
208 -> 210 ;
211 [label="gini = 0.0\nsamples = 1\nvalue = [0.0, 0.566]"] ;
207 -> 211 ;
212 [label="readili <= 0.016\ngini = 0.381\nsamples = 717\nvalue = [1366.92, 471.52]"] ;
0 -> 212 [labeldistance=2.5, labelangle=-45, headlabel="False"] ;
213 [label="satur <= 0.043\ngini = 0.379\nsamples = 711\nvalue = [1366.92, 465.293]"] ;
212 -> 213 ;
214 [label="snack <= 0.103\ngini = 0.375\nsamples = 703\nvalue = [1366.92, 455.67]"] ;
213 -> 214 ;
215 [label="color <= 0.043\ngini = 0.364\nsamples = 678\nvalue = [1366.92, 430.764]"] ;
214 -> 215 ;
216 [label="veget <= 0.139\ngini = 0.357\nsamples = 650\nvalue = [1349.78, 409.82]"] ;
215 -> 216 ;
217 [label="nice <= 0.017\ngini = 0.354\nsamples = 643\nvalue = [1349.78, 403.594]"] ;
216 -> 217 ;
218 [label="type <= 0.113\ngini = 0.339\nsamples = 598\nvalue = [1332.64, 368.499]"] ;
217 -> 218 ;
219 [label="custom <= 0.165\ngini = 0.336\nsamples = 590\nvalue = [1332.64, 361.706]"] ;
218 -> 219 ;
220 [label="delici <= 0.024\ngini = 0.334\nsamples = 587\nvalue = [1332.64, 358.31]"] ;
219 -> 220 ;
221 [label="price <= 0.046\ngini = 0.317\nsamples = 550\nvalue = [1315.5, 323.781]"] ;
220 -> 221 ;
222 [label="limit <= 0.024\ngini = 0.299\nsamples = 479\nvalue = [1225.514, 273.968]"] ;
221 -> 222 ;
223 [label="gini = 0.295\nsamples = 471\nvalue = [1225.514, 268.308]"] ;
222 -> 223 ;
224 [label="gini = -0.0\nsamples = 8\nvalue = [0.0, 5.66]"] ;
222 -> 224 ;
225 [label="need <= 0.03\ngini = 0.459\nsamples = 71\nvalue = [89.985, 49.812]"] ;
221 -> 225 ;
226 [label="gini = 0.445\nsamples = 66\nvalue = [89.985, 45.284]"] ;
225 -> 226 ;
227 [label="gini = 0.0\nsamples = 5\nvalue = [0.0, 4.528]"] ;
225 -> 227 ;
228 [label="third <= 0.043\ngini = 0.443\nsamples = 37\nvalue = [17.14, 34.529]"] ;
220 -> 228 ;
229 [label="feel <= 0.053\ngini = 0.395\nsamples = 36\nvalue = [12.855, 34.529]"] ;
228 -> 229 ;
230 [label="gini = 0.417\nsamples = 34\nvalue = [12.855, 30.567]"] ;
229 -> 230 ;
231 [label="gini = 0.0\nsamples = 2\nvalue = [0.0, 3.962]"] ;
229 -> 231 ;
232 [label="gini = 0.0\nsamples = 1\nvalue = [4.285, 0.0]"] ;
228 -> 232 ;
233 [label="gini = -0.0\nsamples = 3\nvalue = [0.0, 3.396]"] ;
219 -> 233 ;
234 [label="gini = -0.0\nsamples = 8\nvalue = [0.0, 6.793]"] ;
218 -> 234 ;
235 [label="good <= 0.012\ngini = 0.441\nsamples = 45\nvalue = [17.14, 35.095]"] ;
217 -> 235 ;
236 [label="bitter <= 0.048\ngini = 0.496\nsamples = 26\nvalue = [17.14, 20.378]"] ;
235 -> 236 ;
237 [label="chunk <= 0.044\ngini = 0.474\nsamples = 25\nvalue = [12.855, 20.378]"] ;
236 -> 237 ;
238 [label="seri <= 0.061\ngini = 0.426\nsamples = 23\nvalue = [8.57, 19.246]"] ;
237 -> 238 ;
239 [label="isnt <= 0.022\ngini = 0.441\nsamples = 22\nvalue = [8.57, 17.548]"] ;
238 -> 239 ;
240 [label="gini = 0.47\nsamples = 18\nvalue = [8.57, 14.151]"] ;
239 -> 240 ;
241 [label="gini = 0.0\nsamples = 4\nvalue = [0.0, 3.396]"] ;
239 -> 241 ;
242 [label="gini = 0.0\nsamples = 1\nvalue = [0.0, 1.698]"] ;
238 -> 242 ;
243 [label="bowl <= 0.076\ngini = 0.331\nsamples = 2\nvalue = [4.285, 1.132]"] ;
237 -> 243 ;
244 [label="gini = 0.0\nsamples = 1\nvalue = [0.0, 1.132]"] ;
243 -> 244 ;
245 [label="gini = 0.0\nsamples = 1\nvalue = [4.285, 0.0]"] ;
243 -> 245 ;
246 [label="gini = 0.0\nsamples = 1\nvalue = [4.285, 0.0]"] ;
236 -> 246 ;
247 [label="gini = 0.0\nsamples = 19\nvalue = [0.0, 14.717]"] ;
235 -> 247 ;
248 [label="gini = -0.0\nsamples = 7\nvalue = [0.0, 6.227]"] ;
216 -> 248 ;
249 [label="combin <= 0.042\ngini = 0.495\nsamples = 28\nvalue = [17.14, 20.944]"] ;
215 -> 249 ;
250 [label="decid <= 0.032\ngini = 0.477\nsamples = 26\nvalue = [12.855, 19.812]"] ;
249 -> 250 ;
251 [label="absenc <= 0.039\ngini = 0.48\nsamples = 25\nvalue = [12.855, 19.246]"] ;
250 -> 251 ;
252 [label="ice <= 0.029\ngini = 0.488\nsamples = 24\nvalue = [12.855, 17.548]"] ;
251 -> 252 ;
253 [label="stuff <= 0.054\ngini = 0.495\nsamples = 22\nvalue = [12.855, 15.849]"] ;
252 -> 253 ;
254 [label="carbon <= 0.115\ngini = 0.456\nsamples = 21\nvalue = [8.57, 15.849]"] ;
253 -> 254 ;
255 [label="peanut <= 0.029\ngini = 0.342\nsamples = 19\nvalue = [4.285, 15.283]"] ;
254 -> 255 ;
256 [label="gini = 0.373\nsamples = 16\nvalue = [4.285, 13.019]"] ;
255 -> 256 ;
257 [label="gini = 0.0\nsamples = 3\nvalue = [0.0, 2.264]"] ;
255 -> 257 ;
258 [label="can <= 0.041\ngini = 0.206\nsamples = 2\nvalue = [4.285, 0.566]"] ;
254 -> 258 ;
259 [label="gini = 0.0\nsamples = 1\nvalue = [4.285, 0.0]"] ;
258 -> 259 ;
260 [label="gini = 0.0\nsamples = 1\nvalue = [0.0, 0.566]"] ;
258 -> 260 ;
261 [label="gini = 0.0\nsamples = 1\nvalue = [4.285, 0.0]"] ;
253 -> 261 ;
262 [label="gini = 0.0\nsamples = 2\nvalue = [0.0, 1.698]"] ;
252 -> 262 ;
263 [label="gini = 0.0\nsamples = 1\nvalue = [0.0, 1.698]"] ;
251 -> 263 ;
264 [label="gini = 0.0\nsamples = 1\nvalue = [0.0, 0.566]"] ;
250 -> 264 ;
265 [label="entic <= 0.066\ngini = 0.331\nsamples = 2\nvalue = [4.285, 1.132]"] ;
249 -> 265 ;
266 [label="gini = 0.0\nsamples = 1\nvalue = [0.0, 1.132]"] ;
265 -> 266 ;
267 [label="gini = 0.0\nsamples = 1\nvalue = [4.285, 0.0]"] ;
265 -> 267 ;
268 [label="gini = -0.0\nsamples = 25\nvalue = [0.0, 24.906]"] ;
214 -> 268 ;
269 [label="gini = -0.0\nsamples = 8\nvalue = [0.0, 9.623]"] ;
213 -> 269 ;
270 [label="gini = -0.0\nsamples = 6\nvalue = [0.0, 6.227]"] ;
212 -> 270 ;
}