digraph Tree {
node [shape=box] ;
0 [label="awesom <= 0.012\ngini = 0.5\nsamples = 44185\nvalue = [35492.777, 34934.904]"] ;
1 [label="enjoy <= 0.111\ngini = 0.5\nsamples = 43498\nvalue = [35334.231, 34341.118]"] ;
0 -> 1 [labeldistance=2.5, labelangle=45, headlabel="True"] ;
2 [label="favorit <= 0.01\ngini = 0.5\nsamples = 41836\nvalue = [34781.464, 32930.521]"] ;
1 -> 2 ;
3 [label="review <= 0.061\ngini = 0.498\nsamples = 38724\nvalue = [34010.162, 30244.048]"] ;
2 -> 3 ;
4 [label="excel <= 0.025\ngini = 0.499\nsamples = 37142\nvalue = [31284.892, 29186.667]"] ;
3 -> 4 ;
5 [label="hope <= 0.059\ngini = 0.498\nsamples = 35298\nvalue = [30860.676, 27558.141]"] ;
4 -> 5 ;
6 [label="picki <= 0.064\ngini = 0.499\nsamples = 34582\nvalue = [29429.481, 27095.113]"] ;
5 -> 6 ;
7 [label="well <= 0.118\ngini = 0.499\nsamples = 34247\nvalue = [29266.65, 26818.314]"] ;
6 -> 7 ;
8 [label="okay <= 0.026\ngini = 0.499\nsamples = 33083\nvalue = [28722.453, 25847.538]"] ;
7 -> 8 ;
9 [label="home <= 0.111\ngini = 0.499\nsamples = 32888\nvalue = [28323.947, 25731.498]"] ;
8 -> 9 ;
10 [label="find <= 0.1\ngini = 0.499\nsamples = 32325\nvalue = [28139.691, 25266.771]"] ;
9 -> 10 ;
11 [label="disappoint <= 0.047\ngini = 0.497\nsamples = 30230\nvalue = [27368.389, 23495.035]"] ;
10 -> 11 ;
12 [label="gini = 0.5\nsamples = 29427\nvalue = [24527.424, 23132.197]"] ;
11 -> 12 ;
13 [label="gini = 0.201\nsamples = 803\nvalue = [2840.965, 362.838]"] ;
11 -> 13 ;
14 [label="sweeter <= 0.19\ngini = 0.423\nsamples = 2095\nvalue = [771.303, 1771.736]"] ;
10 -> 14 ;
15 [label="gini = 0.421\nsamples = 2094\nvalue = [762.733, 1771.736]"] ;
14 -> 15 ;
16 [label="gini = -0.0\nsamples = 1\nvalue = [8.57, 0.0]"] ;
14 -> 16 ;
17 [label="say <= 0.129\ngini = 0.407\nsamples = 563\nvalue = [184.256, 464.727]"] ;
9 -> 17 ;
18 [label="shipment <= 0.043\ngini = 0.385\nsamples = 557\nvalue = [162.831, 461.897]"] ;
17 -> 18 ;
19 [label="gini = 0.377\nsamples = 552\nvalue = [154.261, 458.5]"] ;
18 -> 19 ;
20 [label="gini = 0.407\nsamples = 5\nvalue = [8.57, 3.396]"] ;
18 -> 20 ;
21 [label="better <= 0.057\ngini = 0.206\nsamples = 6\nvalue = [21.425, 2.83]"] ;
17 -> 21 ;
22 [label="gini = 0.095\nsamples = 5\nvalue = [21.425, 1.132]"] ;
21 -> 22 ;
23 [label="gini = 0.0\nsamples = 1\nvalue = [0.0, 1.698]"] ;
21 -> 23 ;
24 [label="dip <= 0.204\ngini = 0.349\nsamples = 195\nvalue = [398.506, 116.04]"] ;
8 -> 24 ;
25 [label="caus <= 0.097\ngini = 0.345\nsamples = 191\nvalue = [398.506, 113.21]"] ;
24 -> 25 ;
26 [label="crust <= 0.055\ngini = 0.341\nsamples = 189\nvalue = [398.506, 110.946]"] ;
25 -> 26 ;
27 [label="gini = 0.337\nsamples = 187\nvalue = [398.506, 108.682]"] ;
26 -> 27 ;
28 [label="gini = 0.0\nsamples = 2\nvalue = [0.0, 2.264]"] ;
26 -> 28 ;
29 [label="gini = 0.0\nsamples = 2\nvalue = [0.0, 2.264]"] ;
25 -> 29 ;
30 [label="gini = -0.0\nsamples = 4\nvalue = [0.0, 2.83]"] ;
24 -> 30 ;
31 [label="healthi <= 0.062\ngini = 0.46\nsamples = 1164\nvalue = [544.197, 970.776]"] ;
7 -> 31 ;
32 [label="direct <= 0.143\ngini = 0.468\nsamples = 1100\nvalue = [544.197, 914.737]"] ;
31 -> 32 ;
33 [label="star <= 0.119\ngini = 0.464\nsamples = 1088\nvalue = [522.772, 907.378]"] ;
32 -> 33 ;
34 [label="proven <= 0.239\ngini = 0.46\nsamples = 1075\nvalue = [501.347, 900.019]"] ;
33 -> 34 ;
35 [label="gini = 0.457\nsamples = 1074\nvalue = [492.777, 900.019]"] ;
34 -> 35 ;
36 [label="gini = 0.0\nsamples = 1\nvalue = [8.57, 0.0]"] ;
34 -> 36 ;
37 [label="high <= 0.062\ngini = 0.381\nsamples = 13\nvalue = [21.425, 7.359]"] ;
33 -> 37 ;
38 [label="gini = 0.349\nsamples = 11\nvalue = [21.425, 6.227]"] ;
37 -> 38 ;
39 [label="gini = 0.0\nsamples = 2\nvalue = [0.0, 1.132]"] ;
37 -> 39 ;
40 [label="water <= 0.103\ngini = 0.381\nsamples = 12\nvalue = [21.425, 7.359]"] ;
32 -> 40 ;
41 [label="let <= 0.086\ngini = 0.366\nsamples = 11\nvalue = [21.425, 6.793]"] ;
40 -> 41 ;
42 [label="gini = 0.349\nsamples = 10\nvalue = [21.425, 6.227]"] ;
41 -> 42 ;
43 [label="gini = 0.0\nsamples = 1\nvalue = [0.0, 0.566]"] ;
41 -> 43 ;
44 [label="gini = 0.0\nsamples = 1\nvalue = [0.0, 0.566]"] ;
40 -> 44 ;
45 [label="gini = -0.0\nsamples = 64\nvalue = [0.0, 56.039]"] ;
31 -> 45 ;
46 [label="front <= 0.118\ngini = 0.466\nsamples = 335\nvalue = [162.831, 276.798]"] ;
6 -> 46 ;
47 [label="love <= 0.013\ngini = 0.458\nsamples = 332\nvalue = [149.976, 273.402]"] ;
46 -> 47 ;
48 [label="alway <= 0.023\ngini = 0.498\nsamples = 162\nvalue = [145.69, 128.493]"] ;
47 -> 48 ;
49 [label="give <= 0.136\ngini = 0.496\nsamples = 152\nvalue = [145.69, 120.569]"] ;
48 -> 49 ;
50 [label="holiday <= 0.079\ngini = 0.492\nsamples = 144\nvalue = [145.69, 112.644]"] ;
49 -> 50 ;
51 [label="gini = 0.498\nsamples = 142\nvalue = [128.55, 112.644]"] ;
50 -> 51 ;
52 [label="gini = 0.0\nsamples = 2\nvalue = [17.14, 0.0]"] ;
50 -> 52 ;
53 [label="gini = 0.0\nsamples = 8\nvalue = [0.0, 7.925]"] ;
49 -> 53 ;
54 [label="gini = -0.0\nsamples = 10\nvalue = [0.0, 7.925]"] ;
48 -> 54 ;
55 [label="product <= 0.11\ngini = 0.056\nsamples = 170\nvalue = [4.285, 144.909]"] ;
47 -> 55 ;
56 [label="gini = 0.0\nsamples = 164\nvalue = [0.0, 141.512]"] ;
55 -> 56 ;
57 [label="petpromis <= 0.166\ngini = 0.493\nsamples = 6\nvalue = [4.285, 3.396]"] ;
55 -> 57 ;
58 [label="everi <= 0.065\ngini = 0.452\nsamples = 5\nvalue = [4.285, 2.264]"] ;
57 -> 58 ;
59 [label="gini = 0.407\nsamples = 4\nvalue = [4.285, 1.698]"] ;
58 -> 59 ;
60 [label="gini = 0.0\nsamples = 1\nvalue = [0.0, 0.566]"] ;
58 -> 60 ;
61 [label="gini = 0.0\nsamples = 1\nvalue = [0.0, 1.132]"] ;
57 -> 61 ;
62 [label="dog <= 0.092\ngini = 0.331\nsamples = 3\nvalue = [12.855, 3.396]"] ;
46 -> 62 ;
63 [label="gini = 0.0\nsamples = 2\nvalue = [0.0, 3.396]"] ;
62 -> 63 ;
64 [label="gini = 0.0\nsamples = 1\nvalue = [12.855, 0.0]"] ;
62 -> 64 ;
65 [label="morn <= 0.028\ngini = 0.369\nsamples = 716\nvalue = [1431.195, 463.029]"] ;
5 -> 65 ;
66 [label="local <= 0.122\ngini = 0.364\nsamples = 700\nvalue = [1431.195, 449.444]"] ;
65 -> 66 ;
67 [label="drop <= 0.039\ngini = 0.358\nsamples = 684\nvalue = [1431.195, 436.425]"] ;
66 -> 67 ;
68 [label="find <= 0.138\ngini = 0.354\nsamples = 675\nvalue = [1431.195, 426.236]"] ;
67 -> 68 ;
69 [label="dip <= 0.035\ngini = 0.342\nsamples = 651\nvalue = [1431.195, 400.763]"] ;
68 -> 69 ;
70 [label="desert <= 0.139\ngini = 0.339\nsamples = 646\nvalue = [1431.195, 395.103]"] ;
69 -> 70 ;
71 [label="gini = 0.338\nsamples = 644\nvalue = [1431.195, 392.273]"] ;
70 -> 71 ;
72 [label="gini = -0.0\nsamples = 2\nvalue = [0.0, 2.83]"] ;
70 -> 72 ;
73 [label="gini = 0.0\nsamples = 5\nvalue = [0.0, 5.66]"] ;
69 -> 73 ;
74 [label="gini = -0.0\nsamples = 24\nvalue = [0.0, 25.472]"] ;
68 -> 74 ;
75 [label="gini = -0.0\nsamples = 9\nvalue = [0.0, 10.189]"] ;
67 -> 75 ;
76 [label="gini = -0.0\nsamples = 16\nvalue = [0.0, 13.019]"] ;
66 -> 76 ;
77 [label="gini = -0.0\nsamples = 16\nvalue = [0.0, 13.585]"] ;
65 -> 77 ;
78 [label="staff <= 0.068\ngini = 0.328\nsamples = 1844\nvalue = [424.216, 1628.526]"] ;
4 -> 78 ;
79 [label="arabica <= 0.059\ngini = 0.322\nsamples = 1842\nvalue = [411.361, 1627.394]"] ;
78 -> 79 ;
80 [label="consider <= 0.2\ngini = 0.316\nsamples = 1838\nvalue = [398.506, 1623.431]"] ;
79 -> 80 ;
81 [label="first <= 0.112\ngini = 0.308\nsamples = 1837\nvalue = [381.366, 1623.431]"] ;
80 -> 81 ;
82 [label="sorri <= 0.063\ngini = 0.292\nsamples = 1792\nvalue = [342.801, 1587.77]"] ;
81 -> 82 ;
83 [label="seem <= 0.074\ngini = 0.285\nsamples = 1786\nvalue = [329.946, 1586.072]"] ;
82 -> 83 ;
84 [label="fork <= 0.065\ngini = 0.274\nsamples = 1746\nvalue = [304.236, 1550.977]"] ;
83 -> 84 ;
85 [label="gini = 0.264\nsamples = 1745\nvalue = [287.096, 1550.977]"] ;
84 -> 85 ;
86 [label="gini = -0.0\nsamples = 1\nvalue = [17.14, 0.0]"] ;
84 -> 86 ;
87 [label="especi <= 0.057\ngini = 0.488\nsamples = 40\nvalue = [25.71, 35.095]"] ;
83 -> 87 ;
88 [label="gini = 0.492\nsamples = 39\nvalue = [25.71, 33.397]"] ;
87 -> 88 ;
89 [label="gini = 0.0\nsamples = 1\nvalue = [0.0, 1.698]"] ;
87 -> 89 ;
90 [label="brand <= 0.021\ngini = 0.206\nsamples = 6\nvalue = [12.855, 1.698]"] ;
82 -> 90 ;
91 [label="comer <= 0.089\ngini = 0.276\nsamples = 5\nvalue = [8.57, 1.698]"] ;
90 -> 91 ;
92 [label="gini = 0.407\nsamples = 4\nvalue = [4.285, 1.698]"] ;
91 -> 92 ;
93 [label="gini = 0.0\nsamples = 1\nvalue = [4.285, 0.0]"] ;
91 -> 93 ;
94 [label="gini = 0.0\nsamples = 1\nvalue = [4.285, 0.0]"] ;
90 -> 94 ;
95 [label="yum <= 0.094\ngini = 0.499\nsamples = 45\nvalue = [38.565, 35.661]"] ;
81 -> 95 ;
96 [label="upon <= 0.101\ngini = 0.498\nsamples = 44\nvalue = [38.565, 33.963]"] ;
95 -> 96 ;
97 [label="previous <= 0.184\ngini = 0.495\nsamples = 43\nvalue = [38.565, 31.699]"] ;
96 -> 97 ;
98 [label="gini = 0.411\nsamples = 42\nvalue = [12.855, 31.699]"] ;
97 -> 98 ;
99 [label="gini = 0.0\nsamples = 1\nvalue = [25.71, 0.0]"] ;
97 -> 99 ;
100 [label="gini = 0.0\nsamples = 1\nvalue = [0.0, 2.264]"] ;
96 -> 100 ;
101 [label="gini = 0.0\nsamples = 1\nvalue = [0.0, 1.698]"] ;
95 -> 101 ;
102 [label="gini = -0.0\nsamples = 1\nvalue = [17.14, 0.0]"] ;
80 -> 102 ;
103 [label="extract <= 0.031\ngini = 0.36\nsamples = 4\nvalue = [12.855, 3.962]"] ;
79 -> 103 ;
104 [label="doubt <= 0.089\ngini = 0.255\nsamples = 3\nvalue = [12.855, 2.264]"] ;
103 -> 104 ;
105 [label="bean <= 0.162\ngini = 0.149\nsamples = 2\nvalue = [12.855, 1.132]"] ;
104 -> 105 ;
106 [label="gini = 0.0\nsamples = 1\nvalue = [12.855, 0.0]"] ;
105 -> 106 ;
107 [label="gini = 0.0\nsamples = 1\nvalue = [0.0, 1.132]"] ;
105 -> 107 ;
108 [label="gini = 0.0\nsamples = 1\nvalue = [0.0, 1.132]"] ;
104 -> 108 ;
109 [label="gini = 0.0\nsamples = 1\nvalue = [0.0, 1.698]"] ;
103 -> 109 ;
110 [label="trepid <= 0.097\ngini = 0.149\nsamples = 2\nvalue = [12.855, 1.132]"] ;
78 -> 110 ;
111 [label="gini = 0.0\nsamples = 1\nvalue = [12.855, 0.0]"] ;
110 -> 111 ;
112 [label="gini = 0.0\nsamples = 1\nvalue = [0.0, 1.132]"] ;
110 -> 112 ;
113 [label="great <= 0.081\ngini = 0.403\nsamples = 1582\nvalue = [2725.269, 1057.381]"] ;
3 -> 113 ;
114 [label="run <= 0.084\ngini = 0.388\nsamples = 1456\nvalue = [2673.849, 956.058]"] ;
113 -> 114 ;
115 [label="kashi <= 0.135\ngini = 0.383\nsamples = 1429\nvalue = [2673.849, 932.85]"] ;
114 -> 115 ;
116 [label="threw <= 0.058\ngini = 0.382\nsamples = 1422\nvalue = [2673.849, 926.058]"] ;
115 -> 116 ;
117 [label="gone <= 0.144\ngini = 0.387\nsamples = 1411\nvalue = [2601.004, 924.926]"] ;
116 -> 117 ;
118 [label="right <= 0.126\ngini = 0.386\nsamples = 1404\nvalue = [2601.004, 918.133]"] ;
117 -> 118 ;
119 [label="fantast <= 0.026\ngini = 0.38\nsamples = 1379\nvalue = [2601.004, 891.529]"] ;
118 -> 119 ;
120 [label="pleas <= 0.083\ngini = 0.377\nsamples = 1359\nvalue = [2601.004, 877.943]"] ;
119 -> 120 ;
121 [label="gini = 0.372\nsamples = 1308\nvalue = [2566.724, 840.018]"] ;
120 -> 121 ;
122 [label="gini = 0.499\nsamples = 51\nvalue = [34.28, 37.925]"] ;
120 -> 122 ;
123 [label="gini = 0.0\nsamples = 20\nvalue = [0.0, 13.585]"] ;
119 -> 123 ;
124 [label="gini = -0.0\nsamples = 25\nvalue = [0.0, 26.604]"] ;
118 -> 124 ;
125 [label="gini = -0.0\nsamples = 7\nvalue = [0.0, 6.793]"] ;
117 -> 125 ;
126 [label="ingredi <= 0.054\ngini = 0.03\nsamples = 11\nvalue = [72.845, 1.132]"] ;
116 -> 126 ;
127 [label="brand <= 0.058\ngini = 0.039\nsamples = 9\nvalue = [55.705, 1.132]"] ;
126 -> 127 ;
128 [label="that <= 0.051\ngini = 0.062\nsamples = 7\nvalue = [34.28, 1.132]"] ;
127 -> 128 ;
129 [label="unopen <= 0.11\ngini = 0.07\nsamples = 6\nvalue = [29.995, 1.132]"] ;
128 -> 129 ;
130 [label="gini = 0.095\nsamples = 5\nvalue = [21.425, 1.132]"] ;
129 -> 130 ;
131 [label="gini = 0.0\nsamples = 1\nvalue = [8.57, 0.0]"] ;
129 -> 131 ;
132 [label="gini = 0.0\nsamples = 1\nvalue = [4.285, 0.0]"] ;
128 -> 132 ;
133 [label="gini = 0.0\nsamples = 2\nvalue = [21.425, 0.0]"] ;
127 -> 133 ;
134 [label="gini = 0.0\nsamples = 2\nvalue = [17.14, 0.0]"] ;
126 -> 134 ;
135 [label="gini = -0.0\nsamples = 7\nvalue = [0.0, 6.793]"] ;
115 -> 135 ;
136 [label="gini = -0.0\nsamples = 27\nvalue = [0.0, 23.208]"] ;
114 -> 136 ;
137 [label="fact <= 0.097\ngini = 0.447\nsamples = 126\nvalue = [51.42, 101.323]"] ;
113 -> 137 ;
138 [label="thing <= 0.07\ngini = 0.418\nsamples = 125\nvalue = [42.85, 101.323]"] ;
137 -> 138 ;
139 [label="add <= 0.032\ngini = 0.355\nsamples = 120\nvalue = [29.995, 100.191]"] ;
138 -> 139 ;
140 [label="two <= 0.229\ngini = 0.362\nsamples = 114\nvalue = [29.995, 96.228]"] ;
139 -> 140 ;
141 [label="get <= 0.025\ngini = 0.333\nsamples = 113\nvalue = [25.71, 96.228]"] ;
140 -> 141 ;
142 [label="time <= 0.029\ngini = 0.361\nsamples = 96\nvalue = [25.71, 83.209]"] ;
141 -> 142 ;
143 [label="realli <= 0.021\ngini = 0.388\nsamples = 82\nvalue = [25.71, 71.888]"] ;
142 -> 143 ;
144 [label="gini = 0.411\nsamples = 72\nvalue = [25.71, 63.398]"] ;
143 -> 144 ;
145 [label="gini = 0.0\nsamples = 10\nvalue = [0.0, 8.491]"] ;
143 -> 145 ;
146 [label="gini = 0.0\nsamples = 14\nvalue = [0.0, 11.321]"] ;
142 -> 146 ;
147 [label="gini = 0.0\nsamples = 17\nvalue = [0.0, 13.019]"] ;
141 -> 147 ;
148 [label="gini = 0.0\nsamples = 1\nvalue = [4.285, 0.0]"] ;
140 -> 148 ;
149 [label="gini = 0.0\nsamples = 6\nvalue = [0.0, 3.962]"] ;
139 -> 149 ;
150 [label="differ <= 0.087\ngini = 0.149\nsamples = 5\nvalue = [12.855, 1.132]"] ;
138 -> 150 ;
151 [label="impress <= 0.083\ngini = 0.081\nsamples = 4\nvalue = [12.855, 0.566]"] ;
150 -> 151 ;
152 [label="though <= 0.09\ngini = 0.116\nsamples = 3\nvalue = [8.57, 0.566]"] ;
151 -> 152 ;
153 [label="gini = 0.0\nsamples = 2\nvalue = [8.57, 0.0]"] ;
152 -> 153 ;
154 [label="gini = 0.0\nsamples = 1\nvalue = [0.0, 0.566]"] ;
152 -> 154 ;
155 [label="gini = 0.0\nsamples = 1\nvalue = [4.285, 0.0]"] ;
151 -> 155 ;
156 [label="gini = 0.0\nsamples = 1\nvalue = [0.0, 0.566]"] ;
150 -> 156 ;
157 [label="gini = -0.0\nsamples = 1\nvalue = [8.57, 0.0]"] ;
137 -> 157 ;
158 [label="also <= 0.093\ngini = 0.347\nsamples = 3112\nvalue = [771.303, 2686.473]"] ;
2 -> 158 ;
159 [label="favorit <= 0.116\ngini = 0.357\nsamples = 2951\nvalue = [771.303, 2543.262]"] ;
158 -> 159 ;
160 [label="volunt <= 0.04\ngini = 0.422\nsamples = 1552\nvalue = [574.192, 1324.557]"] ;
159 -> 160 ;
161 [label="think <= 0.119\ngini = 0.418\nsamples = 1551\nvalue = [561.337, 1324.557]"] ;
160 -> 161 ;
162 [label="seem <= 0.206\ngini = 0.409\nsamples = 1540\nvalue = [531.342, 1318.33]"] ;
161 -> 162 ;
163 [label="truth <= 0.211\ngini = 0.401\nsamples = 1539\nvalue = [505.632, 1318.33]"] ;
162 -> 163 ;
164 [label="garbag <= 0.075\ngini = 0.395\nsamples = 1537\nvalue = [488.492, 1318.33]"] ;
163 -> 164 ;
165 [label="part <= 0.012\ngini = 0.39\nsamples = 1534\nvalue = [475.637, 1317.198]"] ;
164 -> 165 ;
166 [label="still <= 0.087\ngini = 0.399\nsamples = 1453\nvalue = [475.637, 1250.97]"] ;
165 -> 166 ;
167 [label="gini = 0.408\nsamples = 1399\nvalue = [475.637, 1191.535]"] ;
166 -> 167 ;
168 [label="gini = 0.0\nsamples = 54\nvalue = [0.0, 59.435]"] ;
166 -> 168 ;
169 [label="gini = 0.0\nsamples = 81\nvalue = [0.0, 66.228]"] ;
165 -> 169 ;
170 [label="sip <= 0.064\ngini = 0.149\nsamples = 3\nvalue = [12.855, 1.132]"] ;
164 -> 170 ;
171 [label="favorit <= 0.087\ngini = 0.331\nsamples = 2\nvalue = [4.285, 1.132]"] ;
170 -> 171 ;
172 [label="gini = 0.0\nsamples = 1\nvalue = [0.0, 1.132]"] ;
171 -> 172 ;
173 [label="gini = 0.0\nsamples = 1\nvalue = [4.285, 0.0]"] ;
171 -> 173 ;
174 [label="gini = 0.0\nsamples = 1\nvalue = [8.57, 0.0]"] ;
170 -> 174 ;
175 [label="gini = 0.0\nsamples = 2\nvalue = [17.14, 0.0]"] ;
163 -> 175 ;
176 [label="gini = 0.0\nsamples = 1\nvalue = [25.71, 0.0]"] ;
162 -> 176 ;
177 [label="half <= 0.044\ngini = 0.285\nsamples = 11\nvalue = [29.995, 6.227]"] ;
161 -> 177 ;
178 [label="togeth <= 0.035\ngini = 0.425\nsamples = 9\nvalue = [12.855, 5.66]"] ;
177 -> 178 ;
179 [label="hurt <= 0.061\ngini = 0.479\nsamples = 8\nvalue = [8.57, 5.66]"] ;
178 -> 179 ;
180 [label="ive <= 0.029\ngini = 0.49\nsamples = 7\nvalue = [4.285, 5.66]"] ;
179 -> 180 ;
181 [label="want <= 0.074\ngini = 0.479\nsamples = 4\nvalue = [4.285, 2.83]"] ;
180 -> 181 ;
182 [label="gini = 0.452\nsamples = 3\nvalue = [4.285, 2.264]"] ;
181 -> 182 ;
183 [label="gini = 0.0\nsamples = 1\nvalue = [0.0, 0.566]"] ;
181 -> 183 ;
184 [label="gini = 0.0\nsamples = 3\nvalue = [0.0, 2.83]"] ;
180 -> 184 ;
185 [label="gini = 0.0\nsamples = 1\nvalue = [4.285, 0.0]"] ;
179 -> 185 ;
186 [label="gini = 0.0\nsamples = 1\nvalue = [4.285, 0.0]"] ;
178 -> 186 ;
187 [label="broken <= 0.055\ngini = 0.062\nsamples = 2\nvalue = [17.14, 0.566]"] ;
177 -> 187 ;
188 [label="gini = 0.0\nsamples = 1\nvalue = [0.0, 0.566]"] ;
187 -> 188 ;
189 [label="gini = 0.0\nsamples = 1\nvalue = [17.14, 0.0]"] ;
187 -> 189 ;
190 [label="gini = 0.0\nsamples = 1\nvalue = [12.855, 0.0]"] ;
160 -> 190 ;
191 [label="run <= 0.046\ngini = 0.24\nsamples = 1399\nvalue = [197.111, 1218.706]"] ;
159 -> 191 ;
192 [label="cant <= 0.128\ngini = 0.242\nsamples = 1382\nvalue = [197.111, 1203.422]"] ;
191 -> 192 ;
193 [label="manufactur <= 0.097\ngini = 0.249\nsamples = 1328\nvalue = [197.111, 1157.572]"] ;
192 -> 193 ;
194 [label="love <= 0.087\ngini = 0.241\nsamples = 1327\nvalue = [188.541, 1157.572]"] ;
193 -> 194 ;
195 [label="cashew <= 0.223\ngini = 0.272\nsamples = 1089\nvalue = [184.256, 949.832]"] ;
194 -> 195 ;
196 [label="hometown <= 0.127\ngini = 0.25\nsamples = 1086\nvalue = [162.831, 948.134]"] ;
195 -> 196 ;
197 [label="food <= 0.279\ngini = 0.231\nsamples = 1083\nvalue = [145.69, 948.134]"] ;
196 -> 197 ;
198 [label="gini = 0.216\nsamples = 1081\nvalue = [132.835, 947.568]"] ;
197 -> 198 ;
199 [label="gini = 0.081\nsamples = 2\nvalue = [12.855, 0.566]"] ;
197 -> 199 ;
200 [label="gini = -0.0\nsamples = 3\nvalue = [17.14, 0.0]"] ;
196 -> 200 ;
201 [label="extra <= 0.108\ngini = 0.136\nsamples = 3\nvalue = [21.425, 1.698]"] ;
195 -> 201 ;
202 [label="interest <= 0.102\ngini = 0.05\nsamples = 2\nvalue = [21.425, 0.566]"] ;
201 -> 202 ;
203 [label="gini = 0.0\nsamples = 1\nvalue = [0.0, 0.566]"] ;
202 -> 203 ;
204 [label="gini = 0.0\nsamples = 1\nvalue = [21.425, 0.0]"] ;
202 -> 204 ;
205 [label="gini = 0.0\nsamples = 1\nvalue = [0.0, 1.132]"] ;
201 -> 205 ;
206 [label="isnt <= 0.044\ngini = 0.04\nsamples = 238\nvalue = [4.285, 207.74]"] ;
194 -> 206 ;
207 [label="well <= 0.057\ngini = 0.04\nsamples = 235\nvalue = [4.285, 204.91]"] ;
206 -> 207 ;
208 [label="buy <= 0.029\ngini = 0.043\nsamples = 223\nvalue = [4.285, 192.457]"] ;
207 -> 208 ;
209 [label="gini = 0.046\nsamples = 204\nvalue = [4.285, 176.042]"] ;
208 -> 209 ;
210 [label="gini = 0.0\nsamples = 19\nvalue = [0.0, 16.415]"] ;
208 -> 210 ;
211 [label="gini = 0.0\nsamples = 12\nvalue = [0.0, 12.453]"] ;
207 -> 211 ;
212 [label="gini = 0.0\nsamples = 3\nvalue = [0.0, 2.83]"] ;
206 -> 212 ;
213 [label="gini = 0.0\nsamples = 1\nvalue = [8.57, 0.0]"] ;
193 -> 213 ;
214 [label="gini = 0.0\nsamples = 54\nvalue = [0.0, 45.85]"] ;
192 -> 214 ;
215 [label="gini = 0.0\nsamples = 17\nvalue = [0.0, 15.283]"] ;
191 -> 215 ;
216 [label="gini = 0.0\nsamples = 161\nvalue = [0.0, 143.211]"] ;
158 -> 216 ;
217 [label="edibl <= 0.122\ngini = 0.405\nsamples = 1662\nvalue = [552.767, 1410.596]"] ;
1 -> 217 ;
218 [label="odd <= 0.247\ngini = 0.4\nsamples = 1661\nvalue = [539.912, 1410.596]"] ;
217 -> 218 ;
219 [label="neighborhood <= 0.143\ngini = 0.395\nsamples = 1659\nvalue = [522.772, 1410.596]"] ;
218 -> 219 ;
220 [label="thought <= 0.15\ngini = 0.393\nsamples = 1657\nvalue = [518.487, 1410.03]"] ;
219 -> 220 ;
221 [label="couldnt <= 0.302\ngini = 0.388\nsamples = 1635\nvalue = [497.062, 1393.049]"] ;
220 -> 221 ;
222 [label="either <= 0.125\ngini = 0.384\nsamples = 1634\nvalue = [488.492, 1393.049]"] ;
221 -> 222 ;
223 [label="bitter <= 0.16\ngini = 0.374\nsamples = 1620\nvalue = [458.497, 1382.294]"] ;
222 -> 223 ;
224 [label="someth <= 0.115\ngini = 0.365\nsamples = 1597\nvalue = [432.786, 1366.445]"] ;
223 -> 224 ;
225 [label="goodi <= 0.299\ngini = 0.348\nsamples = 1551\nvalue = [385.651, 1331.916]"] ;
224 -> 225 ;
226 [label="spoon <= 0.138\ngini = 0.344\nsamples = 1550\nvalue = [377.081, 1331.916]"] ;
225 -> 226 ;
227 [label="gini = 0.338\nsamples = 1543\nvalue = [364.226, 1327.953]"] ;
226 -> 227 ;
228 [label="gini = 0.36\nsamples = 7\nvalue = [12.855, 3.962]"] ;
226 -> 228 ;
229 [label="gini = 0.0\nsamples = 1\nvalue = [8.57, 0.0]"] ;
225 -> 229 ;
230 [label="combin <= 0.088\ngini = 0.488\nsamples = 46\nvalue = [47.135, 34.529]"] ;
224 -> 230 ;
231 [label="spice <= 0.209\ngini = 0.482\nsamples = 42\nvalue = [47.135, 32.265]"] ;
230 -> 231 ;
232 [label="gini = 0.479\nsamples = 41\nvalue = [47.135, 31.133]"] ;
231 -> 232 ;
233 [label="gini = 0.0\nsamples = 1\nvalue = [0.0, 1.132]"] ;
231 -> 233 ;
234 [label="gini = 0.0\nsamples = 4\nvalue = [0.0, 2.264]"] ;
230 -> 234 ;
235 [label="san <= 0.087\ngini = 0.472\nsamples = 23\nvalue = [25.71, 15.849]"] ;
223 -> 235 ;
236 [label="except <= 0.096\ngini = 0.468\nsamples = 22\nvalue = [25.71, 15.283]"] ;
235 -> 236 ;
237 [label="snack <= 0.316\ngini = 0.498\nsamples = 21\nvalue = [17.14, 15.283]"] ;
236 -> 237 ;
238 [label="gini = 0.496\nsamples = 20\nvalue = [12.855, 15.283]"] ;
237 -> 238 ;
239 [label="gini = 0.0\nsamples = 1\nvalue = [4.285, 0.0]"] ;
237 -> 239 ;
240 [label="gini = 0.0\nsamples = 1\nvalue = [8.57, 0.0]"] ;
236 -> 240 ;
241 [label="gini = 0.0\nsamples = 1\nvalue = [0.0, 0.566]"] ;
235 -> 241 ;
242 [label="morn <= 0.085\ngini = 0.389\nsamples = 14\nvalue = [29.995, 10.755]"] ;
222 -> 242 ;
243 [label="howev <= 0.068\ngini = 0.368\nsamples = 13\nvalue = [29.995, 9.623]"] ;
242 -> 243 ;
244 [label="found <= 0.06\ngini = 0.461\nsamples = 12\nvalue = [17.14, 9.623]"] ;
243 -> 244 ;
245 [label="satisfi <= 0.081\ngini = 0.443\nsamples = 11\nvalue = [17.14, 8.491]"] ;
244 -> 245 ;
246 [label="gini = 0.42\nsamples = 10\nvalue = [17.14, 7.359]"] ;
245 -> 246 ;
247 [label="gini = 0.0\nsamples = 1\nvalue = [0.0, 1.132]"] ;
245 -> 247 ;
248 [label="gini = 0.0\nsamples = 1\nvalue = [0.0, 1.132]"] ;
244 -> 248 ;
249 [label="gini = 0.0\nsamples = 1\nvalue = [12.855, 0.0]"] ;
243 -> 249 ;
250 [label="gini = 0.0\nsamples = 1\nvalue = [0.0, 1.132]"] ;
242 -> 250 ;
251 [label="gini = 0.0\nsamples = 1\nvalue = [8.57, 0.0]"] ;
221 -> 251 ;
252 [label="even <= 0.057\ngini = 0.493\nsamples = 22\nvalue = [21.425, 16.981]"] ;
220 -> 252 ;
253 [label="make <= 0.058\ngini = 0.491\nsamples = 21\nvalue = [21.425, 16.415]"] ;
252 -> 253 ;
254 [label="accomplish <= 0.068\ngini = 0.486\nsamples = 20\nvalue = [21.425, 15.283]"] ;
253 -> 254 ;
255 [label="thank <= 0.073\ngini = 0.479\nsamples = 19\nvalue = [21.425, 14.151]"] ;
254 -> 255 ;
256 [label="way <= 0.063\ngini = 0.475\nsamples = 18\nvalue = [21.425, 13.585]"] ;
255 -> 256 ;
257 [label="live <= 0.104\ngini = 0.47\nsamples = 17\nvalue = [21.425, 13.019]"] ;
256 -> 257 ;
258 [label="gini = 0.452\nsamples = 16\nvalue = [21.425, 11.321]"] ;
257 -> 258 ;
259 [label="gini = 0.0\nsamples = 1\nvalue = [0.0, 1.698]"] ;
257 -> 259 ;
260 [label="gini = 0.0\nsamples = 1\nvalue = [0.0, 0.566]"] ;
256 -> 260 ;
261 [label="gini = 0.0\nsamples = 1\nvalue = [0.0, 0.566]"] ;
255 -> 261 ;
262 [label="gini = 0.0\nsamples = 1\nvalue = [0.0, 1.132]"] ;
254 -> 262 ;
263 [label="gini = 0.0\nsamples = 1\nvalue = [0.0, 1.132]"] ;
253 -> 263 ;
264 [label="gini = 0.0\nsamples = 1\nvalue = [0.0, 0.566]"] ;
252 -> 264 ;
265 [label="alway <= 0.117\ngini = 0.206\nsamples = 2\nvalue = [4.285, 0.566]"] ;
219 -> 265 ;
266 [label="gini = 0.0\nsamples = 1\nvalue = [4.285, 0.0]"] ;
265 -> 266 ;
267 [label="gini = 0.0\nsamples = 1\nvalue = [0.0, 0.566]"] ;
265 -> 267 ;
268 [label="gini = 0.0\nsamples = 2\nvalue = [17.14, 0.0]"] ;
218 -> 268 ;
269 [label="gini = 0.0\nsamples = 1\nvalue = [12.855, 0.0]"] ;
217 -> 269 ;
270 [label="brand <= 0.19\ngini = 0.333\nsamples = 687\nvalue = [158.546, 593.786]"] ;
0 -> 270 [labeldistance=2.5, labelangle=-45, headlabel="False"] ;
271 [label="valu <= 0.06\ngini = 0.308\nsamples = 675\nvalue = [137.12, 583.597]"] ;
270 -> 271 ;
272 [label="podhead <= 0.113\ngini = 0.292\nsamples = 667\nvalue = [124.265, 576.805]"] ;
271 -> 272 ;
273 [label="profil <= 0.074\ngini = 0.285\nsamples = 666\nvalue = [119.98, 576.805]"] ;
272 -> 273 ;
274 [label="benefit <= 0.119\ngini = 0.278\nsamples = 665\nvalue = [115.695, 576.805]"] ;
273 -> 274 ;
275 [label="not <= 0.106\ngini = 0.272\nsamples = 661\nvalue = [111.41, 574.541]"] ;
274 -> 275 ;
276 [label="thought <= 0.096\ngini = 0.242\nsamples = 629\nvalue = [89.985, 547.936]"] ;
275 -> 276 ;
277 [label="clifton <= 0.083\ngini = 0.201\nsamples = 613\nvalue = [68.56, 535.483]"] ;
276 -> 277 ;
278 [label="water <= 0.009\ngini = 0.191\nsamples = 612\nvalue = [64.275, 535.483]"] ;
277 -> 278 ;
279 [label="wonder <= 0.018\ngini = 0.202\nsamples = 571\nvalue = [64.275, 500.388]"] ;
278 -> 279 ;
280 [label="tea <= 0.042\ngini = 0.21\nsamples = 541\nvalue = [64.275, 474.916]"] ;
279 -> 280 ;
281 [label="gini = 0.224\nsamples = 494\nvalue = [64.275, 435.292]"] ;
280 -> 281 ;
282 [label="gini = -0.0\nsamples = 47\nvalue = [0.0, 39.623]"] ;
280 -> 282 ;
283 [label="gini = -0.0\nsamples = 30\nvalue = [0.0, 25.472]"] ;
279 -> 283 ;
284 [label="gini = -0.0\nsamples = 41\nvalue = [0.0, 35.095]"] ;
278 -> 284 ;
285 [label="gini = 0.0\nsamples = 1\nvalue = [4.285, 0.0]"] ;
277 -> 285 ;
286 [label="carolina <= 0.053\ngini = 0.465\nsamples = 16\nvalue = [21.425, 12.453]"] ;
276 -> 286 ;
287 [label="idea <= 0.062\ngini = 0.452\nsamples = 15\nvalue = [21.425, 11.321]"] ;
286 -> 287 ;
288 [label="nope <= 0.178\ngini = 0.494\nsamples = 13\nvalue = [8.57, 10.755]"] ;
287 -> 288 ;
289 [label="gini = 0.0\nsamples = 12\nvalue = [0.0, 10.755]"] ;
288 -> 289 ;
290 [label="gini = 0.0\nsamples = 1\nvalue = [8.57, 0.0]"] ;
288 -> 290 ;
291 [label="read <= 0.055\ngini = 0.081\nsamples = 2\nvalue = [12.855, 0.566]"] ;
287 -> 291 ;
292 [label="gini = 0.0\nsamples = 1\nvalue = [0.0, 0.566]"] ;
291 -> 292 ;
293 [label="gini = 0.0\nsamples = 1\nvalue = [12.855, 0.0]"] ;
291 -> 293 ;
294 [label="gini = 0.0\nsamples = 1\nvalue = [0.0, 1.132]"] ;
286 -> 294 ;
295 [label="contain <= 0.056\ngini = 0.494\nsamples = 32\nvalue = [21.425, 26.604]"] ;
275 -> 295 ;
296 [label="chip <= 0.173\ngini = 0.377\nsamples = 30\nvalue = [8.57, 25.472]"] ;
295 -> 296 ;
297 [label="gini = 0.0\nsamples = 29\nvalue = [0.0, 25.472]"] ;
296 -> 297 ;
298 [label="gini = 0.0\nsamples = 1\nvalue = [8.57, 0.0]"] ;
296 -> 298 ;
299 [label="could <= 0.055\ngini = 0.149\nsamples = 2\nvalue = [12.855, 1.132]"] ;
295 -> 299 ;
300 [label="gini = 0.0\nsamples = 1\nvalue = [12.855, 0.0]"] ;
299 -> 300 ;
301 [label="gini = 0.0\nsamples = 1\nvalue = [0.0, 1.132]"] ;
299 -> 301 ;
302 [label="dri <= 0.027\ngini = 0.452\nsamples = 4\nvalue = [4.285, 2.264]"] ;
274 -> 302 ;
303 [label="gini = 0.0\nsamples = 3\nvalue = [0.0, 2.264]"] ;
302 -> 303 ;
304 [label="gini = 0.0\nsamples = 1\nvalue = [4.285, 0.0]"] ;
302 -> 304 ;
305 [label="gini = 0.0\nsamples = 1\nvalue = [4.285, 0.0]"] ;
273 -> 305 ;
306 [label="gini = 0.0\nsamples = 1\nvalue = [4.285, 0.0]"] ;
272 -> 306 ;
307 [label="soup <= 0.108\ngini = 0.452\nsamples = 8\nvalue = [12.855, 6.793]"] ;
271 -> 307 ;
308 [label="love <= 0.048\ngini = 0.44\nsamples = 7\nvalue = [12.855, 6.227]"] ;
307 -> 308 ;
309 [label="dunno <= 0.161\ngini = 0.385\nsamples = 5\nvalue = [12.855, 4.528]"] ;
308 -> 309 ;
310 [label="watermellon <= 0.171\ngini = 0.331\nsamples = 4\nvalue = [12.855, 3.396]"] ;
309 -> 310 ;
311 [label="use <= 0.062\ngini = 0.206\nsamples = 3\nvalue = [12.855, 1.698]"] ;
310 -> 311 ;
312 [label="good <= 0.03\ngini = 0.149\nsamples = 2\nvalue = [12.855, 1.132]"] ;
311 -> 312 ;
313 [label="gini = 0.0\nsamples = 1\nvalue = [12.855, 0.0]"] ;
312 -> 313 ;
314 [label="gini = 0.0\nsamples = 1\nvalue = [0.0, 1.132]"] ;
312 -> 314 ;
315 [label="gini = 0.0\nsamples = 1\nvalue = [0.0, 0.566]"] ;
311 -> 315 ;
316 [label="gini = 0.0\nsamples = 1\nvalue = [0.0, 1.698]"] ;
310 -> 316 ;
317 [label="gini = 0.0\nsamples = 1\nvalue = [0.0, 1.132]"] ;
309 -> 317 ;
318 [label="gini = 0.0\nsamples = 2\nvalue = [0.0, 1.698]"] ;
308 -> 318 ;
319 [label="gini = 0.0\nsamples = 1\nvalue = [0.0, 0.566]"] ;
307 -> 319 ;
320 [label="fact <= 0.045\ngini = 0.437\nsamples = 12\nvalue = [21.425, 10.189]"] ;
270 -> 320 ;
321 [label="hype <= 0.064\ngini = 0.407\nsamples = 11\nvalue = [21.425, 8.491]"] ;
320 -> 321 ;
322 [label="one <= 0.074\ngini = 0.381\nsamples = 10\nvalue = [21.425, 7.359]"] ;
321 -> 322 ;
323 [label="diet <= 0.045\ngini = 0.288\nsamples = 8\nvalue = [21.425, 4.528]"] ;
322 -> 323 ;
324 [label="size <= 0.052\ngini = 0.331\nsamples = 7\nvalue = [17.14, 4.528]"] ;
323 -> 324 ;
325 [label="sucralos <= 0.07\ngini = 0.243\nsamples = 6\nvalue = [17.14, 2.83]"] ;
324 -> 325 ;
326 [label="stop <= 0.078\ngini = 0.479\nsamples = 5\nvalue = [4.285, 2.83]"] ;
325 -> 326 ;
327 [label="particular <= 0.218\ngini = 0.452\nsamples = 4\nvalue = [4.285, 2.264]"] ;
326 -> 327 ;
328 [label="smell <= 0.066\ngini = 0.407\nsamples = 3\nvalue = [4.285, 1.698]"] ;
327 -> 328 ;
329 [label="gini = 0.0\nsamples = 2\nvalue = [0.0, 1.698]"] ;
328 -> 329 ;
330 [label="gini = 0.0\nsamples = 1\nvalue = [4.285, 0.0]"] ;
328 -> 330 ;
331 [label="gini = 0.0\nsamples = 1\nvalue = [0.0, 0.566]"] ;
327 -> 331 ;
332 [label="gini = 0.0\nsamples = 1\nvalue = [0.0, 0.566]"] ;
326 -> 332 ;
333 [label="gini = 0.0\nsamples = 1\nvalue = [12.855, 0.0]"] ;
325 -> 333 ;
334 [label="gini = 0.0\nsamples = 1\nvalue = [0.0, 1.698]"] ;
324 -> 334 ;
335 [label="gini = 0.0\nsamples = 1\nvalue = [4.285, 0.0]"] ;
323 -> 335 ;
336 [label="gini = 0.0\nsamples = 2\nvalue = [0.0, 2.83]"] ;
322 -> 336 ;
337 [label="gini = 0.0\nsamples = 1\nvalue = [0.0, 1.132]"] ;
321 -> 337 ;
338 [label="gini = 0.0\nsamples = 1\nvalue = [0.0, 1.698]"] ;
320 -> 338 ;
}