digraph Tree {
node [shape=box] ;
0 [label="compani <= 0.052\ngini = 0.5\nsamples = 44423\nvalue = [35381.366, 34949.622]"] ;
1 [label="carri <= 0.096\ngini = 0.5\nsamples = 43173\nvalue = [33470.25, 34089.226]"] ;
0 -> 1 [labeldistance=2.5, labelangle=45, headlabel="True"] ;
2 [label="sometim <= 0.058\ngini = 0.5\nsamples = 42213\nvalue = [33204.579, 33273.548]"] ;
1 -> 2 ;
3 [label="tast <= 0.034\ngini = 0.5\nsamples = 41530\nvalue = [33016.038, 32696.177]"] ;
2 -> 3 ;
4 [label="use <= 0.085\ngini = 0.498\nsamples = 29437\nvalue = [21043.707, 23545.979]"] ;
3 -> 4 ;
5 [label="great <= 0.06\ngini = 0.5\nsamples = 26142\nvalue = [19522.527, 20768.372]"] ;
4 -> 5 ;
6 [label="later <= 0.105\ngini = 0.498\nsamples = 21421\nvalue = [18635.529, 16593.754]"] ;
5 -> 6 ;
7 [label="deceiv <= 0.062\ngini = 0.499\nsamples = 21256\nvalue = [18288.443, 16484.506]"] ;
6 -> 7 ;
8 [label="good <= 0.073\ngini = 0.499\nsamples = 21240\nvalue = [18211.312, 16479.412]"] ;
7 -> 8 ;
9 [label="homework <= 0.122\ngini = 0.496\nsamples = 18156\nvalue = [16702.987, 13893.696]"] ;
8 -> 9 ;
10 [label="felt <= 0.142\ngini = 0.496\nsamples = 18149\nvalue = [16660.137, 13892.564]"] ;
9 -> 10 ;
11 [label="refund <= 0.023\ngini = 0.496\nsamples = 18092\nvalue = [16454.456, 13863.129]"] ;
10 -> 11 ;
12 [label="gini = 0.497\nsamples = 18003\nvalue = [16043.095, 13846.714]"] ;
11 -> 12 ;
13 [label="gini = 0.074\nsamples = 89\nvalue = [411.361, 16.415]"] ;
11 -> 13 ;
14 [label="sweet <= 0.104\ngini = 0.219\nsamples = 57\nvalue = [205.681, 29.435]"] ;
10 -> 14 ;
15 [label="gini = 0.23\nsamples = 56\nvalue = [192.826, 29.435]"] ;
14 -> 15 ;
16 [label="gini = 0.0\nsamples = 1\nvalue = [12.855, 0.0]"] ;
14 -> 16 ;
17 [label="smarti <= 0.332\ngini = 0.05\nsamples = 7\nvalue = [42.85, 1.132]"] ;
9 -> 17 ;
18 [label="thing <= 0.029\ngini = 0.062\nsamples = 6\nvalue = [34.28, 1.132]"] ;
17 -> 18 ;
19 [label="gini = 0.07\nsamples = 5\nvalue = [29.995, 1.132]"] ;
18 -> 19 ;
20 [label="gini = 0.0\nsamples = 1\nvalue = [4.285, 0.0]"] ;
18 -> 20 ;
21 [label="gini = 0.0\nsamples = 1\nvalue = [8.57, 0.0]"] ;
17 -> 21 ;
22 [label="felt <= 0.218\ngini = 0.465\nsamples = 3084\nvalue = [1508.325, 2585.716]"] ;
8 -> 22 ;
23 [label="would <= 0.059\ngini = 0.463\nsamples = 3078\nvalue = [1482.615, 2583.452]"] ;
22 -> 23 ;
24 [label="nice <= 0.128\ngini = 0.451\nsamples = 2768\nvalue = [1225.514, 2337.22]"] ;
23 -> 24 ;
25 [label="gini = 0.457\nsamples = 2630\nvalue = [1212.659, 2210.991]"] ;
24 -> 25 ;
26 [label="gini = 0.168\nsamples = 138\nvalue = [12.855, 126.229]"] ;
24 -> 26 ;
27 [label="primari <= 0.075\ngini = 0.5\nsamples = 310\nvalue = [257.101, 246.232]"] ;
23 -> 27 ;
28 [label="gini = 0.5\nsamples = 309\nvalue = [239.961, 246.232]"] ;
27 -> 28 ;
29 [label="gini = -0.0\nsamples = 1\nvalue = [17.14, 0.0]"] ;
27 -> 29 ;
30 [label="ate <= 0.113\ngini = 0.149\nsamples = 6\nvalue = [25.71, 2.264]"] ;
22 -> 30 ;
31 [label="enough <= 0.149\ngini = 0.116\nsamples = 5\nvalue = [25.71, 1.698]"] ;
30 -> 31 ;
32 [label="gini = 0.081\nsamples = 4\nvalue = [25.71, 1.132]"] ;
31 -> 32 ;
33 [label="gini = 0.0\nsamples = 1\nvalue = [0.0, 0.566]"] ;
31 -> 33 ;
34 [label="gini = 0.0\nsamples = 1\nvalue = [0.0, 0.566]"] ;
30 -> 34 ;
35 [label="emerg <= 0.058\ngini = 0.116\nsamples = 16\nvalue = [77.13, 5.094]"] ;
7 -> 35 ;
36 [label="ask <= 0.038\ngini = 0.093\nsamples = 15\nvalue = [77.13, 3.962]"] ;
35 -> 36 ;
37 [label="deceit <= 0.191\ngini = 0.098\nsamples = 14\nvalue = [72.845, 3.962]"] ;
36 -> 37 ;
38 [label="bought <= 0.046\ngini = 0.103\nsamples = 13\nvalue = [68.56, 3.962]"] ;
37 -> 38 ;
39 [label="gini = 0.109\nsamples = 12\nvalue = [64.275, 3.962]"] ;
38 -> 39 ;
40 [label="gini = 0.0\nsamples = 1\nvalue = [4.285, 0.0]"] ;
38 -> 40 ;
41 [label="gini = 0.0\nsamples = 1\nvalue = [4.285, 0.0]"] ;
37 -> 41 ;
42 [label="gini = 0.0\nsamples = 1\nvalue = [4.285, 0.0]"] ;
36 -> 42 ;
43 [label="gini = 0.0\nsamples = 1\nvalue = [0.0, 1.132]"] ;
35 -> 43 ;
44 [label="drank <= 0.021\ngini = 0.364\nsamples = 165\nvalue = [347.086, 109.248]"] ;
6 -> 44 ;
45 [label="favorit <= 0.101\ngini = 0.352\nsamples = 160\nvalue = [347.086, 102.455]"] ;
44 -> 45 ;
46 [label="tell <= 0.053\ngini = 0.339\nsamples = 152\nvalue = [347.086, 95.662]"] ;
45 -> 46 ;
47 [label="dentur <= 0.101\ngini = 0.331\nsamples = 148\nvalue = [347.086, 91.7]"] ;
46 -> 47 ;
48 [label="christma <= 0.115\ngini = 0.328\nsamples = 147\nvalue = [347.086, 90.568]"] ;
47 -> 48 ;
49 [label="gini = 0.32\nsamples = 142\nvalue = [347.086, 86.606]"] ;
48 -> 49 ;
50 [label="gini = 0.0\nsamples = 5\nvalue = [0.0, 3.962]"] ;
48 -> 50 ;
51 [label="gini = 0.0\nsamples = 1\nvalue = [0.0, 1.132]"] ;
47 -> 51 ;
52 [label="gini = -0.0\nsamples = 4\nvalue = [0.0, 3.962]"] ;
46 -> 52 ;
53 [label="gini = -0.0\nsamples = 8\nvalue = [0.0, 6.793]"] ;
45 -> 53 ;
54 [label="gini = 0.0\nsamples = 5\nvalue = [0.0, 6.793]"] ;
44 -> 54 ;
55 [label="bokar <= 0.291\ngini = 0.289\nsamples = 4721\nvalue = [886.998, 4174.618]"] ;
5 -> 55 ;
56 [label="aftertast <= 0.252\ngini = 0.288\nsamples = 4720\nvalue = [882.713, 4174.618]"] ;
55 -> 56 ;
57 [label="threw <= 0.075\ngini = 0.28\nsamples = 4709\nvalue = [844.148, 4167.826]"] ;
56 -> 57 ;
58 [label="dormant <= 0.205\ngini = 0.275\nsamples = 4703\nvalue = [822.723, 4166.128]"] ;
57 -> 58 ;
59 [label="mani <= 0.343\ngini = 0.272\nsamples = 4702\nvalue = [805.583, 4166.128]"] ;
58 -> 59 ;
60 [label="harvest <= 0.154\ngini = 0.269\nsamples = 4701\nvalue = [792.728, 4166.128]"] ;
59 -> 60 ;
61 [label="gini = 0.267\nsamples = 4697\nvalue = [784.158, 4163.863]"] ;
60 -> 61 ;
62 [label="gini = 0.331\nsamples = 4\nvalue = [8.57, 2.264]"] ;
60 -> 62 ;
63 [label="gini = -0.0\nsamples = 1\nvalue = [12.855, 0.0]"] ;
59 -> 63 ;
64 [label="gini = -0.0\nsamples = 1\nvalue = [17.14, 0.0]"] ;
58 -> 64 ;
65 [label="hard <= 0.051\ngini = 0.136\nsamples = 6\nvalue = [21.425, 1.698]"] ;
57 -> 65 ;
66 [label="box <= 0.08\ngini = 0.095\nsamples = 5\nvalue = [21.425, 1.132]"] ;
65 -> 66 ;
67 [label="candi <= 0.064\ngini = 0.149\nsamples = 3\nvalue = [12.855, 1.132]"] ;
66 -> 67 ;
68 [label="gini = 0.0\nsamples = 2\nvalue = [12.855, 0.0]"] ;
67 -> 68 ;
69 [label="gini = 0.0\nsamples = 1\nvalue = [0.0, 1.132]"] ;
67 -> 69 ;
70 [label="gini = 0.0\nsamples = 2\nvalue = [8.57, 0.0]"] ;
66 -> 70 ;
71 [label="gini = 0.0\nsamples = 1\nvalue = [0.0, 0.566]"] ;
65 -> 71 ;
72 [label="els <= 0.114\ngini = 0.255\nsamples = 11\nvalue = [38.565, 6.793]"] ;
56 -> 72 ;
73 [label="packag <= 0.104\ngini = 0.223\nsamples = 10\nvalue = [38.565, 5.66]"] ;
72 -> 73 ;
74 [label="tea <= 0.182\ngini = 0.188\nsamples = 9\nvalue = [38.565, 4.528]"] ;
73 -> 74 ;
75 [label="dens <= 0.171\ngini = 0.149\nsamples = 7\nvalue = [38.565, 3.396]"] ;
74 -> 75 ;
76 [label="gini = 0.081\nsamples = 6\nvalue = [38.565, 1.698]"] ;
75 -> 76 ;
77 [label="gini = 0.0\nsamples = 1\nvalue = [0.0, 1.698]"] ;
75 -> 77 ;
78 [label="gini = 0.0\nsamples = 2\nvalue = [0.0, 1.132]"] ;
74 -> 78 ;
79 [label="gini = 0.0\nsamples = 1\nvalue = [0.0, 1.132]"] ;
73 -> 79 ;
80 [label="gini = 0.0\nsamples = 1\nvalue = [0.0, 1.132]"] ;
72 -> 80 ;
81 [label="gini = -0.0\nsamples = 1\nvalue = [4.285, 0.0]"] ;
55 -> 81 ;
82 [label="dish <= 0.1\ngini = 0.457\nsamples = 3295\nvalue = [1521.18, 2777.607]"] ;
4 -> 82 ;
83 [label="wow <= 0.355\ngini = 0.461\nsamples = 3186\nvalue = [1516.895, 2689.303]"] ;
82 -> 83 ;
84 [label="ingredi <= 0.055\ngini = 0.46\nsamples = 3185\nvalue = [1499.755, 2689.303]"] ;
83 -> 84 ;
85 [label="near <= 0.095\ngini = 0.451\nsamples = 3081\nvalue = [1371.205, 2620.245]"] ;
84 -> 85 ;
86 [label="nice <= 0.011\ngini = 0.446\nsamples = 3058\nvalue = [1315.5, 2605.528]"] ;
85 -> 86 ;
87 [label="gave <= 0.068\ngini = 0.453\nsamples = 2885\nvalue = [1298.359, 2447.034]"] ;
86 -> 87 ;
88 [label="syrup <= 0.095\ngini = 0.448\nsamples = 2842\nvalue = [1234.084, 2414.769]"] ;
87 -> 88 ;
89 [label="gini = 0.451\nsamples = 2776\nvalue = [1229.799, 2355.334]"] ;
88 -> 89 ;
90 [label="gini = 0.125\nsamples = 66\nvalue = [4.285, 59.435]"] ;
88 -> 90 ;
91 [label="made <= 0.098\ngini = 0.445\nsamples = 43\nvalue = [64.275, 32.265]"] ;
87 -> 91 ;
92 [label="gini = 0.434\nsamples = 41\nvalue = [64.275, 30.001]"] ;
91 -> 92 ;
93 [label="gini = 0.0\nsamples = 2\nvalue = [0.0, 2.264]"] ;
91 -> 93 ;
94 [label="hot <= 0.148\ngini = 0.176\nsamples = 173\nvalue = [17.14, 158.494]"] ;
86 -> 94 ;
95 [label="realli <= 0.011\ngini = 0.145\nsamples = 164\nvalue = [12.855, 150.569]"] ;
94 -> 95 ;
96 [label="gini = 0.17\nsamples = 135\nvalue = [12.855, 124.531]"] ;
95 -> 96 ;
97 [label="gini = 0.0\nsamples = 29\nvalue = [0.0, 26.038]"] ;
95 -> 97 ;
98 [label="tri <= 0.012\ngini = 0.456\nsamples = 9\nvalue = [4.285, 7.925]"] ;
94 -> 98 ;
99 [label="gini = 0.499\nsamples = 6\nvalue = [4.285, 3.962]"] ;
98 -> 99 ;
100 [label="gini = 0.0\nsamples = 3\nvalue = [0.0, 3.962]"] ;
98 -> 100 ;
101 [label="mix <= 0.037\ngini = 0.331\nsamples = 23\nvalue = [55.705, 14.717]"] ;
85 -> 101 ;
102 [label="fill <= 0.046\ngini = 0.307\nsamples = 21\nvalue = [55.705, 13.019]"] ;
101 -> 102 ;
103 [label="sauc <= 0.066\ngini = 0.299\nsamples = 20\nvalue = [55.705, 12.453]"] ;
102 -> 103 ;
104 [label="gini = 0.261\nsamples = 16\nvalue = [55.705, 10.189]"] ;
103 -> 104 ;
105 [label="gini = 0.0\nsamples = 4\nvalue = [0.0, 2.264]"] ;
103 -> 105 ;
106 [label="gini = 0.0\nsamples = 1\nvalue = [0.0, 0.566]"] ;
102 -> 106 ;
107 [label="gini = 0.0\nsamples = 2\nvalue = [0.0, 1.698]"] ;
101 -> 107 ;
108 [label="actual <= 0.014\ngini = 0.455\nsamples = 104\nvalue = [128.55, 69.058]"] ;
84 -> 108 ;
109 [label="wad <= 0.094\ngini = 0.465\nsamples = 100\nvalue = [115.695, 67.36]"] ;
108 -> 109 ;
110 [label="think <= 0.129\ngini = 0.474\nsamples = 99\nvalue = [107.125, 67.36]"] ;
109 -> 110 ;
111 [label="master <= 0.074\ngini = 0.485\nsamples = 97\nvalue = [94.27, 66.794]"] ;
110 -> 111 ;
112 [label="gini = 0.484\nsamples = 95\nvalue = [94.27, 65.662]"] ;
111 -> 112 ;
113 [label="gini = 0.0\nsamples = 2\nvalue = [0.0, 1.132]"] ;
111 -> 113 ;
114 [label="money <= 0.087\ngini = 0.081\nsamples = 2\nvalue = [12.855, 0.566]"] ;
110 -> 114 ;
115 [label="gini = 0.0\nsamples = 1\nvalue = [0.0, 0.566]"] ;
114 -> 115 ;
116 [label="gini = 0.0\nsamples = 1\nvalue = [12.855, 0.0]"] ;
114 -> 116 ;
117 [label="gini = -0.0\nsamples = 1\nvalue = [8.57, 0.0]"] ;
109 -> 117 ;
118 [label="organ <= 0.073\ngini = 0.206\nsamples = 4\nvalue = [12.855, 1.698]"] ;
108 -> 118 ;
119 [label="guess <= 0.059\ngini = 0.081\nsamples = 3\nvalue = [12.855, 0.566]"] ;
118 -> 119 ;
120 [label="gini = 0.0\nsamples = 2\nvalue = [12.855, 0.0]"] ;
119 -> 120 ;
121 [label="gini = 0.0\nsamples = 1\nvalue = [0.0, 0.566]"] ;
119 -> 121 ;
122 [label="gini = 0.0\nsamples = 1\nvalue = [0.0, 1.132]"] ;
118 -> 122 ;
123 [label="gini = -0.0\nsamples = 1\nvalue = [17.14, 0.0]"] ;
83 -> 123 ;
124 [label="amount <= 0.03\ngini = 0.088\nsamples = 109\nvalue = [4.285, 88.304]"] ;
82 -> 124 ;
125 [label="never <= 0.055\ngini = 0.094\nsamples = 101\nvalue = [4.285, 82.077]"] ;
124 -> 125 ;
126 [label="start <= 0.072\ngini = 0.099\nsamples = 97\nvalue = [4.285, 78.115]"] ;
125 -> 126 ;
127 [label="pork <= 0.126\ngini = 0.101\nsamples = 94\nvalue = [4.285, 75.851]"] ;
126 -> 127 ;
128 [label="well <= 0.019\ngini = 0.105\nsamples = 91\nvalue = [4.285, 73.02]"] ;
127 -> 128 ;
129 [label="bean <= 0.054\ngini = 0.123\nsamples = 76\nvalue = [4.285, 60.567]"] ;
128 -> 129 ;
130 [label="gini = 0.132\nsamples = 70\nvalue = [4.285, 56.039]"] ;
129 -> 130 ;
131 [label="gini = 0.0\nsamples = 6\nvalue = [0.0, 4.528]"] ;
129 -> 131 ;
132 [label="gini = 0.0\nsamples = 15\nvalue = [0.0, 12.453]"] ;
128 -> 132 ;
133 [label="gini = 0.0\nsamples = 3\nvalue = [0.0, 2.83]"] ;
127 -> 133 ;
134 [label="gini = 0.0\nsamples = 3\nvalue = [0.0, 2.264]"] ;
126 -> 134 ;
135 [label="gini = 0.0\nsamples = 4\nvalue = [0.0, 3.962]"] ;
125 -> 135 ;
136 [label="gini = 0.0\nsamples = 8\nvalue = [0.0, 6.227]"] ;
124 -> 136 ;
137 [label="stuck <= 0.085\ngini = 0.491\nsamples = 12093\nvalue = [11972.331, 9150.197]"] ;
3 -> 137 ;
138 [label="drink <= 0.149\ngini = 0.492\nsamples = 12043\nvalue = [11783.79, 9133.216]"] ;
137 -> 138 ;
139 [label="wors <= 0.009\ngini = 0.493\nsamples = 11465\nvalue = [11029.628, 8719.999]"] ;
138 -> 139 ;
140 [label="end <= 0.084\ngini = 0.494\nsamples = 11403\nvalue = [10781.097, 8700.188]"] ;
139 -> 140 ;
141 [label="wonder <= 0.063\ngini = 0.495\nsamples = 11228\nvalue = [10442.581, 8596.6]"] ;
140 -> 141 ;
142 [label="handi <= 0.025\ngini = 0.492\nsamples = 10460\nvalue = [10185.48, 7953.002]"] ;
141 -> 142 ;
143 [label="mouth <= 0.042\ngini = 0.492\nsamples = 10417\nvalue = [10185.48, 7915.642]"] ;
142 -> 143 ;
144 [label="chew <= 0.06\ngini = 0.494\nsamples = 10150\nvalue = [9726.983, 7744.695]"] ;
143 -> 144 ;
145 [label="gini = 0.494\nsamples = 10024\nvalue = [9508.448, 7666.014]"] ;
144 -> 145 ;
146 [label="gini = 0.389\nsamples = 126\nvalue = [218.536, 78.681]"] ;
144 -> 146 ;
147 [label="theyr <= 0.062\ngini = 0.396\nsamples = 267\nvalue = [458.497, 170.947]"] ;
143 -> 147 ;
148 [label="gini = 0.391\nsamples = 260\nvalue = [458.497, 166.419]"] ;
147 -> 148 ;
149 [label="gini = -0.0\nsamples = 7\nvalue = [0.0, 4.528]"] ;
147 -> 149 ;
150 [label="gini = 0.0\nsamples = 43\nvalue = [0.0, 37.359]"] ;
142 -> 150 ;
151 [label="fig <= 0.637\ngini = 0.408\nsamples = 768\nvalue = [257.101, 643.599]"] ;
141 -> 151 ;
152 [label="complain <= 0.167\ngini = 0.402\nsamples = 767\nvalue = [248.531, 643.599]"] ;
151 -> 152 ;
153 [label="left <= 0.203\ngini = 0.396\nsamples = 766\nvalue = [239.961, 643.599]"] ;
152 -> 153 ;
154 [label="gini = 0.386\nsamples = 765\nvalue = [227.106, 643.599]"] ;
153 -> 154 ;
155 [label="gini = 0.0\nsamples = 1\nvalue = [12.855, 0.0]"] ;
153 -> 155 ;
156 [label="gini = -0.0\nsamples = 1\nvalue = [8.57, 0.0]"] ;
152 -> 156 ;
157 [label="gini = -0.0\nsamples = 1\nvalue = [8.57, 0.0]"] ;
151 -> 157 ;
158 [label="water <= 0.151\ngini = 0.359\nsamples = 175\nvalue = [338.516, 103.587]"] ;
140 -> 158 ;
159 [label="two <= 0.125\ngini = 0.354\nsamples = 171\nvalue = [338.516, 100.757]"] ;
158 -> 159 ;
160 [label="well <= 0.104\ngini = 0.347\nsamples = 167\nvalue = [338.516, 97.361]"] ;
159 -> 160 ;
161 [label="egg <= 0.06\ngini = 0.334\nsamples = 159\nvalue = [338.516, 91.134]"] ;
160 -> 161 ;
162 [label="gini = 0.329\nsamples = 156\nvalue = [338.516, 88.87]"] ;
161 -> 162 ;
163 [label="gini = 0.0\nsamples = 3\nvalue = [0.0, 2.264]"] ;
161 -> 163 ;
164 [label="gini = 0.0\nsamples = 8\nvalue = [0.0, 6.227]"] ;
160 -> 164 ;
165 [label="gini = 0.0\nsamples = 4\nvalue = [0.0, 3.396]"] ;
159 -> 165 ;
166 [label="gini = -0.0\nsamples = 4\nvalue = [0.0, 2.83]"] ;
158 -> 166 ;
167 [label="south <= 0.035\ngini = 0.137\nsamples = 62\nvalue = [248.531, 19.812]"] ;
139 -> 167 ;
168 [label="refresh <= 0.052\ngini = 0.127\nsamples = 60\nvalue = [248.531, 18.114]"] ;
167 -> 168 ;
169 [label="less <= 0.068\ngini = 0.12\nsamples = 58\nvalue = [248.531, 16.981]"] ;
168 -> 169 ;
170 [label="yum <= 0.053\ngini = 0.113\nsamples = 56\nvalue = [248.531, 15.849]"] ;
169 -> 170 ;
171 [label="form <= 0.052\ngini = 0.102\nsamples = 55\nvalue = [248.531, 14.151]"] ;
170 -> 171 ;
172 [label="gini = 0.095\nsamples = 53\nvalue = [248.531, 13.019]"] ;
171 -> 172 ;
173 [label="gini = -0.0\nsamples = 2\nvalue = [0.0, 1.132]"] ;
171 -> 173 ;
174 [label="gini = -0.0\nsamples = 1\nvalue = [0.0, 1.698]"] ;
170 -> 174 ;
175 [label="gini = -0.0\nsamples = 2\nvalue = [0.0, 1.132]"] ;
169 -> 175 ;
176 [label="gini = 0.0\nsamples = 2\nvalue = [0.0, 1.132]"] ;
168 -> 176 ;
177 [label="gini = -0.0\nsamples = 2\nvalue = [0.0, 1.698]"] ;
167 -> 177 ;
178 [label="go <= 0.008\ngini = 0.457\nsamples = 578\nvalue = [754.163, 413.216]"] ;
138 -> 178 ;
179 [label="mixtur <= 0.141\ngini = 0.469\nsamples = 545\nvalue = [647.037, 390.574]"] ;
178 -> 179 ;
180 [label="littl <= 0.143\ngini = 0.474\nsamples = 541\nvalue = [621.327, 389.442]"] ;
179 -> 180 ;
181 [label="small <= 0.09\ngini = 0.468\nsamples = 520\nvalue = [621.327, 371.329]"] ;
180 -> 181 ;
182 [label="faint <= 0.127\ngini = 0.464\nsamples = 500\nvalue = [617.042, 357.178]"] ;
181 -> 182 ;
183 [label="buy <= 0.132\ngini = 0.472\nsamples = 497\nvalue = [578.477, 356.611]"] ;
182 -> 183 ;
184 [label="gini = 0.469\nsamples = 486\nvalue = [578.477, 346.989]"] ;
183 -> 184 ;
185 [label="gini = -0.0\nsamples = 11\nvalue = [0.0, 9.623]"] ;
183 -> 185 ;
186 [label="enough <= 0.035\ngini = 0.029\nsamples = 3\nvalue = [38.565, 0.566]"] ;
182 -> 186 ;
187 [label="gini = 0.0\nsamples = 1\nvalue = [0.0, 0.566]"] ;
186 -> 187 ;
188 [label="gini = 0.0\nsamples = 2\nvalue = [38.565, 0.0]"] ;
186 -> 188 ;
189 [label="ton <= 0.084\ngini = 0.357\nsamples = 20\nvalue = [4.285, 14.151]"] ;
181 -> 189 ;
190 [label="logo <= 0.114\ngini = 0.365\nsamples = 19\nvalue = [4.285, 13.585]"] ;
189 -> 190 ;
191 [label="gini = 0.0\nsamples = 18\nvalue = [0.0, 13.585]"] ;
190 -> 191 ;
192 [label="gini = 0.0\nsamples = 1\nvalue = [4.285, 0.0]"] ;
190 -> 192 ;
193 [label="gini = 0.0\nsamples = 1\nvalue = [0.0, 0.566]"] ;
189 -> 193 ;
194 [label="gini = -0.0\nsamples = 21\nvalue = [0.0, 18.114]"] ;
180 -> 194 ;
195 [label="quench <= 0.092\ngini = 0.081\nsamples = 4\nvalue = [25.71, 1.132]"] ;
179 -> 195 ;
196 [label="wasnt <= 0.09\ngini = 0.095\nsamples = 3\nvalue = [21.425, 1.132]"] ;
195 -> 196 ;
197 [label="gini = 0.0\nsamples = 2\nvalue = [21.425, 0.0]"] ;
196 -> 197 ;
198 [label="gini = 0.0\nsamples = 1\nvalue = [0.0, 1.132]"] ;
196 -> 198 ;
199 [label="gini = 0.0\nsamples = 1\nvalue = [4.285, 0.0]"] ;
195 -> 199 ;
200 [label="tast <= 0.076\ngini = 0.288\nsamples = 33\nvalue = [107.125, 22.642]"] ;
178 -> 200 ;
201 [label="back <= 0.024\ngini = 0.497\nsamples = 15\nvalue = [17.14, 14.717]"] ;
200 -> 201 ;
202 [label="help <= 0.038\ngini = 0.474\nsamples = 13\nvalue = [8.57, 13.585]"] ;
201 -> 202 ;
203 [label="think <= 0.02\ngini = 0.479\nsamples = 12\nvalue = [8.57, 13.019]"] ;
202 -> 203 ;
204 [label="buy <= 0.033\ngini = 0.499\nsamples = 8\nvalue = [8.57, 7.925]"] ;
203 -> 204 ;
205 [label="gini = 0.432\nsamples = 6\nvalue = [8.57, 3.962]"] ;
204 -> 205 ;
206 [label="gini = 0.0\nsamples = 2\nvalue = [0.0, 3.962]"] ;
204 -> 206 ;
207 [label="gini = 0.0\nsamples = 4\nvalue = [0.0, 5.094]"] ;
203 -> 207 ;
208 [label="gini = 0.0\nsamples = 1\nvalue = [0.0, 0.566]"] ;
202 -> 208 ;
209 [label="ive <= 0.014\ngini = 0.206\nsamples = 2\nvalue = [8.57, 1.132]"] ;
201 -> 209 ;
210 [label="gini = 0.0\nsamples = 1\nvalue = [8.57, 0.0]"] ;
209 -> 210 ;
211 [label="gini = 0.0\nsamples = 1\nvalue = [0.0, 1.132]"] ;
209 -> 211 ;
212 [label="real <= 0.163\ngini = 0.149\nsamples = 18\nvalue = [89.985, 7.925]"] ;
200 -> 212 ;
213 [label="swiss <= 0.085\ngini = 0.14\nsamples = 17\nvalue = [89.985, 7.359]"] ;
212 -> 213 ;
214 [label="can <= 0.052\ngini = 0.121\nsamples = 16\nvalue = [89.985, 6.227]"] ;
213 -> 214 ;
215 [label="could <= 0.03\ngini = 0.111\nsamples = 15\nvalue = [89.985, 5.66]"] ;
214 -> 215 ;
216 [label="gini = 0.243\nsamples = 11\nvalue = [34.28, 5.66]"] ;
215 -> 216 ;
217 [label="gini = 0.0\nsamples = 4\nvalue = [55.705, 0.0]"] ;
215 -> 217 ;
218 [label="gini = 0.0\nsamples = 1\nvalue = [0.0, 0.566]"] ;
214 -> 218 ;
219 [label="gini = 0.0\nsamples = 1\nvalue = [0.0, 1.132]"] ;
213 -> 219 ;
220 [label="gini = 0.0\nsamples = 1\nvalue = [0.0, 0.566]"] ;
212 -> 220 ;
221 [label="best <= 0.043\ngini = 0.152\nsamples = 50\nvalue = [188.541, 16.981]"] ;
137 -> 221 ;
222 [label="portion <= 0.065\ngini = 0.134\nsamples = 48\nvalue = [188.541, 14.717]"] ;
221 -> 222 ;
223 [label="store <= 0.208\ngini = 0.116\nsamples = 46\nvalue = [188.541, 12.453]"] ;
222 -> 223 ;
224 [label="belli <= 0.107\ngini = 0.112\nsamples = 45\nvalue = [188.541, 11.887]"] ;
223 -> 224 ;
225 [label="hey <= 0.075\ngini = 0.102\nsamples = 44\nvalue = [188.541, 10.755]"] ;
224 -> 225 ;
226 [label="wasnt <= 0.126\ngini = 0.097\nsamples = 43\nvalue = [188.541, 10.189]"] ;
225 -> 226 ;
227 [label="expect <= 0.021\ngini = 0.101\nsamples = 42\nvalue = [179.971, 10.189]"] ;
226 -> 227 ;
228 [label="gini = 0.129\nsamples = 37\nvalue = [137.12, 10.189]"] ;
227 -> 228 ;
229 [label="gini = 0.0\nsamples = 5\nvalue = [42.85, 0.0]"] ;
227 -> 229 ;
230 [label="gini = 0.0\nsamples = 1\nvalue = [8.57, 0.0]"] ;
226 -> 230 ;
231 [label="gini = 0.0\nsamples = 1\nvalue = [0.0, 0.566]"] ;
225 -> 231 ;
232 [label="gini = 0.0\nsamples = 1\nvalue = [0.0, 1.132]"] ;
224 -> 232 ;
233 [label="gini = 0.0\nsamples = 1\nvalue = [0.0, 0.566]"] ;
223 -> 233 ;
234 [label="gini = 0.0\nsamples = 2\nvalue = [0.0, 2.264]"] ;
222 -> 234 ;
235 [label="gini = 0.0\nsamples = 2\nvalue = [0.0, 2.264]"] ;
221 -> 235 ;
236 [label="review <= 0.198\ngini = 0.371\nsamples = 683\nvalue = [188.541, 577.371]"] ;
2 -> 236 ;
237 [label="buy <= 0.179\ngini = 0.367\nsamples = 682\nvalue = [184.256, 577.371]"] ;
236 -> 237 ;
238 [label="lie <= 0.128\ngini = 0.35\nsamples = 675\nvalue = [167.116, 572.276]"] ;
237 -> 238 ;
239 [label="design <= 0.14\ngini = 0.335\nsamples = 673\nvalue = [154.261, 571.71]"] ;
238 -> 239 ;
240 [label="tasteless <= 0.111\ngini = 0.324\nsamples = 672\nvalue = [145.69, 571.71]"] ;
239 -> 240 ;
241 [label="aggress <= 0.202\ngini = 0.312\nsamples = 671\nvalue = [137.12, 571.71]"] ;
240 -> 241 ;
242 [label="made <= 0.102\ngini = 0.3\nsamples = 670\nvalue = [128.55, 571.71]"] ;
241 -> 242 ;
243 [label="lack <= 0.301\ngini = 0.272\nsamples = 647\nvalue = [107.125, 554.163]"] ;
242 -> 243 ;
244 [label="onto <= 0.045\ngini = 0.264\nsamples = 646\nvalue = [102.84, 554.163]"] ;
243 -> 244 ;
245 [label="gini = 0.265\nsamples = 640\nvalue = [102.84, 550.767]"] ;
244 -> 245 ;
246 [label="gini = 0.0\nsamples = 6\nvalue = [0.0, 3.396]"] ;
244 -> 246 ;
247 [label="gini = 0.0\nsamples = 1\nvalue = [4.285, 0.0]"] ;
243 -> 247 ;
248 [label="big <= 0.068\ngini = 0.495\nsamples = 23\nvalue = [21.425, 17.548]"] ;
242 -> 248 ;
249 [label="high <= 0.034\ngini = 0.483\nsamples = 21\nvalue = [21.425, 14.717]"] ;
248 -> 249 ;
250 [label="gini = 0.47\nsamples = 19\nvalue = [21.425, 13.019]"] ;
249 -> 250 ;
251 [label="gini = 0.0\nsamples = 2\nvalue = [0.0, 1.698]"] ;
249 -> 251 ;
252 [label="gini = 0.0\nsamples = 2\nvalue = [0.0, 2.83]"] ;
248 -> 252 ;
253 [label="gini = -0.0\nsamples = 1\nvalue = [8.57, 0.0]"] ;
241 -> 253 ;
254 [label="gini = -0.0\nsamples = 1\nvalue = [8.57, 0.0]"] ;
240 -> 254 ;
255 [label="gini = -0.0\nsamples = 1\nvalue = [8.57, 0.0]"] ;
239 -> 255 ;
256 [label="chunk <= 0.066\ngini = 0.081\nsamples = 2\nvalue = [12.855, 0.566]"] ;
238 -> 256 ;
257 [label="gini = 0.0\nsamples = 1\nvalue = [0.0, 0.566]"] ;
256 -> 257 ;
258 [label="gini = 0.0\nsamples = 1\nvalue = [12.855, 0.0]"] ;
256 -> 258 ;
259 [label="ahoy <= 0.14\ngini = 0.353\nsamples = 7\nvalue = [17.14, 5.094]"] ;
237 -> 259 ;
260 [label="hot <= 0.063\ngini = 0.331\nsamples = 6\nvalue = [17.14, 4.528]"] ;
259 -> 260 ;
261 [label="everyday <= 0.095\ngini = 0.276\nsamples = 5\nvalue = [17.14, 3.396]"] ;
260 -> 261 ;
262 [label="right <= 0.07\ngini = 0.331\nsamples = 4\nvalue = [12.855, 3.396]"] ;
261 -> 262 ;
263 [label="kind <= 0.058\ngini = 0.255\nsamples = 3\nvalue = [12.855, 2.264]"] ;
262 -> 263 ;
264 [label="glad <= 0.098\ngini = 0.149\nsamples = 2\nvalue = [12.855, 1.132]"] ;
263 -> 264 ;
265 [label="gini = 0.0\nsamples = 1\nvalue = [12.855, 0.0]"] ;
264 -> 265 ;
266 [label="gini = 0.0\nsamples = 1\nvalue = [0.0, 1.132]"] ;
264 -> 266 ;
267 [label="gini = 0.0\nsamples = 1\nvalue = [0.0, 1.132]"] ;
263 -> 267 ;
268 [label="gini = 0.0\nsamples = 1\nvalue = [0.0, 1.132]"] ;
262 -> 268 ;
269 [label="gini = 0.0\nsamples = 1\nvalue = [4.285, 0.0]"] ;
261 -> 269 ;
270 [label="gini = 0.0\nsamples = 1\nvalue = [0.0, 1.132]"] ;
260 -> 270 ;
271 [label="gini = 0.0\nsamples = 1\nvalue = [0.0, 0.566]"] ;
259 -> 271 ;
272 [label="gini = 0.0\nsamples = 1\nvalue = [4.285, 0.0]"] ;
236 -> 272 ;
273 [label="papillon <= 0.178\ngini = 0.371\nsamples = 960\nvalue = [265.671, 815.678]"] ;
1 -> 273 ;
274 [label="excit <= 0.179\ngini = 0.364\nsamples = 959\nvalue = [257.101, 815.678]"] ;
273 -> 274 ;
275 [label="complet <= 0.132\ngini = 0.358\nsamples = 956\nvalue = [248.531, 814.546]"] ;
274 -> 275 ;
276 [label="organ <= 0.176\ngini = 0.355\nsamples = 952\nvalue = [244.246, 812.282]"] ;
275 -> 276 ;
277 [label="free <= 0.297\ngini = 0.339\nsamples = 944\nvalue = [222.821, 806.055]"] ;
276 -> 277 ;
278 [label="unless <= 0.155\ngini = 0.336\nsamples = 942\nvalue = [218.536, 805.489]"] ;
277 -> 278 ;
279 [label="fishi <= 0.125\ngini = 0.328\nsamples = 940\nvalue = [209.966, 804.923]"] ;
278 -> 279 ;
280 [label="eat <= 0.264\ngini = 0.324\nsamples = 939\nvalue = [205.681, 804.923]"] ;
279 -> 280 ;
281 [label="ind <= 0.15\ngini = 0.32\nsamples = 936\nvalue = [201.396, 803.791]"] ;
280 -> 281 ;
282 [label="shock <= 0.216\ngini = 0.312\nsamples = 935\nvalue = [192.826, 803.791]"] ;
281 -> 282 ;
283 [label="gini = 0.304\nsamples = 933\nvalue = [184.256, 803.225]"] ;
282 -> 283 ;
284 [label="gini = 0.116\nsamples = 2\nvalue = [8.57, 0.566]"] ;
282 -> 284 ;
285 [label="gini = -0.0\nsamples = 1\nvalue = [8.57, 0.0]"] ;
281 -> 285 ;
286 [label="second <= 0.062\ngini = 0.331\nsamples = 3\nvalue = [4.285, 1.132]"] ;
280 -> 286 ;
287 [label="big <= 0.072\ngini = 0.206\nsamples = 2\nvalue = [4.285, 0.566]"] ;
286 -> 287 ;
288 [label="gini = 0.0\nsamples = 1\nvalue = [4.285, 0.0]"] ;
287 -> 288 ;
289 [label="gini = 0.0\nsamples = 1\nvalue = [0.0, 0.566]"] ;
287 -> 289 ;
290 [label="gini = 0.0\nsamples = 1\nvalue = [0.0, 0.566]"] ;
286 -> 290 ;
291 [label="gini = 0.0\nsamples = 1\nvalue = [4.285, 0.0]"] ;
279 -> 291 ;
292 [label="unless <= 0.179\ngini = 0.116\nsamples = 2\nvalue = [8.57, 0.566]"] ;
278 -> 292 ;
293 [label="gini = 0.0\nsamples = 1\nvalue = [8.57, 0.0]"] ;
292 -> 293 ;
294 [label="gini = 0.0\nsamples = 1\nvalue = [0.0, 0.566]"] ;
292 -> 294 ;
295 [label="purs <= 0.151\ngini = 0.206\nsamples = 2\nvalue = [4.285, 0.566]"] ;
277 -> 295 ;
296 [label="gini = 0.0\nsamples = 1\nvalue = [4.285, 0.0]"] ;
295 -> 296 ;
297 [label="gini = 0.0\nsamples = 1\nvalue = [0.0, 0.566]"] ;
295 -> 297 ;
298 [label="would <= 0.069\ngini = 0.349\nsamples = 8\nvalue = [21.425, 6.227]"] ;
276 -> 298 ;
299 [label="without <= 0.097\ngini = 0.31\nsamples = 7\nvalue = [21.425, 5.094]"] ;
298 -> 299 ;
300 [label="cracker <= 0.207\ngini = 0.236\nsamples = 6\nvalue = [21.425, 3.396]"] ;
299 -> 300 ;
301 [label="need <= 0.109\ngini = 0.331\nsamples = 5\nvalue = [12.855, 3.396]"] ;
300 -> 301 ;
302 [label="etc <= 0.067\ngini = 0.206\nsamples = 4\nvalue = [12.855, 1.698]"] ;
301 -> 302 ;
303 [label="thought <= 0.049\ngini = 0.149\nsamples = 3\nvalue = [12.855, 1.132]"] ;
302 -> 303 ;
304 [label="gini = 0.331\nsamples = 2\nvalue = [4.285, 1.132]"] ;
303 -> 304 ;
305 [label="gini = 0.0\nsamples = 1\nvalue = [8.57, 0.0]"] ;
303 -> 305 ;
306 [label="gini = 0.0\nsamples = 1\nvalue = [0.0, 0.566]"] ;
302 -> 306 ;
307 [label="gini = 0.0\nsamples = 1\nvalue = [0.0, 1.698]"] ;
301 -> 307 ;
308 [label="gini = 0.0\nsamples = 1\nvalue = [8.57, 0.0]"] ;
300 -> 308 ;
309 [label="gini = 0.0\nsamples = 1\nvalue = [0.0, 1.698]"] ;
299 -> 309 ;
310 [label="gini = 0.0\nsamples = 1\nvalue = [0.0, 1.132]"] ;
298 -> 310 ;
311 [label="thank <= 0.102\ngini = 0.452\nsamples = 4\nvalue = [4.285, 2.264]"] ;
275 -> 311 ;
312 [label="tea <= 0.152\ngini = 0.407\nsamples = 3\nvalue = [4.285, 1.698]"] ;
311 -> 312 ;
313 [label="freshen <= 0.107\ngini = 0.331\nsamples = 2\nvalue = [4.285, 1.132]"] ;
312 -> 313 ;
314 [label="gini = 0.0\nsamples = 1\nvalue = [4.285, 0.0]"] ;
313 -> 314 ;
315 [label="gini = 0.0\nsamples = 1\nvalue = [0.0, 1.132]"] ;
313 -> 315 ;
316 [label="gini = 0.0\nsamples = 1\nvalue = [0.0, 0.566]"] ;
312 -> 316 ;
317 [label="gini = 0.0\nsamples = 1\nvalue = [0.0, 0.566]"] ;
311 -> 317 ;
318 [label="unabl <= 0.161\ngini = 0.206\nsamples = 3\nvalue = [8.57, 1.132]"] ;
274 -> 318 ;
319 [label="carri <= 0.181\ngini = 0.116\nsamples = 2\nvalue = [8.57, 0.566]"] ;
318 -> 319 ;
320 [label="gini = 0.0\nsamples = 1\nvalue = [8.57, 0.0]"] ;
319 -> 320 ;
321 [label="gini = 0.0\nsamples = 1\nvalue = [0.0, 0.566]"] ;
319 -> 321 ;
322 [label="gini = 0.0\nsamples = 1\nvalue = [0.0, 0.566]"] ;
318 -> 322 ;
323 [label="gini = 0.0\nsamples = 1\nvalue = [8.57, 0.0]"] ;
273 -> 323 ;
324 [label="popular <= 0.027\ngini = 0.428\nsamples = 1250\nvalue = [1911.117, 860.396]"] ;
0 -> 324 [labeldistance=2.5, labelangle=-45, headlabel="False"] ;
325 [label="offer <= 0.143\ngini = 0.425\nsamples = 1230\nvalue = [1911.117, 841.716]"] ;
324 -> 325 ;
326 [label="realli <= 0.093\ngini = 0.422\nsamples = 1214\nvalue = [1911.117, 829.829]"] ;
325 -> 326 ;
327 [label="find <= 0.073\ngini = 0.414\nsamples = 1151\nvalue = [1876.836, 776.054]"] ;
326 -> 327 ;
328 [label="sugar <= 0.027\ngini = 0.403\nsamples = 1056\nvalue = [1799.706, 699.638]"] ;
327 -> 328 ;
329 [label="cup <= 0.048\ngini = 0.391\nsamples = 971\nvalue = [1731.146, 630.58]"] ;
328 -> 329 ;
330 [label="meal <= 0.056\ngini = 0.383\nsamples = 920\nvalue = [1688.296, 586.428]"] ;
329 -> 330 ;
331 [label="nutrit <= 0.107\ngini = 0.378\nsamples = 899\nvalue = [1684.011, 569.446]"] ;
330 -> 331 ;
332 [label="rave <= 0.041\ngini = 0.375\nsamples = 889\nvalue = [1684.011, 560.955]"] ;
331 -> 332 ;
333 [label="unlik <= 0.037\ngini = 0.372\nsamples = 882\nvalue = [1684.011, 551.899]"] ;
332 -> 333 ;
334 [label="love <= 0.037\ngini = 0.37\nsamples = 873\nvalue = [1679.726, 543.974]"] ;
333 -> 334 ;
335 [label="gini = 0.341\nsamples = 710\nvalue = [1542.605, 429.066]"] ;
334 -> 335 ;
336 [label="gini = 0.496\nsamples = 163\nvalue = [137.12, 114.908]"] ;
334 -> 336 ;
337 [label="fuel <= 0.075\ngini = 0.456\nsamples = 9\nvalue = [4.285, 7.925]"] ;
333 -> 337 ;
338 [label="gini = 0.0\nsamples = 8\nvalue = [0.0, 7.925]"] ;
337 -> 338 ;
339 [label="gini = 0.0\nsamples = 1\nvalue = [4.285, 0.0]"] ;
337 -> 339 ;
340 [label="gini = -0.0\nsamples = 7\nvalue = [0.0, 9.057]"] ;
332 -> 340 ;
341 [label="gini = -0.0\nsamples = 10\nvalue = [0.0, 8.491]"] ;
331 -> 341 ;
342 [label="consist <= 0.048\ngini = 0.322\nsamples = 21\nvalue = [4.285, 16.981]"] ;
330 -> 342 ;
343 [label="butter <= 0.036\ngini = 0.349\nsamples = 18\nvalue = [4.285, 14.717]"] ;
342 -> 343 ;
344 [label="healthi <= 0.015\ngini = 0.365\nsamples = 16\nvalue = [4.285, 13.585]"] ;
343 -> 344 ;
345 [label="anoth <= 0.024\ngini = 0.407\nsamples = 13\nvalue = [4.285, 10.755]"] ;
344 -> 345 ;
346 [label="gini = 0.0\nsamples = 10\nvalue = [0.0, 9.057]"] ;
345 -> 346 ;
347 [label="gini = 0.407\nsamples = 3\nvalue = [4.285, 1.698]"] ;
345 -> 347 ;
348 [label="gini = 0.0\nsamples = 3\nvalue = [0.0, 2.83]"] ;
344 -> 348 ;
349 [label="gini = 0.0\nsamples = 2\nvalue = [0.0, 1.132]"] ;
343 -> 349 ;
350 [label="gini = 0.0\nsamples = 3\nvalue = [0.0, 2.264]"] ;
342 -> 350 ;
351 [label="kona <= 0.065\ngini = 0.5\nsamples = 51\nvalue = [42.85, 44.152]"] ;
329 -> 351 ;
352 [label="sampl <= 0.08\ngini = 0.493\nsamples = 49\nvalue = [34.28, 43.586]"] ;
351 -> 352 ;
353 [label="familiar <= 0.052\ngini = 0.496\nsamples = 47\nvalue = [34.28, 41.322]"] ;
352 -> 353 ;
354 [label="miso <= 0.078\ngini = 0.487\nsamples = 46\nvalue = [29.995, 41.322]"] ;
353 -> 354 ;
355 [label="site <= 0.037\ngini = 0.49\nsamples = 45\nvalue = [29.995, 39.623]"] ;
354 -> 355 ;
356 [label="gini = 0.494\nsamples = 43\nvalue = [29.995, 37.359]"] ;
355 -> 356 ;
357 [label="gini = 0.0\nsamples = 2\nvalue = [0.0, 2.264]"] ;
355 -> 357 ;
358 [label="gini = 0.0\nsamples = 1\nvalue = [0.0, 1.698]"] ;
354 -> 358 ;
359 [label="gini = 0.0\nsamples = 1\nvalue = [4.285, 0.0]"] ;
353 -> 359 ;
360 [label="gini = 0.0\nsamples = 2\nvalue = [0.0, 2.264]"] ;
352 -> 360 ;
361 [label="not <= 0.038\ngini = 0.116\nsamples = 2\nvalue = [8.57, 0.566]"] ;
351 -> 361 ;
362 [label="gini = 0.0\nsamples = 1\nvalue = [0.0, 0.566]"] ;
361 -> 362 ;
363 [label="gini = 0.0\nsamples = 1\nvalue = [8.57, 0.0]"] ;
361 -> 363 ;
364 [label="stop <= 0.064\ngini = 0.5\nsamples = 85\nvalue = [68.56, 69.058]"] ;
328 -> 364 ;
365 [label="supplement <= 0.07\ngini = 0.498\nsamples = 79\nvalue = [68.56, 61.133]"] ;
364 -> 365 ;
366 [label="offer <= 0.076\ngini = 0.497\nsamples = 76\nvalue = [68.56, 58.869]"] ;
365 -> 366 ;
367 [label="mild <= 0.03\ngini = 0.493\nsamples = 71\nvalue = [68.56, 54.341]"] ;
366 -> 367 ;
368 [label="nice <= 0.022\ngini = 0.487\nsamples = 67\nvalue = [68.56, 49.812]"] ;
367 -> 368 ;
369 [label="tbsp <= 0.078\ngini = 0.475\nsamples = 61\nvalue = [68.56, 43.586]"] ;
368 -> 369 ;
370 [label="gini = 0.493\nsamples = 60\nvalue = [55.705, 43.586]"] ;
369 -> 370 ;
371 [label="gini = -0.0\nsamples = 1\nvalue = [12.855, 0.0]"] ;
369 -> 371 ;
372 [label="gini = 0.0\nsamples = 6\nvalue = [0.0, 6.227]"] ;
368 -> 372 ;
373 [label="gini = 0.0\nsamples = 4\nvalue = [0.0, 4.528]"] ;
367 -> 373 ;
374 [label="gini = 0.0\nsamples = 5\nvalue = [0.0, 4.528]"] ;
366 -> 374 ;
375 [label="gini = 0.0\nsamples = 3\nvalue = [0.0, 2.264]"] ;
365 -> 375 ;
376 [label="gini = 0.0\nsamples = 6\nvalue = [0.0, 7.925]"] ;
364 -> 376 ;
377 [label="chocol <= 0.048\ngini = 0.5\nsamples = 95\nvalue = [77.13, 76.417]"] ;
327 -> 377 ;
378 [label="fact <= 0.079\ngini = 0.499\nsamples = 89\nvalue = [77.13, 70.756]"] ;
377 -> 378 ;
379 [label="last <= 0.032\ngini = 0.5\nsamples = 87\nvalue = [68.56, 69.624]"] ;
378 -> 379 ;
380 [label="definit <= 0.099\ngini = 0.5\nsamples = 82\nvalue = [68.56, 64.53]"] ;
379 -> 380 ;
381 [label="use <= 0.02\ngini = 0.498\nsamples = 78\nvalue = [68.56, 60.567]"] ;
380 -> 381 ;
382 [label="kitchen <= 0.06\ngini = 0.479\nsamples = 59\nvalue = [68.56, 45.284]"] ;
381 -> 382 ;
383 [label="delici <= 0.027\ngini = 0.495\nsamples = 58\nvalue = [55.705, 45.284]"] ;
382 -> 383 ;
384 [label="gini = 0.488\nsamples = 53\nvalue = [55.705, 40.756]"] ;
383 -> 384 ;
385 [label="gini = 0.0\nsamples = 5\nvalue = [0.0, 4.528]"] ;
383 -> 385 ;
386 [label="gini = -0.0\nsamples = 1\nvalue = [12.855, 0.0]"] ;
382 -> 386 ;
387 [label="gini = 0.0\nsamples = 19\nvalue = [0.0, 15.283]"] ;
381 -> 387 ;
388 [label="gini = 0.0\nsamples = 4\nvalue = [0.0, 3.962]"] ;
380 -> 388 ;
389 [label="gini = 0.0\nsamples = 5\nvalue = [0.0, 5.094]"] ;
379 -> 389 ;
390 [label="blue <= 0.055\ngini = 0.206\nsamples = 2\nvalue = [8.57, 1.132]"] ;
378 -> 390 ;
391 [label="gini = 0.0\nsamples = 1\nvalue = [0.0, 1.132]"] ;
390 -> 391 ;
392 [label="gini = 0.0\nsamples = 1\nvalue = [8.57, 0.0]"] ;
390 -> 392 ;
393 [label="gini = 0.0\nsamples = 6\nvalue = [0.0, 5.66]"] ;
377 -> 393 ;
394 [label="price <= 0.043\ngini = 0.475\nsamples = 63\nvalue = [34.28, 53.775]"] ;
326 -> 394 ;
395 [label="mean <= 0.086\ngini = 0.444\nsamples = 60\nvalue = [25.71, 51.511]"] ;
394 -> 395 ;
396 [label="expens <= 0.073\ngini = 0.375\nsamples = 58\nvalue = [17.14, 51.511]"] ;
395 -> 396 ;
397 [label="use <= 0.014\ngini = 0.32\nsamples = 57\nvalue = [12.855, 51.511]"] ;
396 -> 397 ;
398 [label="someth <= 0.027\ngini = 0.387\nsamples = 39\nvalue = [12.855, 36.227]"] ;
397 -> 398 ;
399 [label="purchas <= 0.064\ngini = 0.404\nsamples = 35\nvalue = [12.855, 32.831]"] ;
398 -> 399 ;
400 [label="nake <= 0.133\ngini = 0.414\nsamples = 33\nvalue = [12.855, 31.133]"] ;
399 -> 400 ;
401 [label="peppermint <= 0.285\ngini = 0.417\nsamples = 32\nvalue = [12.855, 30.567]"] ;
400 -> 401 ;
402 [label="gini = 0.0\nsamples = 31\nvalue = [0.0, 30.567]"] ;
401 -> 402 ;
403 [label="gini = 0.0\nsamples = 1\nvalue = [12.855, 0.0]"] ;
401 -> 403 ;
404 [label="gini = 0.0\nsamples = 1\nvalue = [0.0, 0.566]"] ;
400 -> 404 ;
405 [label="gini = 0.0\nsamples = 2\nvalue = [0.0, 1.698]"] ;
399 -> 405 ;
406 [label="gini = 0.0\nsamples = 4\nvalue = [0.0, 3.396]"] ;
398 -> 406 ;
407 [label="gini = 0.0\nsamples = 18\nvalue = [0.0, 15.283]"] ;
397 -> 407 ;
408 [label="gini = 0.0\nsamples = 1\nvalue = [4.285, 0.0]"] ;
396 -> 408 ;
409 [label="gini = 0.0\nsamples = 2\nvalue = [8.57, 0.0]"] ;
395 -> 409 ;
410 [label="ive <= 0.044\ngini = 0.331\nsamples = 3\nvalue = [8.57, 2.264]"] ;
394 -> 410 ;
411 [label="gini = 0.0\nsamples = 2\nvalue = [0.0, 2.264]"] ;
410 -> 411 ;
412 [label="gini = 0.0\nsamples = 1\nvalue = [8.57, 0.0]"] ;
410 -> 412 ;
413 [label="gini = -0.0\nsamples = 16\nvalue = [0.0, 11.887]"] ;
325 -> 413 ;
414 [label="gini = -0.0\nsamples = 20\nvalue = [0.0, 18.68]"] ;
324 -> 414 ;
}